{"learner":{"attributes":{"best_iteration":"10","best_score":"0.8897598231333534"},"feature_names":[],"feature_types":[],"gradient_booster":{"model":{"gbtree_model_param":{"num_parallel_tree":"1","num_trees":"21"},"iteration_indptr":[0,1,2,3,4,5,6,7,8,9,10,11,12,13,14,15,16,17,18,19,20,21],"tree_info":[0,0,0,0,0,0,0,0,0,0,0,0,0,0,0,0,0,0,0,0,0],"trees":[{"base_weights":[-1.1755096E-2,-2.3413333E-1,1.4112258E-1,-4.2136362E-1,-8.625368E-2,-1.8507937E-1,1.9536E-1,-4.57277E-1,-2.5629628E-1,-1.3281552E-1,3.5757577E-1,-2.4259259E-1,1.3714287E-1,1.9393945E-2,2.7210727E-1,-3.4316093E-2,-1.9333333E-1,-5.9259203E-3,-3.2389417E-2,-2.2396135E-1,5.066667E-2,3.1537063E-2,-1.799412E-2,1.20000005E-1,-2.791919E-1,2.6280887E-2,-1.3E-1,-5.2717943E-2,3.7846154E-1,1.9896297E-1,3.4635293E-1,-2.8790593E-2,1.20000005E-1,-2.6991181E-2,2.4444444E-1,-2.737931E-1,3.555556E-2,-2.9990202E-2,1.4355557E-1,2.3360789E-2,-1.799412E-2,-3.3219915E-2,-1.4920634E-1,1.7520592E-2,-2.399216E-2,3.1194976E-2,-3.907692E-1,-1.799412E-2,3.2121085E-2,2.8019607E-1,-4.9855065E-2,3.5650796E-1,-1.799412E-2,2.3360789E-2,-1.799412E-2,2.8032947E-2,-1.799412E-2,5.6666672E-2,-3.2026142E-1,2.8032947E-2,-1.9333333E-1,2.336E-1,-2.5555554E-1,-1.2880002E-2,1.7520592E-2,1.1304349E-1,-3.148971E-2,1.7520592E-2,-3.298922E-2,3.1089947E-1,-8.888888E-2,7.7037044E-2,-2.9990202E-2,3.830303E-1,5.6666672E-2,-2.399216E-2,2.4444444E-1,-1.311111E-1,-3.69E-1,-2.9990202E-2,2.3360789E-2,3.555556E-2,3.866667E-1,-2.8790593E-2,1.7520592E-2,-5.3968247E-2,2.4358974E-1,-5.71428E-3,3.4432748E-1,1.20000005E-1,-2.399216E-2,-1.311111E-1,3.0035298E-2,-3.1568605E-4,2.7944554E-2,2.8032947E-2,-2.6991181E-2,2.8032947E-2,-1.799412E-2,-2.9990202E-2,1.3714287E-1,-3.187218E-2,-2.0622222E-1,2.4444444E-1,-1.4857142E-1,3.234571E-2,-1.799412E-2,2.0222223E-1,-3.56E-1,2.736E-1,-1.799412E-2,2.6280887E-2,-2.6991181E-2,2.516129E-1,4.380247E-1,2.3360789E-2,-1.799412E-2,-3.1833333E-1,1.9466667E-1,2.6280887E-2,-9.233825E-3,2.3360789E-2,-2.229231E-2,-1.799412E-2,2.8032947E-2,2.3360789E-2,-2.8790593E-2,-2.399216E-2,2.4434123E-2,-3.198955E-2,1.7520592E-2,2.1742897E-2,-1.799412E-2,3.2121085E-2,8.428825E-3,3.3639535E-2,-3.1568605E-4,1.7520592E-2,-3.0847063E-2,2.6280887E-2,-1.799412E-2],"categories":[],"categories_nodes":[],"categories_segments":[],"categories_sizes":[],"default_left":[0,0,0,0,0,0,0,0,0,0,0,0,0,0,0,0,0,0,0,0,0,0,0,0,0,0,0,0,0,0,0,0,0,0,0,0,0,0,0,0,0,0,0,0,0,0,0,0,0,0,0,0,0,0,0,0,0,0,0,0,0,0,0,0,0,0,0,0,0,0,0,0,0,0,0,0,0,0,0,0,0,0,0,0,0,0,0,0,0,0,0,0,0,0,0,0,0,0,0,0,0,0,0,0,0,0,0,0,0,0,0,0,0,0,0,0,0,0,0,0,0,0,0,0,0,0,0,0,0,0,0,0,0,0,0,0,0,0,0,0,0],"id":0,"left_children":[1,3,5,7,9,11,13,15,17,19,21,23,25,27,29,-1,31,33,-1,35,37,-1,-1,39,41,-1,43,45,47,49,51,-1,53,-1,55,57,59,-1,61,-1,-1,-1,63,-1,-1,65,67,-1,-1,69,71,73,-1,-1,-1,-1,-1,75,77,-1,79,81,83,-1,-1,85,-1,-1,-1,87,89,91,-1,93,95,-1,97,99,101,-1,-1,103,105,-1,-1,107,109,111,113,115,-1,117,-1,-1,-1,-1,-1,-1,-1,-1,119,-1,121,123,125,-1,-1,127,129,131,-1,-1,-1,133,135,-1,-1,137,139,-1,-1,-1,-1,-1,-1,-1,-1,-1,-1,-1,-1,-1,-1,-1,-1,-1,-1,-1,-1,-1,-1],"loss_changes":[1.6691408E1,5.5011663E0,5.1846323E0,4.0447712E-1,2.3826952E0,8.1161547E-1,3.3709526E0,3.909874E-1,8.9729595E-1,1.7338818E0,6.932508E-1,5.112462E-1,4.835429E-1,2.013716E0,8.760195E-1,0E0,5.800533E-1,9.3580246E-1,0E0,9.02056E-1,1.5980266E0,0E0,0E0,3.952593E-1,7.387943E-1,0E0,3.9637035E-1,1.8560365E0,7.203841E-1,1.8330731E0,6.079502E-1,0E0,3.952593E-1,0E0,5.48646E-1,9.0879107E-1,1.0626608E0,0E0,1.1378299E0,0E0,0E0,0E0,3.1181124E-1,0E0,0E0,2.1086059E0,7.250849E-1,0E0,0E0,7.9822206E-1,1.1192871E0,6.463051E-1,0E0,0E0,0E0,0E0,0E0,6.7511106E-1,4.2178488E-1,0E0,1.0951111E0,7.441019E-1,5.5131257E-1,0E0,0E0,1.0160731E0,0E0,0E0,0E0,6.6874504E-1,3.5247403E-1,1.3511139E0,0E0,3.1179714E-1,1.3307201E0,0E0,5.48646E-1,9.950052E-1,4.265175E-1,0E0,0E0,4.9786243E-1,7.3107696E-1,0E0,0E0,1.696922E0,4.5704436E-1,1.1249715E0,3.849516E-1,3.952593E-1,0E0,7.938829E-1,0E0,0E0,0E0,0E0,0E0,0E0,0E0,0E0,4.835429E-1,0E0,9.6708196E-1,5.48646E-1,9.9146485E-1,0E0,0E0,1.0349154E0,6.7982996E-1,5.058278E-1,0E0,0E0,0E0,7.731141E-1,4.2711163E-1,0E0,0E0,6.3122857E-1,4.8648003E-1,0E0,0E0,0E0,0E0,0E0,0E0,0E0,0E0,0E0,0E0,0E0,0E0,0E0,0E0,0E0,0E0,0E0,0E0,0E0,0E0,0E0,0E0],"parents":[2147483647,0,0,1,1,2,2,3,3,4,4,5,5,6,6,7,7,8,8,9,9,10,10,11,11,12,12,13,13,14,14,16,16,17,17,19,19,20,20,23,23,24,24,26,26,27,27,28,28,29,29,30,30,32,32,34,34,35,35,36,36,38,38,42,42,45,45,46,46,49,49,50,50,51,51,57,57,58,58,60,60,61,61,62,62,65,65,69,69,70,70,71,71,73,73,74,74,76,76,77,77,78,78,81,81,82,82,85,85,86,86,87,87,88,88,89,89,91,91,100,100,102,102,103,103,104,104,107,107,108,108,109,109,113,113,114,114,117,117,118,118],"right_children":[2,4,6,8,10,12,14,16,18,20,22,24,26,28,30,-1,32,34,-1,36,38,-1,-1,40,42,-1,44,46,48,50,52,-1,54,-1,56,58,60,-1,62,-1,-1,-1,64,-1,-1,66,68,-1,-1,70,72,74,-1,-1,-1,-1,-1,76,78,-1,80,82,84,-1,-1,86,-1,-1,-1,88,90,92,-1,94,96,-1,98,100,102,-1,-1,104,106,-1,-1,108,110,112,114,116,-1,118,-1,-1,-1,-1,-1,-1,-1,-1,120,-1,122,124,126,-1,-1,128,130,132,-1,-1,-1,134,136,-1,-1,138,140,-1,-1,-1,-1,-1,-1,-1,-1,-1,-1,-1,-1,-1,-1,-1,-1,-1,-1,-1,-1,-1,-1],"split_conditions":[-4.4137797E-1,-9.998879E-2,-5.1942694E-1,-4.0144354E-1,1.7143518E0,2.9695955E-1,-4.6439928E-1,-5.053077E-1,-3.8030633E-1,3.6642274E-1,4.442859E-1,-1.6363163E0,5.7481223E-1,1.0915337E0,3.6642274E-1,-3.4316093E-2,-7.732654E-1,-9.1194415E-1,-3.2389417E-2,6.321232E-1,-8.875413E-1,3.1537063E-2,-1.799412E-2,-3.19759E-1,-9.763362E-1,2.6280887E-2,-3.6201367E-1,8.1688714E-1,-4.0144354E-1,-2.9347736E-1,2.2768729E0,-2.8790593E-2,-1.5910712E-1,-2.6991181E-2,1.5548228E-1,-6.467667E-1,8.671476E-1,-2.9990202E-2,1.2836382E0,2.3360789E-2,-1.799412E-2,-3.3219915E-2,1.1605737E0,1.7520592E-2,-2.399216E-2,6.729466E-1,-4.190345E-1,-1.799412E-2,3.2121085E-2,1.1709803E0,6.6092205E-1,1.6055877E0,-1.799412E-2,2.3360789E-2,-1.799412E-2,2.8032947E-2,-1.799412E-2,-9.8770976E-1,-1.3366334E-1,2.8032947E-2,2.3741868E0,7.3435456E-1,1.0664755E0,-1.2880002E-2,1.7520592E-2,4.9322646E-2,-3.148971E-2,1.7520592E-2,-3.298922E-2,-2.7200922E-1,1.0247737E-1,2.1668081E-1,-2.9990202E-2,-2.8456324E-1,8.9607936E-1,-2.399216E-2,1.6671613E-1,-6.9074374E-1,9.7736925E-1,-2.9990202E-2,2.3360789E-2,-1.3817592E-1,7.497655E-1,-2.8790593E-2,1.7520592E-2,-1.3817592E-1,8.7615365E-1,-2.7466005E-1,1.7081437E-1,1.338689E0,-2.399216E-2,2.5583506E-1,3.0035298E-2,-3.1568605E-4,2.7944554E-2,2.8032947E-2,-2.6991181E-2,2.8032947E-2,-1.799412E-2,-2.9990202E-2,5.4292955E-2,-3.187218E-2,1.0353845E0,-9.8770976E-1,6.243039E-2,3.234571E-2,-1.799412E-2,-5.706024E-1,4.3457988E-1,1.7746737E0,-1.799412E-2,2.6280887E-2,-2.6991181E-2,-1.3611127E-1,1.069367E0,2.3360789E-2,-1.799412E-2,-4.0692765E-1,5.098567E-1,2.6280887E-2,-9.233825E-3,2.3360789E-2,-2.229231E-2,-1.799412E-2,2.8032947E-2,2.3360789E-2,-2.8790593E-2,-2.399216E-2,2.4434123E-2,-3.198955E-2,1.7520592E-2,2.1742897E-2,-1.799412E-2,3.2121085E-2,8.428825E-3,3.3639535E-2,-3.1568605E-4,1.7520592E-2,-3.0847063E-2,2.6280887E-2,-1.799412E-2],"split_indices":[7,5,5,5,5,4,6,7,4,4,4,5,4,2,4,0,5,7,0,6,6,0,0,6,5,0,2,3,5,4,7,0,3,0,2,2,6,0,3,0,0,0,6,0,0,2,2,0,0,2,5,6,0,0,0,0,0,2,3,0,6,3,6,0,0,2,0,0,0,7,5,5,0,3,4,0,4,7,3,0,0,2,5,0,0,2,4,5,3,2,0,2,0,0,0,0,0,0,0,0,2,0,3,2,5,0,0,2,5,7,0,0,0,5,2,0,0,7,2,0,0,0,0,0,0,0,0,0,0,0,0,0,0,0,0,0,0,0,0,0,0],"split_type":[0,0,0,0,0,0,0,0,0,0,0,0,0,0,0,0,0,0,0,0,0,0,0,0,0,0,0,0,0,0,0,0,0,0,0,0,0,0,0,0,0,0,0,0,0,0,0,0,0,0,0,0,0,0,0,0,0,0,0,0,0,0,0,0,0,0,0,0,0,0,0,0,0,0,0,0,0,0,0,0,0,0,0,0,0,0,0,0,0,0,0,0,0,0,0,0,0,0,0,0,0,0,0,0,0,0,0,0,0,0,0,0,0,0,0,0,0,0,0,0,0,0,0,0,0,0,0,0,0,0,0,0,0,0,0,0,0,0,0,0,0],"sum_hessian":[4.89E2,1.99E2,2.9E2,8.7E1,1.12E2,4.1E1,2.49E2,7E1,1.7E1,1.02E2,1E1,3.5E1,6E0,7.6E1,1.73E2,6.3E1,7E0,8E0,9E0,6.8E1,3.4E1,9E0,1E0,3E0,3.2E1,3E0,3E0,6.4E1,1.2E1,8.9E1,8.4E1,4E0,3E0,3E0,5E0,5.7E1,1.1E1,5E0,2.9E1,2E0,1E0,1.2E1,2E1,1E0,2E0,5.2E1,1.2E1,1E0,1.1E1,6.7E1,2.2E1,8.3E1,1E0,2E0,1E0,4E0,1E0,7E0,5E1,4E0,7E0,2.4E1,5E0,1.9E1,1E0,4.5E1,7E0,1E0,1.1E1,6.2E1,5E0,1.7E1,5E0,7.6E1,7E0,2E0,5E0,1.1E1,3.9E1,5E0,2E0,1.1E1,1.3E1,4E0,1E0,2E1,2.5E1,6E0,5.6E1,3E0,2E0,1.1E1,6E0,2E0,7.4E1,4E0,3E0,4E0,1E0,5E0,6E0,2.5E1,1.4E1,5E0,6E0,1.2E1,1E0,1.1E1,9E0,2.4E1,1E0,3E0,3E0,3E1,2.6E1,2E0,1E0,7E0,4E0,3E0,3E0,2E0,1.2E1,1E0,4E0,2E0,4E0,2E0,9E0,8E0,1E0,2.3E1,1E0,1.1E1,1.9E1,2.4E1,2E0,1E0,6E0,3E0,1E0],"tree_param":{"num_deleted":"0","num_feature":"8","num_nodes":"141","size_leaf_vector":"1"}},{"base_weights":[4.032113E-3,-3.4070247E-1,1.2842935E-1,-4.0600458E-1,-1.6382673E-1,2.998496E-2,3.4596133E-1,-2.95046E-2,1.6898353E-2,2.901091E-1,-2.794154E-1,-3.5135797E-1,9.135371E-2,6.1269782E-2,3.8560185E-1,-1.8861892E-2,2.893915E-2,-3.1859893E-2,-1.7242335E-1,-4.215604E-3,-2.8128685E-2,-8.694266E-2,1.8807332E-1,3.198065E-1,-2.7988738E-1,3.1796232E-2,2.2797242E-1,1.2751178E-1,-3.1007496E-1,-2.2753641E-2,2.2254586E-2,-1.6945153E-1,1.4115016E-1,1.3339597E-1,3.8593298E-1,-1.6775394E-2,2.974898E-2,1.6528148E-2,-2.8702995E-2,-1.5098457E-2,2.7762452E-2,-1.2247379E-1,2.454915E-2,-3.6972603E-1,1.6528148E-2,1.7798103E-1,-2.2165172E-1,-2.2453692E-2,2.0592147E-1,-8.3267495E-2,1.7304383E-1,6.8575494E-2,3.1726107E-2,2.663366E-2,-2.3012364E-1,1.6325893E-2,-2.248292E-2,1.6400563E-2,-3.1183306E-2,2.8212879E-2,-2.2714049E-2,-2.501044E-1,2.1839762E-2,1.9740388E-2,-1.3354686E-1,2.6256215E-2,-2.3907702E-1,2.3062436E-1,1.9484557E-2,2.2184364E-2,-1.3138157E-1,-2.9708495E-2,1.0960603E-1,-1.8117353E-1,-3.138074E-2,1.665282E-2,-2.3749555E-2,2.2899907E-2,-3.5952327E-1,1.167374E-1,3.1523645E-1,-1.6812414E-1,2.680058E-1,1.6528148E-2,-2.3461375E-2,2.195038E-2,-1.7355066E-2,-2.5937747E-2,-6.3418136E-3,-3.0863369E-2,1.6528148E-2,2.163574E-2,-1.4639106E-2,3.2082766E-2,1.4254106E-2,1.2562404E-2,-2.1156682E-2,2.9354326E-2,-8.938341E-3],"categories":[],"categories_nodes":[],"categories_segments":[],"categories_sizes":[],"default_left":[0,0,0,0,0,0,0,0,0,0,0,0,0,0,0,0,0,0,0,0,0,0,0,0,0,0,0,0,0,0,0,0,0,0,0,0,0,0,0,0,0,0,0,0,0,0,0,0,0,0,0,0,0,0,0,0,0,0,0,0,0,0,0,0,0,0,0,0,0,0,0,0,0,0,0,0,0,0,0,0,0,0,0,0,0,0,0,0,0,0,0,0,0,0,0,0,0,0,0],"id":1,"left_children":[1,3,5,7,9,11,13,-1,-1,15,17,19,21,23,25,-1,-1,-1,27,29,-1,31,33,35,37,-1,39,41,43,-1,-1,45,47,49,51,-1,-1,-1,-1,53,-1,55,-1,57,-1,59,61,-1,63,65,67,69,-1,-1,71,-1,-1,-1,-1,-1,-1,73,-1,-1,75,-1,77,79,81,-1,83,-1,85,87,-1,-1,-1,-1,89,91,93,95,97,-1,-1,-1,-1,-1,-1,-1,-1,-1,-1,-1,-1,-1,-1,-1,-1],"loss_changes":[2.1185583E1,1.4465828E0,7.7632003E0,6.7267513E-1,2.0224452E0,5.9061346E0,1.2516155E0,0E0,0E0,6.296924E-1,4.6552587E-1,5.409074E-1,3.7584636E0,1.4125346E0,8.6621E-1,0E0,0E0,0E0,8.652694E-1,6.0226524E-1,0E0,1.4730339E0,1.4739189E0,5.943943E-1,5.3971595E-1,0E0,1.1936871E0,4.2399564E-1,5.393077E-1,0E0,0E0,1.0732043E0,6.870707E-1,9.765161E-1,5.475488E-1,0E0,0E0,0E0,0E0,1.1766481E0,0E0,3.4623292E-1,0E0,6.4242053E-1,0E0,9.999732E-1,8.29654E-1,0E0,5.014884E-1,1.3586223E0,8.354988E-1,3.3347225E-1,0E0,0E0,6.210713E-1,0E0,0E0,0E0,0E0,0E0,0E0,5.5421424E-1,0E0,0E0,3.7398842E-1,0E0,1.0627E0,6.280987E-1,1.3039263E0,0E0,3.665531E-1,0E0,3.5784927E-1,5.929626E-1,0E0,0E0,0E0,0E0,6.3404834E-1,1.9429195E0,5.189643E-1,7.687819E-1,7.3854584E-1,0E0,0E0,0E0,0E0,0E0,0E0,0E0,0E0,0E0,0E0,0E0,0E0,0E0,0E0,0E0,0E0],"parents":[2147483647,0,0,1,1,2,2,3,3,4,4,5,5,6,6,9,9,10,10,11,11,12,12,13,13,14,14,18,18,19,19,21,21,22,22,23,23,24,24,26,26,27,27,28,28,31,31,32,32,33,33,34,34,39,39,41,41,43,43,45,45,46,46,48,48,49,49,50,50,51,51,54,54,61,61,64,64,66,66,67,67,68,68,70,70,72,72,73,73,78,78,79,79,80,80,81,81,82,82],"right_children":[2,4,6,8,10,12,14,-1,-1,16,18,20,22,24,26,-1,-1,-1,28,30,-1,32,34,36,38,-1,40,42,44,-1,-1,46,48,50,52,-1,-1,-1,-1,54,-1,56,-1,58,-1,60,62,-1,64,66,68,70,-1,-1,72,-1,-1,-1,-1,-1,-1,74,-1,-1,76,-1,78,80,82,-1,84,-1,86,88,-1,-1,-1,-1,90,92,94,96,98,-1,-1,-1,-1,-1,-1,-1,-1,-1,-1,-1,-1,-1,-1,-1,-1],"split_conditions":[-5.7006216E-1,6.0051054E-1,8.241235E-1,1.8792268E0,7.3435456E-1,-7.098058E-1,-2.7466005E-1,-2.95046E-2,1.6898353E-2,-1.159352E0,6.7361397E-1,-1.6363163E0,-5.4022765E-1,-5.955785E-1,8.9319223E-1,-1.8861892E-2,2.893915E-2,-3.1859893E-2,9.82678E-1,3.5468793E-1,-2.8128685E-2,6.458511E-1,9.86282E-1,-1.1286393E0,-4.6786895E-1,3.1796232E-2,1.4086745E0,-1.0295049E0,9.86282E-1,-2.2753641E-2,2.2254586E-2,-8.2180804E-1,-4.6434554E-1,-4.190345E-1,-1.5365247E-1,-1.6775394E-2,2.974898E-2,1.6528148E-2,-2.8702995E-2,9.885144E-1,2.7762452E-2,-1.9997164E0,2.454915E-2,-1.6080828E0,1.6528148E-2,-9.348036E-1,1.4850048E0,-2.2453692E-2,-5.8250934E-1,-9.8978525E-1,5.9946907E-1,-3.3485958E-1,3.1726107E-2,2.663366E-2,1.1330379E0,1.6325893E-2,-2.248292E-2,1.6400563E-2,-3.1183306E-2,2.8212879E-2,-2.2714049E-2,5.9984165E-1,2.1839762E-2,1.9740388E-2,8.942012E-1,2.6256215E-2,-1.8146352E-1,7.587655E-2,9.69998E-1,2.2184364E-2,1.4563836E0,-2.9708495E-2,1.317781E0,-8.9358157E-1,-3.138074E-2,1.665282E-2,-2.3749555E-2,2.2899907E-2,1.0664755E0,-1.9593413E-1,1.4159511E-1,-6.174919E-1,2.8497517E-1,1.6528148E-2,-2.3461375E-2,2.195038E-2,-1.7355066E-2,-2.5937747E-2,-6.3418136E-3,-3.0863369E-2,1.6528148E-2,2.163574E-2,-1.4639106E-2,3.2082766E-2,1.4254106E-2,1.2562404E-2,-2.1156682E-2,2.9354326E-2,-8.938341E-3],"split_indices":[1,3,1,0,3,5,5,0,0,6,5,5,6,5,3,0,0,0,3,0,0,0,0,5,0,0,1,1,0,0,0,2,1,2,6,0,0,0,0,1,0,1,0,2,0,3,2,0,6,0,5,6,0,0,1,0,0,0,0,0,0,2,0,0,0,0,6,6,3,0,0,0,1,6,0,0,0,0,6,6,2,0,1,0,0,0,0,0,0,0,0,0,0,0,0,0,0,0,0],"split_type":[0,0,0,0,0,0,0,0,0,0,0,0,0,0,0,0,0,0,0,0,0,0,0,0,0,0,0,0,0,0,0,0,0,0,0,0,0,0,0,0,0,0,0,0,0,0,0,0,0,0,0,0,0,0,0,0,0,0,0,0,0,0,0,0,0,0,0,0,0,0,0,0,0,0,0,0,0,0,0,0,0,0,0,0,0,0,0,0,0,0,0,0,0,0,0,0,0,0,0],"sum_hessian":[4.92E2,1.3E2,3.62E2,9.4E1,3.6E1,2.5E2,1.12E2,9.3E1,1E0,7E0,2.9E1,3.4E1,2.16E2,1.4E1,9.8E1,1E0,6E0,1E1,1.9E1,4E0,3E1,7.6E1,1.4E2,8E0,6E0,6.9E1,2.9E1,6E0,1.3E1,2E0,2E0,5.6E1,2E1,1.11E2,2.9E1,1E0,7E0,1E0,5E0,1.2E1,1.7E1,3E0,3E0,1.2E1,1E0,7E0,4.9E1,2E0,1.8E1,1.7E1,9.4E1,5E0,2.4E1,4E0,8E0,1E0,2E0,1E0,1.1E1,5E0,2E0,4.7E1,2E0,1.5E1,3E0,4E0,1.3E1,6.8E1,2.6E1,2E0,3E0,5E0,3E0,3.6E1,1.1E1,1E0,2E0,2E0,1.1E1,3E1,3.8E1,1.5E1,1.1E1,1E0,2E0,2E0,1E0,1.1E1,2.5E1,1E1,1E0,1.9E1,1.1E1,1.6E1,2.2E1,4E0,1.1E1,8E0,3E0],"tree_param":{"num_deleted":"0","num_feature":"8","num_nodes":"99","size_leaf_vector":"1"}},{"base_weights":[9.299221E-3,-1.7080894E-1,2.0852827E-1,-3.0814835E-1,-2.895149E-2,9.300758E-2,3.690724E-1,-3.255673E-1,2.348587E-2,-2.3991416E-1,7.565019E-2,-2.6124394E-1,1.4160813E-1,3.9461648E-1,7.2623454E-2,-2.9300038E-2,-2.249645E-1,2.4238786E-2,-2.9203272E-1,-9.935716E-2,2.1339788E-1,-2.9782504E-2,2.0194572E-1,2.9460776E-1,5.1523633E-2,2.9367547E-2,1.1216761E-1,-1.06888145E-1,2.299471E-2,-3.204623E-1,2.6277963E-2,-2.3519851E-2,2.1345899E-2,2.6096467E-2,-2.990808E-2,2.9359043E-2,3.6226806E-1,2.6257204E-2,-1.6654188E-2,2.7412938E-2,1.9861327E-1,-1.3292799E-2,2.4773417E-2,-1.2961218E-1,2.314888E-2,1.1018169E-1,-2.5619263E-2,1.7370693E-2,-3.388617E-1,2.2302678E-2,-2.3529254E-1,-2.5993603E-1,1.120152E-1,1.3602632E-1,-2.7122475E-2,2.7938416E-2,-1.5821561E-2,-9.235415E-2,2.933827E-2,-2.3123736E-2,4.2705055E-2,-2.3003045E-2,1.6092012E-2,-1.5838642E-2,2.099395E-2,-2.5400352E-2,2.5906863E-3,-2.9049892E-2,2.1757402E-2,-2.6840484E-2,1.5900575E-2,2.4398373E-2,-1.288009E-1,-1.0628581E-1,2.2865485E-2,-2.845053E-1,1.9512832E-1,-1.201939E-1,1.6863534E-1,-2.222845E-2,1.9159317E-1,-2.5958078E-2,8.420814E-2,1.5592528E-2,-2.87738E-2,-1.5815344E-2,2.5232488E-2,1.812002E-1,-2.474694E-1,-1.13923565E-1,2.6756844E-1,2.5742443E-2,-1.7463006E-2,2.4951087E-2,-2.1305604E-2,2.808263E-2,-9.362191E-3,-2.0547217E-2,1.6452858E-2,2.219376E-2,-1.9915514E-2,1.4288775E-3,2.9455788E-2],"categories":[],"categories_nodes":[],"categories_segments":[],"categories_sizes":[],"default_left":[0,0,0,0,0,0,0,0,0,0,0,0,0,0,0,0,0,0,0,0,0,0,0,0,0,0,0,0,0,0,0,0,0,0,0,0,0,0,0,0,0,0,0,0,0,0,0,0,0,0,0,0,0,0,0,0,0,0,0,0,0,0,0,0,0,0,0,0,0,0,0,0,0,0,0,0,0,0,0,0,0,0,0,0,0,0,0,0,0,0,0,0,0,0,0,0,0,0,0,0,0,0,0],"id":2,"left_children":[1,3,5,7,9,11,13,15,-1,17,19,21,23,25,27,-1,29,-1,31,33,35,-1,37,39,41,-1,43,45,-1,47,49,-1,-1,51,-1,53,55,-1,-1,-1,57,59,-1,61,-1,63,-1,-1,65,-1,67,69,71,73,-1,-1,-1,75,-1,-1,77,-1,-1,-1,-1,-1,-1,-1,-1,-1,-1,-1,79,81,-1,83,85,87,89,-1,91,-1,93,-1,-1,-1,-1,95,97,99,101,-1,-1,-1,-1,-1,-1,-1,-1,-1,-1,-1,-1],"loss_changes":[1.776171E1,5.05656E0,4.3240223E0,1.576438E0,2.8647993E0,2.4129157E0,7.134485E-1,1.0354652E0,0E0,1.4021015E0,2.1184993E0,1.3292295E0,1.6663342E0,4.3253326E-1,4.4030032E-1,0E0,1.4959931E0,0E0,1.0261619E0,1.5850108E0,1.331861E0,0E0,4.526545E-1,3.1787062E-1,1.5074537E0,0E0,4.0398383E-1,3.7029105E-1,0E0,5.506916E-1,1.4285153E0,0E0,0E0,7.4180776E-1,0E0,1.0607764E0,5.783417E-1,0E0,0E0,0E0,1.535562E0,1.1504807E0,0E0,3.5009733E-1,0E0,3.129659E-1,0E0,0E0,3.225546E-1,0E0,1.0660043E0,4.8401085E-1,1.3263656E0,8.900367E-1,0E0,0E0,0E0,6.63156E-1,0E0,0E0,1.169048E0,0E0,0E0,0E0,0E0,0E0,0E0,0E0,0E0,0E0,0E0,0E0,7.6795065E-1,4.751062E-1,0E0,5.1439804E-1,4.1356042E-1,1.0038437E0,9.2502415E-1,0E0,4.62742E-1,0E0,7.2095776E-1,0E0,0E0,0E0,0E0,5.883963E-1,4.275545E-1,7.2639036E-1,8.6543906E-1,0E0,0E0,0E0,0E0,0E0,0E0,0E0,0E0,0E0,0E0,0E0,0E0],"parents":[2147483647,0,0,1,1,2,2,3,3,4,4,5,5,6,6,7,7,9,9,10,10,11,11,12,12,13,13,14,14,16,16,18,18,19,19,20,20,22,22,23,23,24,24,26,26,27,27,29,29,30,30,33,33,35,35,36,36,40,40,41,41,43,43,45,45,48,48,50,50,51,51,52,52,53,53,57,57,60,60,72,72,73,73,75,75,76,76,77,77,78,78,80,80,82,82,87,87,88,88,89,89,90,90],"right_children":[2,4,6,8,10,12,14,16,-1,18,20,22,24,26,28,-1,30,-1,32,34,36,-1,38,40,42,-1,44,46,-1,48,50,-1,-1,52,-1,54,56,-1,-1,-1,58,60,-1,62,-1,64,-1,-1,66,-1,68,70,72,74,-1,-1,-1,76,-1,-1,78,-1,-1,-1,-1,-1,-1,-1,-1,-1,-1,-1,80,82,-1,84,86,88,90,-1,92,-1,94,-1,-1,-1,-1,96,98,100,102,-1,-1,-1,-1,-1,-1,-1,-1,-1,-1,-1,-1],"split_conditions":[1.01972155E-1,-4.4137797E-1,1.0728016E0,1.7143518E0,-6.8523306E-1,-9.1194415E-1,2.1066973E0,-1.3611127E-1,2.348587E-2,-1.9997164E0,-1.3366334E-1,2.9525462E-1,2.2958735E-1,1.8088968E0,1.8498324E0,-2.9300038E-2,-5.325919E-1,2.4238786E-2,2.285995E0,5.9984165E-1,3.8864452E-1,-2.9782504E-2,-1.0251571E0,-2.7634293E-1,1.0915337E0,2.9367547E-2,1.8792268E0,2.2939663E-1,2.299471E-2,-2.9972842E0,5.7148277E-3,-2.3519851E-2,2.1345899E-2,-8.748008E-1,-2.990808E-2,1.2257602E0,1.973647E0,2.6257204E-2,-1.6654188E-2,2.7412938E-2,6.458511E-1,-4.4137797E-1,2.4773417E-2,3.9839992E-1,2.314888E-2,4.9322646E-2,-2.5619263E-2,1.7370693E-2,5.9984165E-1,2.2302678E-2,1.2257602E0,1.2338966E0,-1.2310148E-1,3.543598E-2,-2.7122475E-2,2.7938416E-2,-1.5821561E-2,7.148166E-1,2.933827E-2,-2.3123736E-2,-4.7222335E-2,-2.3003045E-2,1.6092012E-2,-1.5838642E-2,2.099395E-2,-2.5400352E-2,2.5906863E-3,-2.9049892E-2,2.1757402E-2,-2.6840484E-2,1.5900575E-2,2.4398373E-2,4.9322646E-2,-2.2345418E-1,2.2865485E-2,-1.1064967E0,-3.894727E-1,4.507553E-1,-1.3611127E-1,-2.222845E-2,6.589516E-2,-2.5958078E-2,-3.3036605E-1,1.5592528E-2,-2.87738E-2,-1.5815344E-2,2.5232488E-2,5.040552E-1,3.0453212E0,2.9150435E-1,4.9567702E-1,2.5742443E-2,-1.7463006E-2,2.4951087E-2,-2.1305604E-2,2.808263E-2,-9.362191E-3,-2.0547217E-2,1.6452858E-2,2.219376E-2,-1.9915514E-2,1.4288775E-3,2.9455788E-2],"split_indices":[1,7,1,5,1,7,7,5,0,1,3,3,2,0,1,0,0,0,0,2,2,0,0,7,2,0,0,5,0,2,0,0,0,5,0,3,3,0,0,0,0,7,0,5,0,2,0,0,2,0,3,0,5,5,0,0,0,7,0,0,3,0,0,0,0,0,0,0,0,0,0,0,2,0,0,0,2,2,5,0,1,0,1,0,0,0,0,1,7,1,7,0,0,0,0,0,0,0,0,0,0,0,0],"split_type":[0,0,0,0,0,0,0,0,0,0,0,0,0,0,0,0,0,0,0,0,0,0,0,0,0,0,0,0,0,0,0,0,0,0,0,0,0,0,0,0,0,0,0,0,0,0,0,0,0,0,0,0,0,0,0,0,0,0,0,0,0,0,0,0,0,0,0,0,0,0,0,0,0,0,0,0,0,0,0,0,0,0,0,0,0,0,0,0,0,0,0,0,0,0,0,0,0,0,0,0,0,0,0],"sum_hessian":[4.93E2,2.59E2,2.34E2,1.31E2,1.28E2,1.37E2,9.7E1,1.28E2,3E0,4.2E1,8.6E1,1.6E1,1.21E2,8.9E1,8E0,6.7E1,6.1E1,3E0,3.9E1,3.8E1,4.8E1,1.2E1,4E0,4.4E1,7.7E1,8.3E1,6E0,5E0,3E0,4.4E1,1.7E1,3.7E1,2E0,2.8E1,1E1,2.2E1,2.6E1,3E0,1E0,2.1E1,2.3E1,6.4E1,1.3E1,3E0,3E0,3E0,2E0,1E0,4.3E1,8E0,9E0,6E0,2.2E1,1.8E1,4E0,2.5E1,1E0,1E1,1.3E1,9E0,5.5E1,2E0,1E0,1E0,2E0,4.1E1,2E0,7E0,2E0,5E0,1E0,1.1E1,1.1E1,8E0,1E1,6E0,4E0,2.4E1,3.1E1,7E0,4E0,3E0,5E0,1E0,5E0,1E0,3E0,7E0,1.7E1,8E0,2.3E1,3E0,1E0,3E0,2E0,4E0,3E0,1.6E1,1E0,2E0,6E0,9E0,1.4E1],"tree_param":{"num_deleted":"0","num_feature":"8","num_nodes":"103","size_leaf_vector":"1"}},{"base_weights":[-5.1401355E-3,-1.8892276E-1,2.0603624E-1,-3.1707177E-1,-3.995032E-2,1.14208534E-1,3.267363E-1,-3.4999424E-1,-1.272224E-1,-2.1936305E-1,4.917068E-2,-1.99702E-1,1.5809315E-1,2.0275651E-1,3.787451E-1,-3.6710042E-1,-1.19984336E-1,9.211636E-2,-2.7480564E-1,2.2947535E-2,-2.693726E-1,-2.7936155E-1,8.2235895E-2,2.7275416E-3,-2.698709E-2,-1.0820629E-2,2.437561E-1,2.84893E-1,-3.880267E-2,2.7825115E-2,-2.9881522E-3,-2.7430484E-2,-1.3000438E-1,9.162233E-2,-2.4854295E-2,-2.0210305E-1,3.031226E-2,-2.76596E-2,9.365166E-3,-3.071461E-1,2.0335106E-2,1.6390815E-2,-2.7360678E-2,1.47076E-1,-1.0076226E-1,2.3232159E-1,-2.4316598E-2,5.5941302E-2,-2.9320624E-1,2.7048725E-1,-2.0596226E-1,-1.7781684E-2,3.1904858E-1,-2.6711574E-2,1.9250499E-1,2.310785E-2,-2.6396109E-2,-7.4377772E-3,2.29328E-2,1.6494613E-2,-2.382416E-2,-1.9908197E-2,2.1016868E-2,-3.2996228E-1,1.8262967E-2,1.9033766E-1,-2.482941E-2,3.997954E-2,-2.7556378E-2,-1.4718696E-2,2.568948E-2,-9.9049225E-2,1.8351535E-1,-2.8008416E-2,1.4724368E-2,-2.1558072E-2,2.1038555E-2,1.4150546E-2,-2.5361998E-2,2.5119226E-2,-1.5700366E-2,2.4149928E-2,-1.9354263E-2,-2.7905049E-2,-1.5128407E-1,3.617397E-2,2.7995822E-1,2.5755106E-2,-1.5758932E-1,-3.0391854E-1,9.406231E-2,2.4310754E-1,-1.0073222E-1,2.1991564E-2,-2.4671266E-2,-2.7332745E-2,2.0590733E-1,1.7960886E-2,-2.2747317E-1,3.19119E-1,-9.3527295E-2,-2.9417096E-2,2.3496222E-2,-2.8828189E-2,1.4550024E-2,2.348941E-2,-7.9373E-2,2.7832065E-2,4.5396753E-2,-2.1970043E-2,1.864516E-2,2.6487008E-2,-1.641032E-2,6.028901E-4,-2.7431224E-2,1.03785535E-2,2.8024187E-2,1.6935768E-2,-2.0148098E-2,9.560958E-3,-2.4023581E-2,-2.1806294E-2,1.5202487E-2],"categories":[],"categories_nodes":[],"categories_segments":[],"categories_sizes":[],"default_left":[0,0,0,0,0,0,0,0,0,0,0,0,0,0,0,0,0,0,0,0,0,0,0,0,0,0,0,0,0,0,0,0,0,0,0,0,0,0,0,0,0,0,0,0,0,0,0,0,0,0,0,0,0,0,0,0,0,0,0,0,0,0,0,0,0,0,0,0,0,0,0,0,0,0,0,0,0,0,0,0,0,0,0,0,0,0,0,0,0,0,0,0,0,0,0,0,0,0,0,0,0,0,0,0,0,0,0,0,0,0,0,0,0,0,0,0,0,0,0,0,0,0,0],"id":3,"left_children":[1,3,5,7,9,11,13,15,17,19,21,23,25,27,29,31,33,35,37,-1,39,41,43,45,-1,47,49,51,53,-1,-1,-1,55,57,-1,59,-1,-1,61,63,-1,-1,-1,65,67,69,-1,71,73,75,77,-1,79,-1,81,-1,-1,-1,-1,-1,-1,-1,-1,83,-1,85,-1,87,-1,-1,-1,89,91,-1,-1,93,-1,-1,-1,-1,-1,-1,-1,-1,95,97,99,-1,101,103,105,107,109,-1,-1,-1,111,-1,113,115,117,-1,-1,-1,-1,-1,119,-1,121,-1,-1,-1,-1,-1,-1,-1,-1,-1,-1,-1,-1,-1,-1],"loss_changes":[1.9599442E1,5.141814E0,2.5673323E0,8.617668E-1,2.0254557E0,1.8913107E0,5.744591E-1,4.3990898E-1,7.6984084E-1,1.2263551E0,9.463276E-1,6.2129813E-1,1.7245262E0,6.4596105E-1,3.9929008E-1,4.656248E-1,5.1860964E-1,1.0708247E0,4.5958972E-1,0E0,9.065187E-1,5.208225E-1,9.403379E-1,7.925745E-1,0E0,7.893594E-1,1.0054073E0,5.1862204E-1,7.744932E-1,0E0,0E0,0E0,1.2210628E0,3.0621445E-1,0E0,4.252885E-1,0E0,0E0,4.978857E-1,5.6119037E-1,0E0,0E0,0E0,1.3126955E0,8.6433744E-1,4.1607967E-1,0E0,6.9045126E-1,4.8661196E-1,5.6947136E-1,3.772524E-1,0E0,5.079324E-1,0E0,5.0414056E-1,0E0,0E0,0E0,0E0,0E0,0E0,0E0,0E0,3.4518933E-1,0E0,7.3594964E-1,0E0,1.013231E0,0E0,0E0,0E0,6.615894E-1,3.463285E-1,0E0,0E0,8.6276186E-1,0E0,0E0,0E0,0E0,0E0,0E0,0E0,0E0,9.9677813E-1,1.2572519E0,5.2712965E-1,0E0,1.3900218E0,4.980625E-1,3.9562014E-1,4.527033E-1,3.8423982E-1,0E0,0E0,0E0,4.5098904E-1,0E0,3.7780017E-1,3.4685802E-1,3.2009768E-1,0E0,0E0,0E0,0E0,0E0,3.7785277E-1,0E0,5.41122E-1,0E0,0E0,0E0,0E0,0E0,0E0,0E0,0E0,0E0,0E0,0E0,0E0,0E0,0E0],"parents":[2147483647,0,0,1,1,2,2,3,3,4,4,5,5,6,6,7,7,8,8,9,9,10,10,11,11,12,12,13,13,14,14,15,15,16,16,17,17,18,18,20,20,21,21,22,22,23,23,25,25,26,26,27,27,28,28,32,32,33,33,35,35,38,38,39,39,43,43,44,44,45,45,47,47,48,48,49,49,50,50,52,52,54,54,63,63,65,65,67,67,71,71,72,72,75,75,84,84,85,85,86,86,88,88,89,89,90,90,91,91,92,92,96,96,98,98,99,99,100,100,106,106,108,108],"right_children":[2,4,6,8,10,12,14,16,18,20,22,24,26,28,30,32,34,36,38,-1,40,42,44,46,-1,48,50,52,54,-1,-1,-1,56,58,-1,60,-1,-1,62,64,-1,-1,-1,66,68,70,-1,72,74,76,78,-1,80,-1,82,-1,-1,-1,-1,-1,-1,-1,-1,84,-1,86,-1,88,-1,-1,-1,90,92,-1,-1,94,-1,-1,-1,-1,-1,-1,-1,-1,96,98,100,-1,102,104,106,108,110,-1,-1,-1,112,-1,114,116,118,-1,-1,-1,-1,-1,120,-1,122,-1,-1,-1,-1,-1,-1,-1,-1,-1,-1,-1,-1,-1,-1],"split_conditions":[1.01972155E-1,-4.4137797E-1,1.0674038E0,6.22518E-1,-6.8523306E-1,-9.1194415E-1,-4.3744773E-1,6.729466E-1,1.1985478E0,-1.9997164E0,-8.7546086E-1,-1.0251571E0,-5.0096613E-1,1.6890926E0,3.6828947E0,-1.1808018E-1,-6.6707265E-1,-4.190345E-1,-5.917139E-1,2.2947535E-2,2.285995E0,-2.2753257E-2,-5.929342E-2,4.432977E-1,-2.698709E-2,-5.8250934E-1,1.0048095E0,-1.1064967E0,3.29058E-1,2.7825115E-2,-2.9881522E-3,-2.7430484E-2,-9.630443E-1,-7.9391766E-1,-2.4854295E-2,-1.0888824E0,3.031226E-2,-2.76596E-2,-5.325919E-1,1.6055877E0,2.0335106E-2,1.6390815E-2,-2.7360678E-2,1.01828E0,4.6976995E-1,-9.902253E-1,-2.4316598E-2,-7.637958E-1,1.338689E0,-7.816693E-1,-6.0306334E-1,-1.7781684E-2,1.7663465E0,-2.6711574E-2,1.2392199E0,2.310785E-2,-2.6396109E-2,-7.4377772E-3,2.29328E-2,1.6494613E-2,-2.382416E-2,-1.9908197E-2,2.1016868E-2,7.567591E-1,1.8262967E-2,1.5363188E-1,-2.482941E-2,-5.325919E-1,-2.7556378E-2,-1.4718696E-2,2.568948E-2,3.5468793E-1,5.8384305E-1,-2.8008416E-2,1.4724368E-2,5.9890443E-1,2.1038555E-2,1.4150546E-2,-2.5361998E-2,2.5119226E-2,-1.5700366E-2,2.4149928E-2,-1.9354263E-2,-2.7905049E-2,2.5583506E-1,-2.0496398E-2,1.4605513E0,2.5755106E-2,8.1541575E-2,8.241235E-1,8.7224805E-1,5.1208454E-1,9.86282E-1,2.1991564E-2,-2.4671266E-2,-2.7332745E-2,2.0216098E0,1.7960886E-2,-2.9559806E-1,-4.2837992E-1,-1.1064967E0,-2.9417096E-2,2.3496222E-2,-2.8828189E-2,1.4550024E-2,2.348941E-2,6.458511E-1,2.7832065E-2,6.518699E-1,-2.1970043E-2,1.864516E-2,2.6487008E-2,-1.641032E-2,6.028901E-4,-2.7431224E-2,1.03785535E-2,2.8024187E-2,1.6935768E-2,-2.0148098E-2,9.560958E-3,-2.4023581E-2,-2.1806294E-2,1.5202487E-2],"split_indices":[1,7,1,6,1,7,6,2,6,1,6,0,6,1,4,1,6,2,7,0,0,2,1,2,0,6,1,0,7,0,0,0,6,6,0,0,0,0,0,6,0,0,0,2,7,6,0,6,2,7,4,0,7,0,2,0,0,0,0,0,0,0,0,7,0,2,0,0,0,0,0,0,4,0,0,1,0,0,0,0,0,0,0,0,2,7,7,0,7,1,7,1,0,0,0,0,7,0,6,1,0,0,0,0,0,0,0,0,1,0,0,0,0,0,0,0,0,0,0,0,0,0,0],"split_type":[0,0,0,0,0,0,0,0,0,0,0,0,0,0,0,0,0,0,0,0,0,0,0,0,0,0,0,0,0,0,0,0,0,0,0,0,0,0,0,0,0,0,0,0,0,0,0,0,0,0,0,0,0,0,0,0,0,0,0,0,0,0,0,0,0,0,0,0,0,0,0,0,0,0,0,0,0,0,0,0,0,0,0,0,0,0,0,0,0,0,0,0,0,0,0,0,0,0,0,0,0,0,0,0,0,0,0,0,0,0,0,0,0,0,0,0,0,0,0,0,0,0,0],"sum_hessian":[5.03E2,2.69E2,2.34E2,1.44E2,1.25E2,1.34E2,1E2,1.22E2,2.2E1,4.1E1,8.4E1,1.6E1,1.18E2,3.1E1,6.9E1,1.13E2,9E0,9E0,1.3E1,3E0,3.8E1,7E0,7.7E1,8E0,8E0,4E1,7.8E1,2.3E1,8E0,6.7E1,2E0,1.04E2,9E0,5E0,4E0,5E0,4E0,9E0,4E0,3.6E1,2E0,1E0,6E0,5.7E1,2E1,5E0,3E0,3.3E1,7E0,7.4E1,4E0,1E0,2.2E1,3E0,5E0,3E0,6E0,3E0,2E0,1E0,4E0,2E0,2E0,3.5E1,1E0,5.3E1,4E0,1.4E1,6E0,1E0,4E0,1.5E1,1.8E1,6E0,1E0,6E0,6.8E1,1E0,3E0,2.1E1,1E0,4E0,1E0,2.5E1,1E1,2E1,3.3E1,5E0,9E0,7E0,8E0,1.5E1,3E0,3E0,3E0,6E0,4E0,1.1E1,9E0,3E1,3E0,6E0,3E0,6E0,1E0,3E0,5E0,8E0,7E0,2E0,1E0,3E0,1E0,4E0,5E0,1E1,2E1,1E0,2E0,3E0,2E0,2E0,5E0],"tree_param":{"num_deleted":"0","num_feature":"8","num_nodes":"123","size_leaf_vector":"1"}},{"base_weights":[9.193537E-3,-1.7039318E-1,1.3770756E-1,-2.3224771E-2,-4.878903E-2,-1.9250628E-1,1.6743056E-1,-1.1166141E-1,1.968743E-1,-2.8719185E-2,-2.7237086E-2,4.0882688E-2,2.2903417E-1,1.3639767E-2,-1.5902343E-1,3.2114464E-1,4.5841906E-2,-1.5284152E-1,2.2715E-2,6.506165E-2,-2.6186038E-2,2.4177164E-1,-2.6928669E-2,-1.8074761E-1,2.1618081E-2,2.7077377E-2,-1.4194585E-2,1.6702789E-1,-1.5722404E-1,-2.478074E-2,1.5218052E-1,-2.052216E-2,1.575773E-1,1.810597E-1,3.5902703E-1,1.04903325E-1,-2.1489206E-1,2.529206E-1,-1.5421236E-2,1.7101938E-2,-2.2510385E-2,2.1324383E-2,-1.5625527E-2,8.6167246E-2,-2.1261407E-1,7.918083E-2,2.7335577E-2,1.9287099E-1,-2.3306375E-2,2.6588988E-2,-1.824311E-2,-2.0889515E-2,2.5103178E-2,-7.20547E-2,-2.705859E-1,-1.4127334E-2,2.566805E-2,3.3225694E-1,-8.2679614E-2,-2.8480494E-2,8.683573E-2,1.6062081E-1,-2.6737696E-2,9.2972316E-2,2.3778613E-1,-1.5336856E-1,2.2152044E-2,-3.1082264E-1,1.537091E-1,2.8328512E-2,-1.4206704E-2,2.5218186E-1,-2.7112553E-1,2.1915268E-2,-2.2133699E-2,8.438767E-2,2.6023364E-2,1.615211E-1,-2.6852258E-2,1.05295315E-1,2.94721E-1,1.5251307E-3,-2.0981243E-2,-2.6252398E-2,-1.0659875E-2,2.0936344E-2,-1.4578019E-2,2.629923E-2,-1.6204523E-2,-2.8375352E-2,6.070874E-3,-4.4764078E-4,1.8941253E-2,1.6078686E-2,-4.9306313E-3,-1.9326204E-2,1.8977014E-2,2.3712758E-2,7.915204E-3],"categories":[],"categories_nodes":[],"categories_segments":[],"categories_sizes":[],"default_left":[0,0,0,0,0,0,0,0,0,0,0,0,0,0,0,0,0,0,0,0,0,0,0,0,0,0,0,0,0,0,0,0,0,0,0,0,0,0,0,0,0,0,0,0,0,0,0,0,0,0,0,0,0,0,0,0,0,0,0,0,0,0,0,0,0,0,0,0,0,0,0,0,0,0,0,0,0,0,0,0,0,0,0,0,0,0,0,0,0,0,0,0,0,0,0,0,0,0,0],"id":4,"left_children":[1,3,5,-1,7,9,11,13,15,17,-1,19,21,-1,23,25,27,29,-1,31,-1,33,-1,35,-1,-1,-1,37,39,-1,41,43,45,47,49,51,53,55,-1,-1,-1,-1,-1,57,59,61,-1,63,-1,-1,-1,-1,-1,65,67,-1,-1,69,71,-1,73,75,-1,77,79,81,-1,83,85,-1,-1,87,89,-1,-1,91,-1,93,-1,95,97,-1,-1,-1,-1,-1,-1,-1,-1,-1,-1,-1,-1,-1,-1,-1,-1,-1,-1],"loss_changes":[1.1286219E1,3.8683853E0,2.8294902E0,0E0,1.8136542E0,7.3961335E-1,2.0331378E0,1.3681964E0,4.3573046E-1,6.5449935E-1,0E0,8.8549745E-1,1.4550161E0,0E0,8.703973E-1,4.830172E-1,3.2156572E-1,7.1084905E-1,0E0,6.604147E-1,0E0,1.1665478E0,0E0,7.8330755E-1,0E0,0E0,0E0,3.1886923E-1,3.9408973E-1,0E0,3.4151947E-1,9.200639E-1,6.822182E-1,7.609217E-1,6.4304304E-1,9.9636084E-1,5.3736424E-1,4.1487452E-1,0E0,0E0,0E0,0E0,0E0,1.2324635E0,9.372568E-1,1.210719E0,0E0,4.8940563E-1,0E0,0E0,0E0,0E0,0E0,7.034201E-1,9.0138817E-1,0E0,0E0,5.049733E-1,1.2042319E0,0E0,7.1450305E-1,3.9258403E-1,0E0,1.2557036E0,5.5734825E-1,4.5329592E-1,0E0,3.791418E-1,3.1363806E-1,0E0,0E0,4.8147112E-1,5.834226E-1,0E0,0E0,3.4883052E-1,0E0,5.098975E-1,0E0,1.5999224E0,3.5001612E-1,0E0,0E0,0E0,0E0,0E0,0E0,0E0,0E0,0E0,0E0,0E0,0E0,0E0,0E0,0E0,0E0,0E0,0E0],"parents":[2147483647,0,0,1,1,2,2,4,4,5,5,6,6,7,7,8,8,9,9,11,11,12,12,14,14,15,15,16,16,17,17,19,19,21,21,23,23,27,27,28,28,30,30,31,31,32,32,33,33,34,34,35,35,36,36,37,37,43,43,44,44,45,45,47,47,53,53,54,54,57,57,58,58,60,60,61,61,63,63,64,64,65,65,67,67,68,68,71,71,72,72,75,75,77,77,79,79,80,80],"right_children":[2,4,6,-1,8,10,12,14,16,18,-1,20,22,-1,24,26,28,30,-1,32,-1,34,-1,36,-1,-1,-1,38,40,-1,42,44,46,48,50,52,54,56,-1,-1,-1,-1,-1,58,60,62,-1,64,-1,-1,-1,-1,-1,66,68,-1,-1,70,72,-1,74,76,-1,78,80,82,-1,84,86,-1,-1,88,90,-1,-1,92,-1,94,-1,96,98,-1,-1,-1,-1,-1,-1,-1,-1,-1,-1,-1,-1,-1,-1,-1,-1,-1,-1],"split_conditions":[-4.4137797E-1,-1.3611127E-1,-7.478816E-1,-2.3224771E-2,6.321232E-1,-1.6875306E-1,-4.6439928E-1,-5.7412773E-1,-6.296973E-1,-6.7915314E-1,-2.7237086E-2,1.7746737E0,2.784923E0,1.3639767E-2,2.053474E0,3.4748995E0,8.2591707E-1,1.3409077E0,2.2715E-2,5.7835275E-1,-2.6186038E-2,8.7224805E-1,-2.6928669E-2,-3.379484E-2,2.1618081E-2,2.7077377E-2,-1.4194585E-2,5.7148277E-3,6.738601E-1,-2.478074E-2,1.2338966E0,2.1668081E-1,2.274964E-1,1.9100412E0,1.8158872E0,-5.325919E-1,-9.9107224E-1,-8.3644414E-1,-1.5421236E-2,1.7101938E-2,-2.2510385E-2,2.1324383E-2,-1.5625527E-2,-1.5046093E-1,1.4969254E-1,-6.0306334E-1,2.7335577E-2,3.543598E-2,-2.3306375E-2,2.6588988E-2,-1.824311E-2,-2.0889515E-2,2.5103178E-2,-1.0614571E-1,1.5239729E0,-1.4127334E-2,2.566805E-2,5.9984165E-1,-6.5197206E-1,-2.8480494E-2,4.7815067E-1,8.3344316E-1,-2.6737696E-2,-1.1749946E-2,-1.6451874E-1,7.751494E-1,2.2152044E-2,3.6642274E-1,3.5468793E-1,2.8328512E-2,-1.4206704E-2,4.65394E-1,8.346256E-2,2.1915268E-2,-2.2133699E-2,-6.429117E-1,2.6023364E-2,3.9305604E-1,-2.6852258E-2,2.9695955E-1,9.3949383E-1,1.5251307E-3,-2.0981243E-2,-2.6252398E-2,-1.0659875E-2,2.0936344E-2,-1.4578019E-2,2.629923E-2,-1.6204523E-2,-2.8375352E-2,6.070874E-3,-4.4764078E-4,1.8941253E-2,1.6078686E-2,-4.9306313E-3,-1.9326204E-2,1.8977014E-2,2.3712758E-2,7.915204E-3],"split_indices":[7,5,5,0,6,6,6,2,0,6,0,7,6,0,5,4,5,7,0,7,0,7,0,5,0,0,0,0,6,0,0,5,4,0,5,0,0,2,0,0,0,0,0,7,7,4,0,5,0,0,0,0,0,6,5,0,0,2,6,0,0,5,0,5,7,5,0,4,0,0,0,7,5,0,0,6,0,2,0,4,4,0,0,0,0,0,0,0,0,0,0,0,0,0,0,0,0,0,0],"split_type":[0,0,0,0,0,0,0,0,0,0,0,0,0,0,0,0,0,0,0,0,0,0,0,0,0,0,0,0,0,0,0,0,0,0,0,0,0,0,0,0,0,0,0,0,0,0,0,0,0,0,0,0,0,0,0,0,0,0,0,0,0,0,0,0,0,0,0,0,0,0,0,0,0,0,0,0,0,0,0,0,0,0,0,0,0,0,0,0,0,0,0,0,0,0,0,0,0,0,0],"sum_hessian":[4.87E2,2.03E2,2.84E2,8.8E1,1.15E2,2.3E1,2.61E2,9.2E1,2.3E1,1.3E1,1E1,8.6E1,1.75E2,1.2E1,8E1,1.2E1,1.1E1,1E1,3E0,8.2E1,4E0,1.72E2,3E0,7.7E1,3E0,1.1E1,1E0,7E0,4E0,6E0,4E0,4.3E1,3.9E1,1.15E2,5.7E1,8E0,6.9E1,6E0,1E0,1E0,3E0,3E0,1E0,2.8E1,1.5E1,3E1,9E0,1.13E2,2E0,5.6E1,1E0,3E0,5E0,2E1,4.9E1,1E0,5E0,1.1E1,1.7E1,9E0,6E0,2.6E1,4E0,3.6E1,7.7E1,1.7E1,3E0,4.5E1,4E0,1E1,1E0,6E0,1.1E1,4E0,2E0,2E1,6E0,3.2E1,4E0,2.4E1,5.3E1,8E0,9E0,3.2E1,1.3E1,3E0,1E0,5E0,1E0,8E0,3E0,1.4E1,6E0,2.5E1,7E0,7E0,1.7E1,4.3E1,1E1],"tree_param":{"num_deleted":"0","num_feature":"8","num_nodes":"99","size_leaf_vector":"1"}},{"base_weights":[-1.4283744E-2,-1.7754543E-1,1.5713258E-1,-2.802581E-1,-6.2330194E-2,7.0405655E-2,2.754793E-1,1.1214293E-2,-2.9495382E-1,-2.0496996E-1,3.1035192E-2,-1.8461624E-1,1.3242503E-1,2.9488376E-1,-2.9993292E-2,-3.1478068E-1,4.6753444E-2,2.105883E-2,-2.3321737E-1,6.933883E-2,-2.4540016E-2,-2.1312121E-2,9.240806E-2,2.835037E-1,9.112487E-2,2.154489E-2,-1.8002005E-2,1.115028E-2,-2.3554748E-2,-2.276438E-2,1.3567652E-2,2.1656735E-2,-1.6911295E-1,1.5407894E-2,-2.85965E-1,1.5069288E-1,-1.4840022E-1,2.2302678E-2,-1.0488032E-2,-2.9463643E-2,2.4687722E-2,2.1838978E-1,2.4955409E-2,-2.2122601E-2,1.4215213E-2,-2.0252993E-2,2.1320201E-1,-2.2870548E-2,-4.018347E-2,2.1136667E-1,-2.3402493E-2,2.3956187E-2,-3.0039737E-1,1.7551046E-2,-2.1039022E-2,-9.862349E-3,2.6162422E-1,-1.2249873E-1,1.624138E-1,2.3518013E-2,-1.3364184E-2,-2.1179423E-2,2.2530815E-2,-1.4600825E-1,1.7073331E-2,1.2904765E-2,-2.4704667E-2,2.227977E-2,-1.2906516E-1,-1.2011172E-2,1.4433466E-1,-5.970414E-2,2.8160435E-1,-2.3088695E-2,1.3891279E-2,1.7008081E-2,-2.3561953E-2,-1.4997119E-2,2.031357E-2,-2.0456503E-1,1.9970557E-2,-1.5610277E-2,2.2563333E-2,2.0894306E-2,-2.7636308E-2],"categories":[],"categories_nodes":[],"categories_segments":[],"categories_sizes":[],"default_left":[0,0,0,0,0,0,0,0,0,0,0,0,0,0,0,0,0,0,0,0,0,0,0,0,0,0,0,0,0,0,0,0,0,0,0,0,0,0,0,0,0,0,0,0,0,0,0,0,0,0,0,0,0,0,0,0,0,0,0,0,0,0,0,0,0,0,0,0,0,0,0,0,0,0,0,0,0,0,0,0,0,0,0,0,0],"id":5,"left_children":[1,3,5,7,9,11,13,-1,15,17,19,21,23,25,27,29,31,-1,33,35,-1,-1,37,39,41,-1,-1,-1,-1,-1,-1,-1,43,45,47,49,51,-1,-1,53,-1,55,57,-1,-1,-1,59,-1,61,63,-1,-1,65,-1,-1,-1,67,69,71,-1,-1,-1,-1,73,-1,-1,-1,-1,75,-1,77,79,81,-1,-1,-1,-1,-1,-1,83,-1,-1,-1,-1,-1],"loss_changes":[1.3880829E1,2.9883833E0,2.4644551E0,9.0936565E-1,1.6177927E0,2.2545457E0,6.134529E-1,0E0,8.9546585E-1,7.490487E-1,1.0912071E0,9.230814E-1,6.85477E-1,5.211382E-1,4.468329E-1,4.1655064E-1,4.973602E-1,0E0,6.076684E-1,1.2269118E0,0E0,0E0,5.2511567E-1,4.9145925E-1,7.608656E-1,0E0,0E0,0E0,0E0,0E0,0E0,0E0,3.2513064E-1,5.9580237E-1,3.2349563E-1,1.5263238E0,1.5039084E0,0E0,0E0,4.420339E-1,0E0,5.151216E-1,1.2562928E0,0E0,0E0,0E0,3.4621418E-1,0E0,6.478077E-1,5.015211E-1,0E0,0E0,4.0603232E-1,0E0,0E0,0E0,6.098236E-1,3.9746124E-1,8.6399233E-1,0E0,0E0,0E0,0E0,3.0821067E-1,0E0,0E0,0E0,0E0,3.78159E-1,0E0,3.1215408E-1,6.5004796E-1,4.4945812E-1,0E0,0E0,0E0,0E0,0E0,0E0,9.426723E-1,0E0,0E0,0E0,0E0,0E0],"parents":[2147483647,0,0,1,1,2,2,3,3,4,4,5,5,6,6,8,8,9,9,10,10,11,11,12,12,13,13,14,14,15,15,16,16,18,18,19,19,22,22,23,23,24,24,32,32,33,33,34,34,35,35,36,36,39,39,41,41,42,42,46,46,48,48,49,49,52,52,56,56,57,57,58,58,63,63,68,68,70,70,71,71,72,72,79,79],"right_children":[2,4,6,8,10,12,14,-1,16,18,20,22,24,26,28,30,32,-1,34,36,-1,-1,38,40,42,-1,-1,-1,-1,-1,-1,-1,44,46,48,50,52,-1,-1,54,-1,56,58,-1,-1,-1,60,-1,62,64,-1,-1,66,-1,-1,-1,68,70,72,-1,-1,-1,-1,74,-1,-1,-1,-1,76,-1,78,80,82,-1,-1,-1,-1,-1,-1,84,-1,-1,-1,-1,-1],"split_conditions":[1.01972155E-1,-5.7006216E-1,1.0728016E0,-1.9997164E0,-4.4137797E-1,-7.816693E-1,2.0465455E0,1.1214293E-2,3.1432536E-1,-4.9745345E-1,1.561757E0,8.4491605E-1,2.5367802E-1,3.4748995E0,1.7081437E-1,2.285995E0,-7.478306E-1,2.105883E-2,-9.348036E-1,-2.7996274E-2,-2.4540016E-2,-2.1312121E-2,5.480844E-1,-3.4827087E-2,2.4163927E-1,2.154489E-2,-1.8002005E-2,1.115028E-2,-2.3554748E-2,-2.276438E-2,1.3567652E-2,2.1656735E-2,-5.913449E-1,-1.5049602E-1,1.2257602E0,1.01828E0,-2.39864E-1,2.2302678E-2,-1.0488032E-2,1.2848945E-1,2.4687722E-2,3.3857846E-1,5.7835275E-1,-2.2122601E-2,1.4215213E-2,-2.0252993E-2,-2.149805E-1,-2.2870548E-2,-5.325919E-1,-6.6194826E-1,-2.3402493E-2,2.3956187E-2,-8.471332E-1,1.7551046E-2,-2.1039022E-2,-9.862349E-3,1.4605513E0,1.0915337E0,-6.609316E-1,2.3518013E-2,-1.3364184E-2,-2.1179423E-2,2.2530815E-2,-2.2345418E-1,1.7073331E-2,1.2904765E-2,-2.4704667E-2,2.227977E-2,8.184542E-2,-1.2011172E-2,-1.1064967E0,1.0915337E0,2.5583506E-1,-2.3088695E-2,1.3891279E-2,1.7008081E-2,-2.3561953E-2,-1.4997119E-2,2.031357E-2,3.9235106E-1,1.9970557E-2,-1.5610277E-2,2.2563333E-2,2.0894306E-2,-2.7636308E-2],"split_indices":[1,1,1,1,7,7,7,0,4,1,7,3,1,4,3,0,1,0,3,1,0,0,1,2,2,0,0,0,0,0,0,0,1,1,3,2,2,0,0,1,0,1,7,0,0,0,0,0,0,2,0,0,0,0,0,0,7,2,3,0,0,0,0,0,0,0,0,0,0,0,0,2,2,0,0,0,0,0,0,2,0,0,0,0,0],"split_type":[0,0,0,0,0,0,0,0,0,0,0,0,0,0,0,0,0,0,0,0,0,0,0,0,0,0,0,0,0,0,0,0,0,0,0,0,0,0,0,0,0,0,0,0,0,0,0,0,0,0,0,0,0,0,0,0,0,0,0,0,0,0,0,0,0,0,0,0,0,0,0,0,0,0,0,0,0,0,0,0,0,0,0,0,0],"sum_hessian":[4.94E2,2.53E2,2.41E2,1.33E2,1.2E2,1.4E2,1.01E2,4E0,1.29E2,4.7E1,7.3E1,2.7E1,1.13E2,9.5E1,6E0,1.22E2,7E0,2E0,4.5E1,6.7E1,6E0,1.9E1,8E0,2.3E1,9E1,9.4E1,1E0,4E0,2E0,1.21E2,1E0,3E0,4E0,8E0,3.7E1,4.9E1,1.8E1,4E0,4E0,4E0,1.9E1,3E1,6E1,3E0,1E0,3E0,5E0,3.2E1,5E0,4.4E1,5E0,4E0,1.4E1,2E0,2E0,3E0,2.7E1,2.9E1,3.1E1,4E0,1E0,3E0,2E0,3E0,4.1E1,1E0,1.3E1,2.4E1,3E0,2.5E1,4E0,1.1E1,2E1,2E0,1E0,1E0,2E0,1E0,3E0,8E0,3E0,1E0,1.9E1,2E0,6E0],"tree_param":{"num_deleted":"0","num_feature":"8","num_nodes":"85","size_leaf_vector":"1"}},{"base_weights":[-7.713341E-4,-2.0830736E-2,5.443234E-2,-1.5501344E-1,1.09211534E-1,-2.3566326E-1,2.6962578E-2,1.9799906E-3,1.643213E-1,-8.528749E-2,-3.105922E-1,-1.7405392E-1,1.371405E-1,-2.6119381E-2,2.2966774E-2,1.07251965E-1,2.66536E-1,-2.2281965E-2,5.69785E-3,-2.3321792E-2,1.2920949E-2,1.5212728E-2,-1.7117217E-2,1.44175375E-2,-1.8447472E-2,2.1551758E-2,-1.8393487E-1,3.8627464E-2,2.178761E-1,1.9668473E-2,-1.8155582E-2,2.0348227E-1,-1.54504515E-2,1.3119681E-1,-1.3858505E-1,-2.4181938E-1,2.1441171E-2,8.565448E-2,-1.6005169E-1,2.5826156E-1,4.0198836E-2,2.5156379E-2,-7.341753E-2,1.6505831E-1,-1.3710364E-2,-3.4991015E-2,-2.6518995E-2,-2.2983335E-2,-2.0404164E-2,-1.7053867E-2,1.1941752E-1,-2.2676196E-2,2.0305622E-2,2.7629748E-1,-1.7730631E-2,2.1075E-2,-1.487647E-1,-1.9985218E-2,1.9548217E-2,1.9157648E-1,-1.8553985E-2,1.1623818E-1,-1.9590673E-1,1.7784327E-2,-1.26996115E-2,8.309531E-2,2.3879351E-2,9.524847E-2,3.2278815E-1,-2.427865E-2,5.786974E-3,-5.123036E-3,1.627719E-2,-2.2650566E-2,1.9793458E-2,-2.1962974E-2,1.7549347E-2,1.2239002E-3,1.597056E-2,-6.370096E-3,2.1175005E-2,2.4672613E-2,-2.7483022E-3],"categories":[],"categories_nodes":[],"categories_segments":[],"categories_sizes":[],"default_left":[0,0,0,0,0,0,0,0,0,0,0,0,0,0,0,0,0,0,0,0,0,0,0,0,0,0,0,0,0,0,0,0,0,0,0,0,0,0,0,0,0,0,0,0,0,0,0,0,0,0,0,0,0,0,0,0,0,0,0,0,0,0,0,0,0,0,0,0,0,0,0,0,0,0,0,0,0,0,0,0,0,0,0],"id":6,"left_children":[1,-1,3,5,7,9,11,13,15,17,19,21,23,25,-1,27,29,-1,31,-1,-1,-1,-1,-1,-1,33,35,37,39,-1,-1,41,-1,43,45,47,-1,49,51,53,55,-1,57,59,-1,61,-1,-1,63,-1,65,-1,-1,67,-1,-1,69,-1,-1,71,-1,73,75,-1,-1,77,-1,79,81,-1,-1,-1,-1,-1,-1,-1,-1,-1,-1,-1,-1,-1,-1],"loss_changes":[7.831088E0,0E0,4.6980247E0,1.2538426E0,1.9143548E0,6.3829255E-1,6.218545E-1,1.0107824E0,1.2197447E0,4.3821433E-1,4.006176E-1,3.114698E-1,5.230345E-1,7.7885824E-1,0E0,1.0468061E0,4.822898E-1,0E0,7.506519E-1,0E0,0E0,0E0,0E0,0E0,0E0,1.4228387E0,7.478809E-1,8.2657516E-1,3.699236E-1,0E0,0E0,4.015269E-1,0E0,5.588325E-1,7.895117E-1,3.9163947E-1,0E0,8.095524E-1,1.2981182E0,4.628582E-1,5.773194E-1,0E0,3.6742312E-1,5.4741883E-1,0E0,6.068155E-1,0E0,0E0,3.4499156E-1,0E0,4.8385084E-1,0E0,0E0,3.2277298E-1,0E0,0E0,3.389742E-1,0E0,0E0,4.3279755E-1,0E0,1.007661E0,6.7868507E-1,0E0,0E0,5.282899E-1,0E0,4.0190056E-1,3.0652595E-1,0E0,0E0,0E0,0E0,0E0,0E0,0E0,0E0,0E0,0E0,0E0,0E0,0E0,0E0],"parents":[2147483647,0,0,2,2,3,3,4,4,5,5,6,6,7,7,8,8,9,9,10,10,11,11,12,12,13,13,15,15,16,16,18,18,25,25,26,26,27,27,28,28,31,31,33,33,34,34,35,35,37,37,38,38,39,39,40,40,42,42,43,43,45,45,48,48,50,50,53,53,56,56,59,59,61,61,62,62,65,65,67,67,68,68],"right_children":[2,-1,4,6,8,10,12,14,16,18,20,22,24,26,-1,28,30,-1,32,-1,-1,-1,-1,-1,-1,34,36,38,40,-1,-1,42,-1,44,46,48,-1,50,52,54,56,-1,58,60,-1,62,-1,-1,64,-1,66,-1,-1,68,-1,-1,70,-1,-1,72,-1,74,76,-1,-1,78,-1,80,82,-1,-1,-1,-1,-1,-1,-1,-1,-1,-1,-1,-1,-1,-1],"split_conditions":[-7.098058E-1,-2.0830736E-2,-7.816693E-1,1.8762094E-1,-4.6439928E-1,-1.1064967E0,2.0401277E-1,1.4850048E0,6.458511E-1,-1.4500667E-1,2.2161906E0,2.1480201E-1,3.4748995E0,6.376766E-1,2.2966774E-2,5.356455E-1,2.191785E0,-2.2281965E-2,7.751494E-1,-2.3321792E-2,1.2920949E-2,1.5212728E-2,-1.7117217E-2,1.44175375E-2,-1.8447472E-2,-3.8030633E-1,6.5442425E-1,1.0416797E0,5.9727436E-1,1.9668473E-2,-1.8155582E-2,4.432977E-1,-1.54504515E-2,1.6462729E0,2.1280493E-1,1.0915337E0,2.1441171E-2,-6.6194826E-1,2.0058923E0,3.4228022E0,9.4197877E-4,2.5156379E-2,6.502104E-1,1.7746737E0,-1.3710364E-2,3.9247143E-1,-2.6518995E-2,-2.2983335E-2,1.2869912E0,-1.7053867E-2,8.7224805E-1,-2.2676196E-2,2.0305622E-2,-4.4137797E-1,-1.7730631E-2,2.1075E-2,-8.355778E-1,-1.9985218E-2,1.9548217E-2,-1.0566679E0,-1.8553985E-2,-3.7977733E-2,6.502104E-1,1.7784327E-2,-1.26996115E-2,7.22182E-1,2.3879351E-2,-5.325919E-1,3.5468793E-1,-2.427865E-2,5.786974E-3,-5.123036E-3,1.627719E-2,-2.2650566E-2,1.9793458E-2,-2.1962974E-2,1.7549347E-2,1.2239002E-3,1.597056E-2,-6.370096E-3,2.1175005E-2,2.4672613E-2,-2.7483022E-3],"split_indices":[5,0,7,6,6,0,5,2,0,5,4,6,4,2,0,4,7,0,5,0,0,0,0,0,0,4,4,5,7,0,0,2,0,0,2,2,0,2,5,4,5,0,5,7,0,4,0,0,2,0,7,0,0,7,0,0,0,0,0,6,0,4,5,0,0,6,0,0,0,0,0,0,0,0,0,0,0,0,0,0,0,0,0],"split_type":[0,0,0,0,0,0,0,0,0,0,0,0,0,0,0,0,0,0,0,0,0,0,0,0,0,0,0,0,0,0,0,0,0,0,0,0,0,0,0,0,0,0,0,0,0,0,0,0,0,0,0,0,0,0,0,0,0,0,0,0,0,0,0,0,0,0,0,0,0,0,0,0,0,0,0,0,0,0,0,0,0,0,0],"sum_hessian":[4.83E2,7.6E1,4.07E2,8.4E1,3.23E2,5.8E1,2.6E1,1.1E2,2.13E2,2E1,3.8E1,9E0,1.7E1,1.02E2,8E0,1.38E2,7.5E1,5E0,1.5E1,3.7E1,1E0,1E0,8E0,1.5E1,2E0,7.9E1,2.3E1,8.6E1,5.2E1,7.4E1,1E0,8E0,7E0,4.7E1,3.2E1,2.1E1,2E0,7E1,1.6E1,4.2E1,1E1,5E0,3E0,4.3E1,4E0,2.3E1,9E0,1.5E1,6E0,6E0,6.4E1,1.2E1,4E0,4.1E1,1E0,4E0,6E0,2E0,1E0,4.1E1,2E0,1.2E1,1.1E1,2E0,4E0,5.6E1,8E0,9E0,3.2E1,3E0,3E0,5E0,3.6E1,3E0,9E0,9E0,2E0,3.9E1,1.7E1,5E0,4E0,3E1,2E0],"tree_param":{"num_deleted":"0","num_feature":"8","num_nodes":"83","size_leaf_vector":"1"}},{"base_weights":[4.913197E-3,-2.3167634E-1,8.565599E-2,-2.8471255E-1,-1.1219186E-1,-1.5398487E-1,1.3546628E-1,-2.1297427E-2,1.7319128E-2,-2.1551329E-1,1.2692451E-1,-2.2848032E-1,2.32491E-1,-1.10033795E-1,1.5731081E-1,-2.5854346E-1,8.385826E-3,2.3087089E-1,-2.106167E-2,-2.1068148E-2,-5.8739305E-2,-1.5474488E-2,2.125997E-2,-2.0103775E-1,2.2188907E-2,5.6800127E-2,2.077962E-1,1.34543795E-2,-2.840388E-1,-5.0856057E-3,2.5090914E-2,1.7741652E-1,-1.4467298E-2,-1.5486991E-2,-2.3319291E-2,8.177844E-2,-2.3842257E-2,1.1331078E-1,2.47438E-1,-2.196896E-2,1.1438624E-2,2.6113132E-2,-4.0599937E-3,-2.140169E-1,2.385254E-2,1.7485198E-1,-4.358847E-2,1.4275602E-1,-2.2721527E-2,2.569317E-1,-1.2296643E-1,1.3137997E-2,-2.2114413E-2,-8.9356065E-2,2.2380799E-1,-1.5595345E-1,1.540834E-1,8.62501E-2,2.2635585E-2,1.9918691E-2,1.2883577E-1,-2.2555936E-2,1.6365435E-2,-2.2944244E-2,2.0135818E-2,2.6267484E-1,-2.4708446E-2,1.6489808E-2,-1.979689E-1,-8.420958E-3,2.1469258E-2,-1.01808585E-1,1.9063184E-1,-2.560819E-2,2.2507915E-1,2.4423538E-2,7.8039733E-3,-1.3783341E-2,1.8877171E-2,-1.9212194E-2,9.353014E-3,2.1754416E-2,-2.238445E-2,1.7119905E-2,-2.1994784E-2,1.8641692E-2,-1.5896423E-2],"categories":[],"categories_nodes":[],"categories_segments":[],"categories_sizes":[],"default_left":[0,0,0,0,0,0,0,0,0,0,0,0,0,0,0,0,0,0,0,0,0,0,0,0,0,0,0,0,0,0,0,0,0,0,0,0,0,0,0,0,0,0,0,0,0,0,0,0,0,0,0,0,0,0,0,0,0,0,0,0,0,0,0,0,0,0,0,0,0,0,0,0,0,0,0,0,0,0,0,0,0,0,0,0,0,0,0],"id":7,"left_children":[1,3,5,7,9,11,13,-1,-1,15,17,19,21,23,25,27,-1,29,-1,-1,31,-1,-1,33,-1,35,37,-1,39,-1,-1,41,-1,43,-1,45,-1,47,49,-1,-1,-1,-1,51,-1,53,55,57,-1,59,61,-1,-1,63,65,67,69,71,-1,-1,73,-1,-1,-1,-1,75,77,-1,79,-1,-1,81,83,-1,85,-1,-1,-1,-1,-1,-1,-1,-1,-1,-1,-1,-1],"loss_changes":[9.6095E0,7.7919436E-1,4.497078E0,7.7669E-1,1.0402935E0,1.9245144E0,1.6851501E0,0E0,0E0,4.4678354E-1,6.406602E-1,6.18634E-1,3.9623106E-1,1.0623012E0,1.4394526E0,3.5074782E-1,0E0,4.3245655E-1,0E0,0E0,6.180237E-1,0E0,0E0,5.144339E-1,0E0,9.7835815E-1,6.8362236E-1,0E0,3.308208E-1,0E0,0E0,3.3336386E-1,0E0,7.693032E-1,0E0,1.0811088E0,0E0,7.854949E-1,4.9928856E-1,0E0,0E0,0E0,0E0,3.294033E-1,0E0,7.05531E-1,9.124857E-1,5.192517E-1,0E0,3.55155E-1,3.4821722E-1,0E0,0E0,8.756646E-1,4.411478E-1,4.6992928E-1,6.4181054E-1,8.634934E-1,0E0,0E0,1.1173071E0,0E0,0E0,0E0,0E0,4.459827E-1,3.9589962E-1,0E0,6.093072E-1,0E0,0E0,1.4894489E0,7.805548E-1,0E0,3.7746412E-1,0E0,0E0,0E0,0E0,0E0,0E0,0E0,0E0,0E0,0E0,0E0,0E0],"parents":[2147483647,0,0,1,1,2,2,3,3,4,4,5,5,6,6,9,9,10,10,11,11,12,12,13,13,14,14,15,15,17,17,20,20,23,23,25,25,26,26,28,28,31,31,33,33,35,35,37,37,38,38,43,43,45,45,46,46,47,47,49,49,50,50,53,53,54,54,55,55,56,56,57,57,60,60,65,65,66,66,68,68,71,71,72,72,74,74],"right_children":[2,4,6,8,10,12,14,-1,-1,16,18,20,22,24,26,28,-1,30,-1,-1,32,-1,-1,34,-1,36,38,-1,40,-1,-1,42,-1,44,-1,46,-1,48,50,-1,-1,-1,-1,52,-1,54,56,58,-1,60,62,-1,-1,64,66,68,70,72,-1,-1,74,-1,-1,-1,-1,76,78,-1,80,-1,-1,82,84,-1,86,-1,-1,-1,-1,-1,-1,-1,-1,-1,-1,-1,-1],"split_conditions":[-5.7006216E-1,2.674724E-1,-7.816693E-1,2.285995E0,1.4969254E-1,1.0361067E0,-7.478816E-1,-2.1297427E-2,1.7319128E-2,1.676276E0,2.0216098E0,7.285643E-2,-1.1286393E0,7.6453876E-1,-5.0096613E-1,2.9285625E-1,8.385826E-3,-6.3385135E-1,-2.106167E-2,-2.1068148E-2,-1.2850234E-1,-1.5474488E-2,2.125997E-2,-3.19759E-1,2.2188907E-2,1.7746737E0,9.719231E-2,1.34543795E-2,3.6642274E-1,-5.0856057E-3,2.5090914E-2,-8.581628E-2,-1.4467298E-2,-6.7915314E-1,-2.3319291E-2,2.4208854E-1,-2.3842257E-2,6.589516E-2,3.9958732E0,-2.196896E-2,1.1438624E-2,2.6113132E-2,-4.0599937E-3,-1.6363163E0,2.385254E-2,-9.388833E-1,7.475603E-1,6.458511E-1,-2.2721527E-2,1.0162959E0,3.5468793E-1,1.3137997E-2,-2.2114413E-2,3.29058E-1,-5.6438863E-1,-1.0325071E0,3.29058E-1,-6.0306334E-1,2.2635585E-2,1.9918691E-2,1.1051394E0,-2.2555936E-2,1.6365435E-2,-2.2944244E-2,2.0135818E-2,5.751179E-1,9.86282E-1,1.6489808E-2,1.1051394E0,-8.420958E-3,2.1469258E-2,-2.7828035E-1,1.6055877E0,-2.560819E-2,1.7746737E0,2.4423538E-2,7.8039733E-3,-1.3783341E-2,1.8877171E-2,-1.9212194E-2,9.353014E-3,2.1754416E-2,-2.238445E-2,1.7119905E-2,-2.1994784E-2,1.8641692E-2,-1.5896423E-2],"split_indices":[1,5,7,0,7,1,5,0,0,5,7,6,5,1,6,5,0,6,0,0,4,0,0,6,0,7,1,0,4,0,0,1,0,6,0,5,0,1,4,0,0,0,0,5,0,6,1,0,0,5,0,0,0,7,6,6,7,4,0,0,5,0,0,0,0,7,0,0,5,0,0,5,6,0,7,0,0,0,0,0,0,0,0,0,0,0,0],"split_type":[0,0,0,0,0,0,0,0,0,0,0,0,0,0,0,0,0,0,0,0,0,0,0,0,0,0,0,0,0,0,0,0,0,0,0,0,0,0,0,0,0,0,0,0,0,0,0,0,0,0,0,0,0,0,0,0,0,0,0,0,0,0,0,0,0,0,0,0,0,0,0,0,0,0,0,0,0,0,0,0,0,0,0,0,0,0,0],"sum_hessian":[5.01E2,1.27E2,3.74E2,8.7E1,4E1,6.4E1,3.1E2,8.5E1,2E0,2.8E1,1.2E1,5.4E1,1E1,2.5E1,2.85E2,2.5E1,3E0,1E1,2E0,3.8E1,1.6E1,1E0,9E0,2.1E1,4E0,9.6E1,1.89E2,1E0,2.4E1,3E0,7E0,6E0,1E1,9E0,1.2E1,9.1E1,5E0,5.7E1,1.32E2,2.3E1,1E0,3E0,3E0,6E0,3E0,5.2E1,3.9E1,5.4E1,3E0,1.29E2,3E0,1E0,5E0,8E0,4.4E1,2.5E1,1.4E1,4.2E1,1.2E1,1.08E2,2.1E1,2E0,1E0,5E0,3E0,3.8E1,6E0,2E0,2.3E1,5E0,9E0,1.5E1,2.7E1,3E0,1.8E1,2.4E1,1.4E1,4E0,2E0,1.9E1,4E0,5E0,1E1,2.5E1,2E0,1.7E1,1E0],"tree_param":{"num_deleted":"0","num_feature":"8","num_nodes":"87","size_leaf_vector":"1"}},{"base_weights":[2.3431585E-3,-1.565261E-1,1.2583749E-1,-2.2833446E-1,-7.855715E-2,4.4454675E-2,2.2834972E-1,-2.5611764E-1,7.2210133E-3,-2.1243757E-1,-1.0525865E-2,-2.4661146E-1,8.3361074E-2,6.921783E-2,2.5275734E-1,-1.9359535E-2,-2.8891154E-2,-1.7487423E-2,1.4720796E-1,1.862513E-2,-2.6353395E-1,-8.753886E-2,1.2107131E-1,-1.9897752E-2,1.26714045E-2,3.788244E-2,1.600796E-2,2.5906673E-1,-2.0047665E-1,2.0280639E-2,1.4388098E-1,-1.682825E-2,1.0179206E-2,2.2128772E-2,-9.666941E-3,-2.3595614E-2,7.160204E-3,1.7476524E-1,-1.652557E-1,1.8069524E-1,-1.2601544E-2,6.457167E-2,-3.0380443E-1,-1.4924916E-2,2.322648E-2,-2.5888072E-2,3.8806072E-3,2.1258397E-2,-7.532111E-2,2.028911E-2,-1.5351252E-2,-2.0952946E-1,9.103464E-2,2.2735794E-1,-6.9461176E-3,1.7271401E-2,2.552742E-1,-2.8328372E-2,1.2833089E-2,1.7281868E-2,-1.4814183E-2,-1.7450057E-2,6.809039E-3,2.0814015E-2,-1.4819743E-2,-2.5913179E-2,2.0761566E-2,7.225765E-2,-1.6885446E-1,2.3902608E-2,5.6320924E-2,-1.96399E-2,1.6572235E-2,7.893795E-3,2.8198665E-1,-2.4918849E-2,-4.6196226E-3,1.8665684E-2,-2.177511E-2,-4.323492E-3,1.8270388E-2,2.3974555E-2,-1.7601764E-2,-1.1991389E-2,1.1389819E-2],"categories":[],"categories_nodes":[],"categories_segments":[],"categories_sizes":[],"default_left":[0,0,0,0,0,0,0,0,0,0,0,0,0,0,0,0,0,0,0,0,0,0,0,0,0,0,0,0,0,0,0,0,0,0,0,0,0,0,0,0,0,0,0,0,0,0,0,0,0,0,0,0,0,0,0,0,0,0,0,0,0,0,0,0,0,0,0,0,0,0,0,0,0,0,0,0,0,0,0,0,0,0,0,0,0],"id":8,"left_children":[1,3,5,7,9,11,13,15,17,19,21,23,25,27,29,-1,31,-1,33,-1,35,37,39,-1,-1,41,-1,43,45,-1,47,-1,-1,-1,-1,-1,-1,49,51,53,-1,55,57,-1,-1,-1,-1,-1,59,-1,-1,61,63,65,-1,67,69,-1,-1,-1,-1,-1,-1,-1,-1,71,-1,73,75,-1,77,-1,-1,79,81,-1,83,-1,-1,-1,-1,-1,-1,-1,-1],"loss_changes":[9.868662E0,1.2138033E0,2.350842E0,7.47921E-1,9.723259E-1,1.8211273E0,4.6800804E-1,3.7313175E-1,4.9742523E-1,9.4221604E-1,7.402963E-1,3.2067394E-1,9.0209794E-1,9.7355855E-1,3.4421635E-1,0E0,3.2053402E-1,0E0,4.6141565E-1,0E0,8.590133E-1,9.6661156E-1,5.1257145E-1,0E0,0E0,1.004508E0,0E0,4.1930902E-1,3.54603E-1,0E0,9.4232434E-1,0E0,0E0,0E0,0E0,0E0,0E0,5.384896E-1,4.2756414E-1,3.2111824E-1,0E0,9.0663934E-1,4.4034284E-1,0E0,0E0,0E0,0E0,0E0,5.6020206E-1,0E0,0E0,3.6573303E-1,4.24346E-1,3.3650935E-1,0E0,8.514187E-1,3.0431736E-1,0E0,0E0,0E0,0E0,0E0,0E0,0E0,0E0,3.893132E-1,0E0,8.6170805E-1,5.662093E-1,0E0,6.0502917E-1,0E0,0E0,8.7288517E-1,5.2504206E-1,0E0,3.2505167E-1,0E0,0E0,0E0,0E0,0E0,0E0,0E0,0E0],"parents":[2147483647,0,0,1,1,2,2,3,3,4,4,5,5,6,6,7,7,8,8,9,9,10,10,11,11,12,12,13,13,14,14,16,16,18,18,20,20,21,21,22,22,25,25,27,27,28,28,30,30,37,37,38,38,39,39,41,41,42,42,48,48,51,51,52,52,53,53,55,55,56,56,65,65,67,67,68,68,70,70,73,73,74,74,76,76],"right_children":[2,4,6,8,10,12,14,16,18,20,22,24,26,28,30,-1,32,-1,34,-1,36,38,40,-1,-1,42,-1,44,46,-1,48,-1,-1,-1,-1,-1,-1,50,52,54,-1,56,58,-1,-1,-1,-1,-1,60,-1,-1,62,64,66,-1,68,70,-1,-1,-1,-1,-1,-1,-1,-1,72,-1,74,76,-1,78,-1,-1,80,82,-1,84,-1,-1,-1,-1,-1,-1,-1,-1],"split_conditions":[-1.1808018E-1,-1.3611127E-1,8.241235E-1,6.458511E-1,-8.104249E-1,-7.478816E-1,-2.7828035E-1,-1.7782022E-1,-7.478816E-1,-1.9997164E0,5.098567E-1,1.0915337E0,9.86282E-1,-5.955785E-1,9.401444E-1,-1.9359535E-2,-4.0144354E-1,-1.7487423E-2,1.5363188E-1,1.862513E-2,-2.3684798E-2,1.1546501E-1,-1.5318486E-1,-1.9897752E-2,1.26714045E-2,8.7134117E-1,1.600796E-2,-1.1286393E0,-6.0306334E-1,2.0280639E-2,3.6642274E-1,-1.682825E-2,1.0179206E-2,2.2128772E-2,-9.666941E-3,-2.3595614E-2,7.160204E-3,3.0564246E-1,8.513009E-1,1.2691059E0,-1.2601544E-2,3.5468793E-1,6.7795753E-1,-1.4924916E-2,2.322648E-2,-2.5888072E-2,3.8806072E-3,2.1258397E-2,4.229441E-1,2.028911E-2,-1.5351252E-2,1.2257602E0,1.2257602E0,-1.2185117E0,-6.9461176E-3,-1.0750819E-2,3.4271738E-1,-2.8328372E-2,1.2833089E-2,1.7281868E-2,-1.4814183E-2,-1.7450057E-2,6.809039E-3,2.0814015E-2,-1.4819743E-2,-3.409677E-1,2.0761566E-2,-5.325919E-1,5.098567E-1,2.3902608E-2,7.988717E-2,-1.96399E-2,1.6572235E-2,1.2066748E0,7.497655E-1,-2.4918849E-2,2.8497517E-1,1.8665684E-2,-2.177511E-2,-4.323492E-3,1.8270388E-2,2.3974555E-2,-1.7601764E-2,-1.1991389E-2,1.1389819E-2],"split_indices":[1,5,1,0,1,5,5,1,5,1,2,2,0,5,5,0,5,0,2,0,4,5,1,0,0,0,0,5,4,0,4,0,0,0,0,0,0,4,5,3,0,0,1,0,0,0,0,0,3,0,0,3,3,3,0,0,3,0,0,0,0,0,0,0,0,1,0,0,2,0,4,0,0,5,5,0,1,0,0,0,0,0,0,0,0],"split_type":[0,0,0,0,0,0,0,0,0,0,0,0,0,0,0,0,0,0,0,0,0,0,0,0,0,0,0,0,0,0,0,0,0,0,0,0,0,0,0,0,0,0,0,0,0,0,0,0,0,0,0,0,0,0,0,0,0,0,0,0,0,0,0,0,0,0,0,0,0,0,0,0,0,0,0,0,0,0,0,0,0,0,0,0,0],"sum_hessian":[5.01E2,2.19E2,2.82E2,1.13E2,1.06E2,1.58E2,1.24E2,1.01E2,1.2E1,3.5E1,7.1E1,1.8E1,1.4E2,1.7E1,1.07E2,9.4E1,7E0,4E0,8E0,3E0,3.2E1,4.5E1,2.6E1,1.7E1,1E0,1.07E2,3.3E1,1E1,7E0,8.1E1,2.6E1,3E0,4E0,5E0,3E0,2.7E1,5E0,1E1,3.5E1,2.2E1,4E0,1E2,7E0,1E0,9E0,4E0,3E0,1.5E1,1.1E1,8E0,2E0,3E1,5E0,1.9E1,3E0,8.1E1,1.9E1,6E0,1E0,3E0,8E0,2.7E1,3E0,3E0,2E0,4E0,1.5E1,6.3E1,1.8E1,1.3E1,6E0,2E0,2E0,4.9E1,1.4E1,8E0,1E1,4E0,2E0,3.9E1,1E1,1.3E1,1E0,5E0,5E0],"tree_param":{"num_deleted":"0","num_feature":"8","num_nodes":"85","size_leaf_vector":"1"}},{"base_weights":[-9.957985E-3,-2.1039219E-1,5.815135E-2,-2.1929388E-1,1.5960831E-2,6.134539E-3,2.054684E-1,-2.450114E-1,-1.0300026E-1,-1.6684404E-1,4.662441E-2,-1.9772587E-2,2.3484986E-1,-1.8533072E-2,-2.9435452E-2,-1.4780731E-1,1.8461844E-2,1.0780665E-1,-1.9835596E-1,-1.4070123E-2,7.3176965E-2,1.9559993E-1,-2.5600005E-2,2.432276E-1,-1.6652165E-2,1.7651359E-2,-1.161339E-2,8.456339E-3,-1.9620933E-1,-1.3387251E-2,2.1526605E-2,-2.2251831E-1,8.311788E-3,-2.7037167E-3,1.1199343E-1,1.9990934E-2,-1.4394862E-2,1.838575E-2,-2.9649932E-3,-2.562231E-1,6.5985057E-3,-1.9642828E-2,-3.5297994E-2,8.937616E-2,-1.2538676E-1,6.0698006E-2,2.2561492E-1,1.4788564E-2,-2.0139288E-2,1.5008989E-2,-2.1413872E-2,1.4813185E-2,-1.9409712E-2,2.5255164E-2,2.2138575E-2,-1.9399052E-2,-3.786804E-2,2.7514318E-1,2.5531517E-2,2.6026693E-1,-2.1313526E-2,9.720565E-2,-1.5952976E-2,5.3631544E-2,-2.2949118E-2,2.3353292E-2,-1.3088545E-2,-2.5451905E-1,5.970855E-2,1.969695E-2,-1.3753172E-2,-1.0202625E-2,1.0478596E-2,-1.9354863E-2,8.501091E-3,1.8068405E-2,-2.4855236E-2,1.4430079E-2,1.23887E-4],"categories":[],"categories_nodes":[],"categories_segments":[],"categories_sizes":[],"default_left":[0,0,0,0,0,0,0,0,0,0,0,0,0,0,0,0,0,0,0,0,0,0,0,0,0,0,0,0,0,0,0,0,0,0,0,0,0,0,0,0,0,0,0,0,0,0,0,0,0,0,0,0,0,0,0,0,0,0,0,0,0,0,0,0,0,0,0,0,0,0,0,0,0,0,0,0,0,0,0],"id":9,"left_children":[1,3,5,7,-1,9,11,13,15,17,19,21,23,-1,25,27,-1,29,31,-1,33,35,-1,37,-1,-1,-1,-1,39,-1,-1,41,-1,43,45,-1,-1,-1,47,49,-1,-1,51,53,55,57,59,-1,-1,-1,-1,-1,-1,-1,61,-1,63,65,67,69,-1,71,-1,73,-1,-1,-1,75,77,-1,-1,-1,-1,-1,-1,-1,-1,-1,-1],"loss_changes":[6.7287426E0,5.334172E-1,2.8187103E0,3.426299E-1,0E0,1.9198383E0,6.399627E-1,3.352933E-1,4.2868927E-1,4.714321E-1,1.4569976E0,9.508748E-1,3.9120817E-1,0E0,3.3873233E-1,3.0752528E-1,0E0,4.0423054E-1,3.8418853E-1,0E0,5.9233224E-1,3.3055007E-1,0E0,3.2377815E-1,0E0,0E0,0E0,0E0,3.5346103E-1,0E0,0E0,4.3529344E-1,0E0,7.906747E-1,7.6146436E-1,0E0,0E0,0E0,4.1451713E-1,4.0223908E-1,0E0,0E0,6.952891E-1,7.080285E-1,3.7752175E-1,6.943145E-1,8.249495E-1,0E0,0E0,0E0,0E0,0E0,0E0,0E0,6.330481E-1,0E0,5.3928745E-1,3.8094324E-1,7.9047203E-1,3.553331E-1,0E0,3.3628702E-1,0E0,3.7727204E-1,0E0,0E0,0E0,5.259989E-1,6.0663074E-1,0E0,0E0,0E0,0E0,0E0,0E0,0E0,0E0,0E0,0E0],"parents":[2147483647,0,0,1,1,2,2,3,3,5,5,6,6,7,7,8,8,9,9,10,10,11,11,12,12,14,14,15,15,17,17,18,18,20,20,21,21,23,23,28,28,31,31,33,33,34,34,38,38,39,39,42,42,43,43,44,44,45,45,46,46,54,54,56,56,57,57,58,58,59,59,61,61,63,63,67,67,68,68],"right_children":[2,4,6,8,-1,10,12,14,16,18,20,22,24,-1,26,28,-1,30,32,-1,34,36,-1,38,-1,-1,-1,-1,40,-1,-1,42,-1,44,46,-1,-1,-1,48,50,-1,-1,52,54,56,58,60,-1,-1,-1,-1,-1,-1,-1,62,-1,64,66,68,70,-1,72,-1,74,-1,-1,-1,76,78,-1,-1,-1,-1,-1,-1,-1,-1,-1,-1],"split_conditions":[-5.7006216E-1,1.0436887E0,1.0728016E0,6.7361397E-1,1.5960831E-2,-7.816693E-1,-2.7466005E-1,1.003513E0,-6.2264204E-1,-7.809187E-1,-7.478816E-1,-5.955785E-1,3.4748995E0,-1.8533072E-2,-9.356135E-1,6.9899786E-1,1.8461844E-2,-1.5049602E-1,1.2828263E0,-1.4070123E-2,1.5453319E-1,8.8533413E-1,-2.5600005E-2,1.7905034E0,-1.6652165E-2,1.7651359E-2,-1.161339E-2,8.456339E-3,1.4969254E-1,-1.3387251E-2,2.1526605E-2,8.4491605E-1,8.311788E-3,2.0401277E-1,7.567591E-1,1.9990934E-2,-1.4394862E-2,1.838575E-2,2.1220982E-1,-1.6080828E0,6.5985057E-3,-1.9642828E-2,7.751494E-1,-4.020524E-1,4.324674E-1,-3.4173998E-1,2.191785E0,1.4788564E-2,-2.0139288E-2,1.5008989E-2,-2.1413872E-2,1.4813185E-2,-1.9409712E-2,2.5255164E-2,-6.0306334E-1,-1.9399052E-2,8.7224805E-1,5.252E-1,-1.4500667E-1,1.6513238E0,-2.1313526E-2,-1.8637748E-1,-1.5952976E-2,-4.2837992E-1,-2.2949118E-2,2.3353292E-2,-1.3088545E-2,-6.161107E-1,4.6245255E-2,1.969695E-2,-1.3753172E-2,-1.0202625E-2,1.0478596E-2,-1.9354863E-2,8.501091E-3,1.8068405E-2,-2.4855236E-2,1.4430079E-2,1.23887E-4],"split_indices":[1,4,1,5,0,7,5,7,1,2,5,5,4,0,1,5,0,1,5,0,3,2,0,5,0,0,0,0,7,0,0,3,0,5,7,0,0,0,4,2,0,0,5,1,5,5,7,0,0,0,0,0,0,0,4,0,7,2,5,3,0,1,0,1,0,0,0,7,2,0,0,0,0,0,0,0,0,0,0],"split_type":[0,0,0,0,0,0,0,0,0,0,0,0,0,0,0,0,0,0,0,0,0,0,0,0,0,0,0,0,0,0,0,0,0,0,0,0,0,0,0,0,0,0,0,0,0,0,0,0,0,0,0,0,0,0,0,0,0,0,0,0,0,0,0,0,0,0,0,0,0,0,0,0,0,0,0,0,0,0,0],"sum_hessian":[4.91E2,1.24E2,3.67E2,1.22E2,2E0,2.72E2,9.5E1,9.9E1,2.3E1,5.1E1,2.21E2,1.1E1,8.4E1,9.2E1,7E0,2.1E1,2E0,5E0,4.6E1,2.1E1,2E2,7E0,4E0,8.3E1,1E0,2E0,5E0,3E0,1.8E1,2E0,3E0,4.3E1,3E0,6.8E1,1.32E2,6E0,1E0,7.8E1,5E0,1.5E1,3E0,3.3E1,1E1,3.9E1,2.9E1,9.2E1,4E1,3E0,2E0,1E0,1.4E1,5E0,5E0,7E0,3.2E1,1E1,1.9E1,1.2E1,8E1,3.8E1,2E0,2.5E1,7E0,1.5E1,4E0,1.1E1,1E0,8E0,7.2E1,3.7E1,1E0,4E0,2.1E1,2E0,1.3E1,1E0,7E0,2E1,5.2E1],"tree_param":{"num_deleted":"0","num_feature":"8","num_nodes":"79","size_leaf_vector":"1"}},{"base_weights":[4.981968E-3,-1.9815305E-1,4.357061E-2,-1.6249746E-2,-3.7452023E-2,-1.12605244E-1,8.167983E-2,7.472507E-2,-1.8063905E-2,-2.0783246E-1,-2.3475846E-2,6.0145013E-2,1.3294246E-2,-4.376653E-3,2.0928338E-2,5.842207E-3,-1.9309893E-2,1.00127414E-1,-8.624352E-3,7.192362E-2,-1.900202E-1,2.733142E-1,-1.0039081E-1,3.4396883E-2,1.4337914E-1,7.4765217E-3,-2.3649327E-2,2.3611322E-2,-1.1283171E-2,9.422168E-3,-1.9736307E-2,2.1006828E-2,2.0242397E-2,1.6988485E-1,-3.2800987E-2,6.5484054E-2,-1.1291338E-1,6.25359E-2,1.806806E-2,1.5792144E-2,-9.345643E-3,8.692942E-2,-1.9840872E-1,-2.4067806E-1,1.9983731E-2,1.5334295E-1,-1.6603921E-1,1.0038104E-2,1.2665292E-3,-2.227075E-2,3.7416697E-3,1.629871E-2,-2.1249553E-2,8.062281E-3,-2.2778707E-2,-1.0379817E-2,1.3983314E-2,-1.944957E-2,1.5105258E-2],"categories":[],"categories_nodes":[],"categories_segments":[],"categories_sizes":[],"default_left":[0,0,0,0,0,0,0,0,0,0,0,0,0,0,0,0,0,0,0,0,0,0,0,0,0,0,0,0,0,0,0,0,0,0,0,0,0,0,0,0,0,0,0,0,0,0,0,0,0,0,0,0,0,0,0,0,0,0,0],"id":10,"left_children":[1,3,5,-1,7,9,11,13,-1,15,17,19,-1,-1,-1,-1,-1,21,-1,23,25,27,29,31,33,-1,-1,-1,-1,-1,-1,35,-1,37,39,41,43,45,-1,-1,-1,47,49,51,53,55,57,-1,-1,-1,-1,-1,-1,-1,-1,-1,-1,-1,-1],"loss_changes":[3.9279861E0,3.8510823E-1,2.51488E0,0E0,3.5958382E-1,6.995871E-1,7.588191E-1,3.179972E-1,0E0,7.652651E-1,5.448278E-1,8.475542E-1,0E0,0E0,0E0,0E0,0E0,7.2198045E-1,0E0,7.2175264E-1,5.8370614E-1,3.3376497E-1,4.504396E-1,5.946305E-1,4.3986166E-1,0E0,0E0,0E0,0E0,0E0,0E0,1.0259382E0,0E0,7.187507E-1,3.568579E-1,7.472942E-1,7.349306E-1,7.9344153E-1,0E0,0E0,0E0,4.4850254E-1,3.0560225E-1,6.735909E-1,7.373432E-1,3.8069504E-1,5.072331E-1,0E0,0E0,0E0,0E0,0E0,0E0,0E0,0E0,0E0,0E0,0E0,0E0],"parents":[2147483647,0,0,1,1,2,2,4,4,5,5,6,6,7,7,9,9,10,10,11,11,17,17,19,19,20,20,21,21,22,22,23,23,24,24,31,31,33,33,34,34,35,35,36,36,37,37,41,41,42,42,43,43,44,44,45,45,46,46],"right_children":[2,4,6,-1,8,10,12,14,-1,16,18,20,-1,-1,-1,-1,-1,22,-1,24,26,28,30,32,34,-1,-1,-1,-1,-1,-1,36,-1,38,40,42,44,46,-1,-1,-1,48,50,52,54,56,58,-1,-1,-1,-1,-1,-1,-1,-1,-1,-1,-1,-1],"split_conditions":[-7.098058E-1,1.3409077E0,-7.816693E-1,-1.6249746E-2,2.3619606E0,1.6593699E-1,1.0730432E0,-9.763362E-1,-1.8063905E-2,-3.472913E-1,-9.8978525E-1,2.0216098E0,1.3294246E-2,-4.376653E-3,2.0928338E-2,5.842207E-3,-1.9309893E-2,7.751494E-1,-8.624352E-3,6.458511E-1,8.184542E-2,8.230852E-1,4.1951925E-1,2.0058923E0,1.022698E0,7.4765217E-3,-2.3649327E-2,2.3611322E-2,-1.1283171E-2,9.422168E-3,-1.9736307E-2,5.9946907E-1,2.0242397E-2,1.7081437E-1,2.8553492E-1,1.069367E0,-2.7200922E-1,1.8088968E0,1.806806E-2,1.5792144E-2,-9.345643E-3,5.7148277E-3,4.3751797E-1,-1.0888824E0,7.148166E-1,-2.5289652E-1,7.917303E-1,1.0038104E-2,1.2665292E-3,-2.227075E-2,3.7416697E-3,1.629871E-2,-2.1249553E-2,8.062281E-3,-2.2778707E-2,-1.0379817E-2,1.3983314E-2,-1.944957E-2,1.5105258E-2],"split_indices":[5,7,7,0,7,5,4,5,0,3,0,7,0,0,0,0,0,5,0,0,0,2,3,5,3,0,0,0,0,0,0,5,0,3,7,2,7,0,0,0,0,0,7,0,7,5,2,0,0,0,0,0,0,0,0,0,0,0,0],"split_type":[0,0,0,0,0,0,0,0,0,0,0,0,0,0,0,0,0,0,0,0,0,0,0,0,0,0,0,0,0,0,0,0,0,0,0,0,0,0,0,0,0,0,0,0,0,0,0,0,0,0,0,0,0,0,0,0,0,0,0],"sum_hessian":[4.99E2,7.9E1,4.2E2,6.6E1,1.3E1,8.2E1,3.38E2,9E0,4E0,3.9E1,4.3E1,2.82E2,5.6E1,6E0,3E0,7E0,3.2E1,1.9E1,2.4E1,2.7E2,1.2E1,1E1,9E0,1.78E2,9.2E1,4E0,8E0,9E0,1E0,4E0,5E0,1.7E2,8E0,8E1,1.2E1,1.28E2,4.2E1,3.6E1,4.4E1,3E0,9E0,1.19E2,9E0,2.1E1,2.1E1,2.6E1,1E1,6.6E1,5.3E1,6E0,3E0,2E0,1.9E1,1.7E1,4E0,3E0,2.3E1,8E0,2E0],"tree_param":{"num_deleted":"0","num_feature":"8","num_nodes":"59","size_leaf_vector":"1"}},{"base_weights":[1.250161E-4,-1.7793499E-1,6.299762E-2,-2.1080284E-1,-4.3525398E-2,-1.0302401E-1,1.00596614E-1,-1.5669173E-2,1.3912788E-2,8.66935E-2,-1.3526124E-2,-1.5416704E-1,1.2831778E-2,-9.226E-2,1.17517106E-1,-4.3171793E-3,2.2589773E-2,-1.0597972E-2,-1.9859746E-1,-1.7312671E-1,1.8881908E-2,9.31115E-2,1.4067366E-2,-1.2224922E-2,1.4104683E-2,-8.4485546E-2,-1.9798564E-2,8.332627E-3,-1.6198302E-2,6.416085E-2,1.3177188E-2,-1.8465364E-2,8.27243E-2,7.083419E-2,-2.2873977E-2,2.0231064E-2,-1.331653E-1,5.613127E-2,1.9194681E-2,1.5844574E-2,-1.7688215E-2,4.429292E-2,1.893961E-2,4.0980056E-3,-8.995455E-3],"categories":[],"categories_nodes":[],"categories_segments":[],"categories_sizes":[],"default_left":[0,0,0,0,0,0,0,0,0,0,0,0,0,0,0,0,0,0,0,0,0,0,0,0,0,0,0,0,0,0,0,0,0,0,0,0,0,0,0,0,0,0,0,0,0],"id":11,"left_children":[1,3,5,7,9,11,13,-1,-1,15,-1,17,-1,19,21,-1,-1,23,25,27,-1,29,-1,-1,-1,31,-1,-1,-1,33,-1,-1,35,37,-1,-1,39,41,-1,-1,-1,43,-1,-1,-1],"loss_changes":[5.619953E0,5.6955004E-1,2.3262372E0,4.6160793E-1,5.33012E-1,1.0289149E0,9.9960065E-1,0E0,0E0,5.310796E-1,0E0,3.742466E-1,0E0,7.699661E-1,5.299196E-1,0E0,0E0,5.409388E-1,3.879727E-1,3.6174577E-1,0E0,5.6594205E-1,0E0,0E0,0E0,6.083529E-1,0E0,0E0,0E0,4.5062906E-1,0E0,0E0,5.1787853E-1,4.6564388E-1,0E0,0E0,3.0319417E-1,3.7197757E-1,0E0,0E0,0E0,3.4405756E-1,0E0,0E0,0E0],"parents":[2147483647,0,0,1,1,2,2,3,3,4,4,5,5,6,6,9,9,11,11,13,13,14,14,17,17,18,18,19,19,21,21,25,25,29,29,32,32,33,33,36,36,37,37,41,41],"right_children":[2,4,6,8,10,12,14,-1,-1,16,-1,18,-1,20,22,-1,-1,24,26,28,-1,30,-1,-1,-1,32,-1,-1,-1,34,-1,-1,36,38,-1,-1,40,42,-1,-1,-1,44,-1,-1,-1],"split_conditions":[-5.7006216E-1,6.7361397E-1,-7.816693E-1,2.285995E0,9.82678E-1,1.0361067E0,-7.478816E-1,-1.5669173E-2,1.3912788E-2,-8.104249E-1,-1.3526124E-2,-4.1001937E-1,1.2831778E-2,7.6453876E-1,1.2117E0,-4.3171793E-3,2.2589773E-2,-9.1194415E-1,-9.8978525E-1,-1.6363163E0,1.8881908E-2,9.86282E-1,1.4067366E-2,-1.2224922E-2,1.4104683E-2,6.243039E-2,-1.9798564E-2,8.332627E-3,-1.6198302E-2,2.7108047E0,1.3177188E-2,-1.8465364E-2,7.116898E-1,1.3128583E0,-2.2873977E-2,2.0231064E-2,3.7777975E-1,1.8158872E0,1.9194681E-2,1.5844574E-2,-1.7688215E-2,9.369137E-1,1.893961E-2,4.0980056E-3,-8.995455E-3],"split_indices":[1,5,7,0,3,1,5,0,0,1,0,3,0,1,1,0,0,7,0,5,0,0,0,0,0,5,0,0,0,4,0,0,5,4,0,0,3,5,0,0,0,0,0,0,0],"split_type":[0,0,0,0,0,0,0,0,0,0,0,0,0,0,0,0,0,0,0,0,0,0,0,0,0,0,0,0,0,0,0,0,0,0,0,0,0,0,0,0,0,0,0,0,0],"sum_hessian":[5E2,1.3E2,3.7E2,1.04E2,2.6E1,6.8E1,3.02E2,1.02E2,2E0,1.4E1,1.2E1,5.8E1,1E1,2.4E1,2.78E2,9E0,5E0,1.4E1,4.4E1,2E1,4E0,2.15E2,6.3E1,8E0,6E0,1.9E1,2.5E1,3E0,1.7E1,1.65E2,5E1,9E0,1E1,1.63E2,2E0,5E0,5E0,1.53E2,1E1,1E0,4E0,1.46E2,7E0,1.36E2,1E1],"tree_param":{"num_deleted":"0","num_feature":"8","num_nodes":"45","size_leaf_vector":"1"}},{"base_weights":[-3.0813343E-3,-1.4988945E-1,4.218615E-2,-1.5019347E-2,-5.762694E-2,-4.0216178E-2,8.6666346E-2,3.3629537E-3,-1.6108103E-2,-5.8674913E-2,1.6107805E-2,1.2394888E-2,1.2395023E-1,-8.4325306E-2,8.788053E-3,-7.3497556E-2,1.2277568E-2,-2.0337064E-2,1.3868065E-2,1.3120645E-1,-2.2477875E-2,1.818209E-2,-9.315849E-3,-3.7230104E-2,-2.045813E-1,4.5838907E-2,-1.4922848E-1,1.0180746E-1,2.0285055E-1,-8.474697E-2,1.1350405E-2,5.0110724E-3,-2.820633E-1,2.179413E-1,-2.2363106E-2,1.0122302E-2,-1.8193275E-2,-1.8298859E-2,1.3896434E-1,1.53764635E-2,-1.5062243E-2,4.138548E-3,-1.3178931E-1,1.286633E-2,-1.5371046E-2,-2.2455003E-2,1.17644835E-2,-1.015953E-2,2.3396505E-2,-1.9880453E-2,2.8202273E-2,1.5191905E-1,-1.9604247E-2,1.2016748E-1,-1.9796261E-1,1.5022887E-1,-1.7156335E-2,-1.341595E-2,1.4465693E-3,1.0165959E-1,-1.39001E-2,-1.8798804E-2,1.7703341E-2,1.8597E-2,-3.6737366E-4,-2.4188524E-2,2.5137419E-2,1.6595793E-1,-1.0456303E-2,9.978917E-3,-1.5412151E-2,1.8005533E-2,-2.0436384E-2,7.395836E-3,1.7025553E-2],"categories":[],"categories_nodes":[],"categories_segments":[],"categories_sizes":[],"default_left":[0,0,0,0,0,0,0,0,0,0,0,0,0,0,0,0,0,0,0,0,0,0,0,0,0,0,0,0,0,0,0,0,0,0,0,0,0,0,0,0,0,0,0,0,0,0,0,0,0,0,0,0,0,0,0,0,0,0,0,0,0,0,0,0,0,0,0,0,0,0,0,0,0,0,0],"id":12,"left_children":[1,3,5,-1,7,9,11,13,-1,15,-1,17,19,21,-1,23,-1,25,-1,27,-1,-1,-1,29,31,33,35,37,39,41,-1,43,45,47,49,51,-1,53,55,-1,-1,-1,57,-1,-1,-1,-1,-1,-1,-1,59,61,-1,63,65,67,-1,-1,-1,69,-1,-1,-1,-1,-1,-1,71,73,-1,-1,-1,-1,-1,-1,-1],"loss_changes":[3.3557227E0,6.637299E-1,1.4182804E0,0E0,5.062795E-1,6.835612E-1,6.9351494E-1,4.0094075E-1,0E0,4.5197943E-1,0E0,5.126962E-1,5.752039E-1,3.8417175E-1,0E0,5.6762636E-1,0E0,6.294951E-1,0E0,3.2688165E-1,0E0,0E0,0E0,9.1231257E-1,4.2364395E-1,5.800226E-1,4.284922E-1,5.336131E-1,3.116926E-1,5.3243387E-1,0E0,3.5118175E-1,3.4219384E-1,6.1034364E-1,4.7668427E-1,4.8821604E-1,0E0,7.4523276E-1,4.2632902E-1,0E0,0E0,0E0,5.163474E-1,0E0,0E0,0E0,0E0,0E0,0E0,0E0,5.2974784E-1,3.902994E-1,0E0,3.0318585E-1,4.2208433E-1,4.408126E-1,0E0,0E0,0E0,3.274353E-1,0E0,0E0,0E0,0E0,0E0,0E0,5.01589E-1,3.6260962E-1,0E0,0E0,0E0,0E0,0E0,0E0,0E0],"parents":[2147483647,0,0,1,1,2,2,4,4,5,5,6,6,7,7,9,9,11,11,12,12,13,13,15,15,17,17,19,19,23,23,24,24,25,25,26,26,27,27,28,28,29,29,31,31,32,32,33,33,34,34,35,35,37,37,38,38,42,42,50,50,51,51,53,53,54,54,55,55,59,59,66,66,67,67],"right_children":[2,4,6,-1,8,10,12,14,-1,16,-1,18,20,22,-1,24,-1,26,-1,28,-1,-1,-1,30,32,34,36,38,40,42,-1,44,46,48,50,52,-1,54,56,-1,-1,-1,58,-1,-1,-1,-1,-1,-1,-1,60,62,-1,64,66,68,-1,-1,-1,70,-1,-1,-1,-1,-1,-1,72,74,-1,-1,-1,-1,-1,-1,-1],"split_conditions":[-4.0144354E-1,-2.7200922E-1,-4.4137797E-1,-1.5019347E-2,1.8771936E0,1.5043927E0,-4.6439928E-1,4.860162E-2,-1.6108103E-2,2.053474E0,1.6107805E-2,1.0915337E0,3.9958732E0,-1.6363163E0,8.788053E-3,1.1058824E0,1.2277568E-2,-5.7133E-1,1.3868065E-2,9.618083E-1,-2.2477875E-2,1.818209E-2,-9.315849E-3,7.3435456E-1,-8.7137395E-1,4.311424E-2,4.138955E-1,3.543598E-2,1.7143518E0,-3.472913E-1,1.1350405E-2,7.751494E-1,1.0664755E0,-2.9972842E0,4.9322646E-2,-1.4371468E-2,-1.8193275E-2,8.852869E-2,1.1709803E0,1.53764635E-2,-1.5062243E-2,4.138548E-3,6.502104E-1,1.286633E-2,-1.5371046E-2,-2.2455003E-2,1.17644835E-2,-1.015953E-2,2.3396505E-2,-1.9880453E-2,6.376766E-1,-2.8456324E-1,-1.9604247E-2,-2.5029626E-1,7.22182E-1,1.7227347E0,-1.7156335E-2,-1.341595E-2,1.4465693E-3,9.69998E-1,-1.39001E-2,-1.8798804E-2,1.7703341E-2,1.8597E-2,-3.6737366E-4,-2.4188524E-2,4.860162E-2,3.8864452E-1,-1.0456303E-2,9.978917E-3,-1.5412151E-2,1.8005533E-2,-2.0436384E-2,7.395836E-3,1.7025553E-2],"split_indices":[5,7,7,0,7,6,6,3,0,5,0,2,4,5,0,3,0,4,0,7,0,0,0,3,7,2,3,5,5,3,0,5,6,2,2,5,0,2,2,0,0,0,5,0,0,0,0,0,0,0,2,3,0,6,6,3,0,0,0,3,0,0,0,0,0,0,3,2,0,0,0,0,0,0,0],"split_type":[0,0,0,0,0,0,0,0,0,0,0,0,0,0,0,0,0,0,0,0,0,0,0,0,0,0,0,0,0,0,0,0,0,0,0,0,0,0,0,0,0,0,0,0,0,0,0,0,0,0,0,0,0,0,0,0,0,0,0,0,0,0,0,0,0,0,0,0,0,0,0,0,0,0,0],"sum_hessian":[5.03E2,1.18E2,3.85E2,7E1,4.8E1,1.35E2,2.5E2,3.6E1,1.2E1,1.27E2,8E0,8.4E1,1.66E2,2.1E1,1.5E1,1.2E2,7E0,7.2E1,1.2E1,1.64E2,2E0,2E0,1.9E1,9.5E1,2.5E1,4.8E1,2.4E1,1.18E2,4.6E1,7.7E1,1.8E1,7E0,1.8E1,1.3E1,3.5E1,1E1,1.4E1,2.8E1,9E1,4.5E1,1E0,1.9E1,5.8E1,4E0,3E0,1.7E1,1E0,3E0,1E1,5E0,3E1,7E0,3E0,1.6E1,1.2E1,8.8E1,2E0,4.2E1,1.6E1,2.3E1,7E0,1E0,6E0,7E0,9E0,7E0,5E0,8.4E1,4E0,2.1E1,2E0,3E0,2E0,4.7E1,3.7E1],"tree_param":{"num_deleted":"0","num_feature":"8","num_nodes":"75","size_leaf_vector":"1"}},{"base_weights":[1.4181406E-3,-1.00914486E-1,1.14469394E-1,-1.2870777E-1,4.593634E-2,6.5653E-2,1.995482E-1,-1.4317639E-2,-8.336326E-2,-1.012389E-1,1.77644E-1,-2.5877059E-2,1.16026044E-1,1.4742602E-2,-1.6234212E-2,-5.2974327E-3,-1.2457855E-1,7.995038E-3,-2.0342655E-2,1.8309942E-2,-1.7573487E-2,-2.0428188E-1,2.571187E-2,-2.3891588E-3,1.6809317E-1,-6.594054E-2,1.1631986E-1,-1.5990876E-1,4.2193517E-2,1.4982877E-2,-1.8553277E-2,1.4207035E-1,-3.647901E-3,-7.357762E-2,1.719103E-2,1.3616802E-2,-5.8320068E-2,1.6680438E-2,-1.0515347E-1,1.7735533E-2,-4.826464E-2,-1.2988336E-1,-2.3658324E-2,-1.2013973E-2,1.3204952E-2,-1.5294439E-2,2.0407815E-1,6.3444406E-2,-2.1588668E-1,1.2934968E-2,-2.018424E-2,-9.850495E-3,1.6454207E-2,-1.851236E-2,9.324753E-3,-1.653445E-1,1.3458002E-1,1.9737652E-2,-1.3052049E-2,-1.9631697E-2,1.9303302E-1,1.6437277E-2,-1.9716932E-2,-1.12812325E-1,-1.9833084E-2,-1.43056065E-2,1.9898323E-2,1.9458277E-2,-1.9007122E-2,-1.3592956E-2,3.359502E-4],"categories":[],"categories_nodes":[],"categories_segments":[],"categories_sizes":[],"default_left":[0,0,0,0,0,0,0,0,0,0,0,0,0,0,0,0,0,0,0,0,0,0,0,0,0,0,0,0,0,0,0,0,0,0,0,0,0,0,0,0,0,0,0,0,0,0,0,0,0,0,0,0,0,0,0,0,0,0,0,0,0,0,0,0,0,0,0,0,0,0,0],"id":13,"left_children":[1,3,5,7,9,11,13,-1,15,17,19,21,23,-1,-1,25,27,-1,-1,-1,-1,29,31,33,35,37,39,41,43,-1,-1,45,-1,47,-1,-1,49,-1,51,-1,53,55,-1,-1,-1,-1,57,59,61,-1,-1,-1,-1,-1,-1,63,65,-1,-1,-1,67,-1,-1,69,-1,-1,-1,-1,-1,-1,-1],"loss_changes":[5.57616E0,1.0385237E0,9.3799114E-1,6.8696E-1,8.127328E-1,6.8076754E-1,3.319857E-1,0E0,4.2726833E-1,8.239694E-1,8.1314355E-1,4.9304932E-1,5.861279E-1,0E0,0E0,3.543069E-1,5.193591E-1,0E0,0E0,0E0,0E0,3.3872902E-1,3.8393927E-1,5.397958E-1,3.6404085E-1,4.0211573E-1,3.6326915E-1,3.3110046E-1,5.1739407E-1,0E0,0E0,4.206857E-1,0E0,4.8168427E-1,0E0,0E0,4.3184772E-1,0E0,3.5961142E-1,0E0,3.3924744E-1,6.130769E-1,0E0,0E0,0E0,0E0,4.804039E-1,6.2585187E-1,3.9542848E-1,0E0,0E0,0E0,0E0,0E0,0E0,3.0350947E-1,4.4767362E-1,0E0,0E0,0E0,4.460179E-1,0E0,0E0,3.7026197E-1,0E0,0E0,0E0,0E0,0E0,0E0,0E0],"parents":[2147483647,0,0,1,1,2,2,3,3,4,4,5,5,6,6,8,8,9,9,10,10,11,11,12,12,15,15,16,16,21,21,22,22,23,23,24,24,25,25,26,26,27,27,28,28,31,31,33,33,36,36,38,38,40,40,41,41,46,46,47,47,48,48,55,55,56,56,60,60,63,63],"right_children":[2,4,6,8,10,12,14,-1,16,18,20,22,24,-1,-1,26,28,-1,-1,-1,-1,30,32,34,36,38,40,42,44,-1,-1,46,-1,48,-1,-1,50,-1,52,-1,54,56,-1,-1,-1,-1,58,60,62,-1,-1,-1,-1,-1,-1,64,66,-1,-1,-1,68,-1,-1,70,-1,-1,-1,-1,-1,-1,-1],"split_conditions":[9.719231E-2,9.86282E-1,1.2117E0,-2.9359245E-1,1.7081437E-1,-9.998879E-2,3.4748995E0,-1.4317639E-2,-3.7162343E-1,-5.715025E-2,1.2257602E0,-8.355778E-1,4.860162E-2,1.4742602E-2,-1.6234212E-2,-2.661995E-1,5.9984165E-1,7.995038E-3,-2.0342655E-2,1.8309942E-2,-1.7573487E-2,1.01972155E-1,4.234563E-1,8.8533413E-1,2.432952E0,-1.9997164E0,2.2939663E-1,7.043507E-1,2.9695955E-1,1.4982877E-2,-1.8553277E-2,-3.4827087E-2,-3.647901E-3,4.507553E-1,1.719103E-2,1.3616802E-2,-2.0374073E-1,1.6680438E-2,6.458511E-1,1.7735533E-2,3.9439163E-1,5.551408E-1,-2.3658324E-2,-1.2013973E-2,1.3204952E-2,-1.5294439E-2,6.8611765E-1,-4.190345E-1,4.926713E-2,1.2934968E-2,-2.018424E-2,-9.850495E-3,1.6454207E-2,-1.851236E-2,9.324753E-3,4.9322646E-2,-7.29221E-1,1.9737652E-2,-1.3052049E-2,-1.9631697E-2,1.2338966E0,1.6437277E-2,-1.9716932E-2,-5.7006216E-1,-1.9833084E-2,-1.43056065E-2,1.9898323E-2,1.9458277E-2,-1.9007122E-2,-1.3592956E-2,3.359502E-4],"split_indices":[1,0,1,5,3,5,4,0,4,2,3,0,3,0,0,1,2,0,0,0,0,1,1,2,4,1,5,4,4,0,0,2,0,2,0,0,2,0,0,0,5,4,0,0,0,0,3,2,5,0,0,0,0,0,0,2,2,0,0,0,0,0,0,1,0,0,0,0,0,0,0],"split_type":[0,0,0,0,0,0,0,0,0,0,0,0,0,0,0,0,0,0,0,0,0,0,0,0,0,0,0,0,0,0,0,0,0,0,0,0,0,0,0,0,0,0,0,0,0,0,0,0,0,0,0,0,0,0,0,0,0,0,0,0,0,0,0,0,0,0,0,0,0,0,0],"sum_hessian":[4.8E2,2.52E2,2.28E2,2.12E2,4E1,1.46E2,8.2E1,8E1,1.32E2,1.9E1,2.1E1,5.2E1,9.4E1,8.1E1,1E0,4.6E1,8.6E1,9E0,1E1,1.8E1,3E0,1.1E1,4.1E1,2.9E1,6.5E1,3.1E1,1.5E1,7.1E1,1.5E1,1E0,1E1,1.6E1,2.5E1,2.3E1,6E0,5.9E1,6E0,3E0,2.8E1,8E0,7E0,6.2E1,9E0,6E0,9E0,2E0,1.4E1,1.2E1,1.1E1,3E0,3E0,2.6E1,2E0,3E0,4E0,5.5E1,7E0,1.2E1,2E0,3E0,9E0,1E0,1E1,3.9E1,1.6E1,2E0,5E0,8E0,1E0,2.3E1,1.6E1],"tree_param":{"num_deleted":"0","num_feature":"8","num_nodes":"71","size_leaf_vector":"1"}},{"base_weights":[1.6060292E-3,-8.679714E-2,6.0923923E-2,-1.1911645E-2,-1.8843772E-2,-5.777748E-3,8.924948E-2,-5.5245437E-2,1.1693089E-1,-1.23410866E-1,1.040645E-1,1.3529514E-1,-8.669715E-2,-1.5551094E-2,1.1181186E-2,1.1202463E-1,-1.6396744E-2,4.1426826E-2,1.3376434E-1,1.960226E-2,-5.31482E-3,-1.0565299E-1,1.4731324E-2,2.1550825E-2,-1.2820343E-2,-1.3999222E-2,4.2946874E-3,9.761214E-2,1.962827E-1,7.4913343E-3,-8.95919E-3,9.461548E-3,-3.353187E-2,-1.882146E-2,2.1748821E-1,-1.9211235E-2,3.3603986E-3,1.6924726E-2,-7.979747E-3],"categories":[],"categories_nodes":[],"categories_segments":[],"categories_sizes":[],"default_left":[0,0,0,0,0,0,0,0,0,0,0,0,0,0,0,0,0,0,0,0,0,0,0,0,0,0,0,0,0,0,0,0,0,0,0,0,0,0,0],"id":14,"left_children":[1,3,5,-1,7,-1,9,11,13,15,17,19,21,-1,-1,23,-1,25,27,-1,-1,29,-1,-1,-1,-1,-1,31,33,-1,-1,-1,35,-1,37,-1,-1,-1,-1],"loss_changes":[2.6639402E0,1.118357E0,1.2323159E0,0E0,5.600113E-1,0E0,8.13087E-1,5.450914E-1,3.608118E-1,4.5585245E-1,4.37217E-1,4.0492347E-1,4.511724E-1,0E0,0E0,3.9065972E-1,0E0,3.660816E-1,3.447287E-1,0E0,0E0,3.2894534E-1,0E0,0E0,0E0,0E0,0E0,4.8993105E-1,6.249478E-1,0E0,0E0,0E0,4.5334718E-1,0E0,4.1076326E-1,0E0,0E0,0E0,0E0],"parents":[2147483647,0,0,1,1,2,2,4,4,6,6,7,7,8,8,9,9,10,10,11,11,12,12,15,15,17,17,18,18,21,21,27,27,28,28,32,32,34,34],"right_children":[2,4,6,-1,8,-1,10,12,14,16,18,20,22,-1,-1,24,-1,26,28,-1,-1,30,-1,-1,-1,-1,-1,32,34,-1,-1,-1,36,-1,38,-1,-1,-1,-1],"split_conditions":[-4.4137797E-1,-1.3611127E-1,-7.637958E-1,-1.1911645E-2,6.321232E-1,-5.777748E-3,-9.128766E-1,-5.7412773E-1,-6.6194826E-1,-3.19759E-1,-4.7222335E-2,3.9635126E-2,2.053474E0,-1.5551094E-2,1.1181186E-2,-1.2185117E0,-1.6396744E-2,-4.190345E-1,7.567591E-1,1.960226E-2,-5.31482E-3,-3.379484E-2,1.4731324E-2,2.1550825E-2,-1.2820343E-2,-1.3999222E-2,4.2946874E-3,4.900301E-1,-1.1064967E0,7.4913343E-3,-8.95919E-3,9.461548E-3,4.9567702E-1,-1.882146E-2,2.2768729E0,-1.9211235E-2,3.3603986E-3,1.6924726E-2,-7.979747E-3],"split_indices":[7,5,6,0,6,0,5,2,2,6,3,6,5,0,0,3,0,2,7,0,0,5,0,0,0,0,0,7,0,0,0,0,7,0,7,0,0,0,0],"split_type":[0,0,0,0,0,0,0,0,0,0,0,0,0,0,0,0,0,0,0,0,0,0,0,0,0,0,0,0,0,0,0,0,0,0,0,0,0,0,0],"sum_hessian":[5.06E2,2.03E2,3.03E2,9.2E1,1.11E2,5E1,2.53E2,8.8E1,2.3E1,1.6E1,2.37E2,1.2E1,7.6E1,2E0,2.1E1,5E0,1.1E1,7.7E1,1.6E2,7E0,5E0,7.2E1,4E0,3E0,2E0,5E0,7.2E1,1.03E2,5.7E1,6E0,6.6E1,8.1E1,2.2E1,2E0,5.5E1,5E0,1.7E1,5.2E1,3E0],"tree_param":{"num_deleted":"0","num_feature":"8","num_nodes":"39","size_leaf_vector":"1"}},{"base_weights":[9.167109E-3,-1.3763174E-1,7.672797E-2,-1.5814008E-1,1.233556E-1,2.5076611E-2,1.5345643E-1,-1.2896782E-2,-1.00327395E-2,-5.162986E-3,1.9445777E-2,-1.0396389E-2,5.3024627E-2,1.6076367E-1,-9.212513E-3,-9.314138E-2,1.2038808E-2,1.1386246E-1,-6.8658165E-4,1.22345695E-2,-2.956363E-3,1.5396141E-2,-1.8867913E-1,-7.8115882E-3,1.6485608E-1,-2.4975149E-2,1.8602852E-2,-1.725155E-2,1.4472894E-2,-1.0735377E-2,1.9233416E-1,4.553727E-2,-1.4498501E-2,1.5067416E-2,-1.0844437E-2,1.0199384E-1,-3.318994E-2,4.589558E-2,1.8926783E-2,-1.938387E-1,1.0534448E-2,5.1099216E-3,-1.940987E-2,-2.151961E-2,6.6129602E-3],"categories":[],"categories_nodes":[],"categories_segments":[],"categories_sizes":[],"default_left":[0,0,0,0,0,0,0,0,0,0,0,0,0,0,0,0,0,0,0,0,0,0,0,0,0,0,0,0,0,0,0,0,0,0,0,0,0,0,0,0,0,0,0,0,0],"id":15,"left_children":[1,3,5,7,9,11,13,-1,15,-1,-1,-1,17,19,-1,21,-1,23,25,-1,-1,-1,27,-1,29,-1,31,-1,-1,-1,33,35,-1,-1,-1,37,39,41,-1,43,-1,-1,-1,-1,-1],"loss_changes":[4.939735E0,8.598368E-1,1.3475792E0,5.048096E-1,3.7375486E-1,9.900224E-1,3.0431628E-1,0E0,3.2910505E-1,0E0,0E0,0E0,5.784565E-1,3.185792E-1,0E0,4.8500282E-1,0E0,9.655231E-1,6.496197E-1,0E0,0E0,0E0,3.0472955E-1,0E0,6.195109E-1,0E0,5.551951E-1,0E0,0E0,0E0,4.6264434E-1,3.678479E-1,0E0,0E0,0E0,4.3064186E-1,1.049275E0,3.27227E-1,0E0,6.231628E-1,0E0,0E0,0E0,0E0,0E0],"parents":[2147483647,0,0,1,1,2,2,3,3,4,4,5,5,6,6,8,8,12,12,13,13,15,15,17,17,18,18,22,22,24,24,26,26,30,30,31,31,35,35,36,36,37,37,39,39],"right_children":[2,4,6,8,10,12,14,-1,16,-1,-1,-1,18,20,-1,22,-1,24,26,-1,-1,-1,28,-1,30,-1,32,-1,-1,-1,34,36,-1,-1,-1,38,40,42,-1,44,-1,-1,-1,-1,-1],"split_conditions":[-4.6434554E-1,4.0171245E-1,7.881971E-1,8.513009E-1,-7.361609E-2,-7.098058E-1,4.0392876E0,-1.2896782E-2,-7.791278E-1,-5.162986E-3,1.9445777E-2,-1.0396389E-2,1.4055315E-1,1.8088968E0,-9.212513E-3,-1.9997164E0,1.2038808E-2,-8.355778E-1,1.6593699E-1,1.22345695E-2,-2.956363E-3,1.5396141E-2,2.0058923E0,-7.8115882E-3,-8.512999E-1,-2.4975149E-2,1.260761E0,-1.725155E-2,1.4472894E-2,-1.0735377E-2,1.1058824E0,7.751494E-1,-1.4498501E-2,1.5067416E-2,-1.0844437E-2,2.8497517E-1,1.3462859E0,1.5588975E0,1.8926783E-2,-5.325919E-1,1.0534448E-2,5.1099216E-3,-1.940987E-2,-2.151961E-2,6.6129602E-3],"split_indices":[1,4,1,5,6,5,4,0,1,0,0,0,5,0,0,1,0,0,5,0,0,0,5,0,6,0,4,0,0,0,3,5,0,0,0,1,5,0,0,0,0,0,0,0,0],"split_type":[0,0,0,0,0,0,0,0,0,0,0,0,0,0,0,0,0,0,0,0,0,0,0,0,0,0,0,0,0,0,0,0,0,0,0,0,0,0,0,0,0,0,0,0,0],"sum_hessian":[4.96E2,1.56E2,3.4E2,1.45E2,1.1E1,2.04E2,1.36E2,1.25E2,2E1,5E0,6E0,2.8E1,1.76E2,1.33E2,3E0,1.4E1,6E0,8.2E1,9.4E1,1.26E2,7E0,3E0,1.1E1,1.5E1,6.7E1,4E0,9E1,1E1,1E0,5E0,6.2E1,8.1E1,9E0,5.9E1,3E0,4.7E1,3.4E1,3.6E1,1.1E1,1.8E1,1.6E1,3.4E1,2E0,1.3E1,5E0],"tree_param":{"num_deleted":"0","num_feature":"8","num_nodes":"45","size_leaf_vector":"1"}},{"base_weights":[3.1786885E-3,-7.954202E-2,9.13554E-2,-1.2946703E-1,-7.877126E-3,1.3991563E-2,1.3468869E-1,-1.2148695E-2,-2.7412835E-3,1.2621108E-2,-4.740374E-2,4.5854837E-2,-1.1246867E-1,-6.2529007E-3,1.0357342E-2,-1.6054939E-1,1.2849115E-2,8.626966E-3,1.932584E-2,-2.1742001E-1,1.4482108E-2,1.4575959E-2,-2.0706683E-1,4.527203E-2,-1.9966274E-2,5.0550807E-2,-1.7322276E-2,-2.323395E-2,3.2268874E-3,-1.7683528E-2,1.5984083E-2,-1.1003093E-2,7.352192E-2,-5.0037447E-2,1.6080114E-1,-9.1756016E-2,1.3116334E-1,-1.18408486E-1,1.6463645E-2,-6.320632E-3,1.672236E-2,9.400006E-3,-1.4636215E-2,1.5411238E-2,7.34778E-4,-1.2891148E-2,1.1194261E-2,8.100031E-3,-2.0246925E-2],"categories":[],"categories_nodes":[],"categories_segments":[],"categories_sizes":[],"default_left":[0,0,0,0,0,0,0,0,0,0,0,0,0,0,0,0,0,0,0,0,0,0,0,0,0,0,0,0,0,0,0,0,0,0,0,0,0,0,0,0,0,0,0,0,0,0,0,0,0],"id":16,"left_children":[1,3,5,7,9,11,13,-1,-1,-1,15,17,19,-1,-1,21,23,25,-1,27,-1,-1,29,31,-1,33,-1,-1,-1,-1,-1,-1,35,37,39,41,43,45,-1,47,-1,-1,-1,-1,-1,-1,-1,-1,-1],"loss_changes":[3.646992E0,9.220706E-1,8.0940366E-1,5.676019E-1,7.932445E-1,3.597477E-1,3.9702725E-1,0E0,0E0,0E0,6.0880685E-1,5.95612E-1,6.4196813E-1,0E0,0E0,5.6993264E-1,5.7503384E-1,6.686501E-1,0E0,4.184839E-1,0E0,0E0,5.628905E-1,3.1676412E-1,0E0,6.069001E-1,0E0,0E0,0E0,0E0,0E0,0E0,4.6932408E-1,5.862343E-1,3.257568E-1,3.602606E-1,3.709681E-1,4.4647E-1,0E0,3.344328E-1,0E0,0E0,0E0,0E0,0E0,0E0,0E0,0E0,0E0],"parents":[2147483647,0,0,1,1,2,2,3,3,4,4,5,5,6,6,10,10,11,11,12,12,15,15,16,16,17,17,19,19,22,22,23,23,25,25,32,32,33,33,34,34,35,35,36,36,37,37,39,39],"right_children":[2,4,6,8,10,12,14,-1,-1,-1,16,18,20,-1,-1,22,24,26,-1,28,-1,-1,30,32,-1,34,-1,-1,-1,-1,-1,-1,36,38,40,42,44,46,-1,48,-1,-1,-1,-1,-1,-1,-1,-1,-1],"split_conditions":[9.719231E-2,-2.7200922E-1,-4.3744773E-1,5.685136E-1,-2.0496398E-2,-5.7948923E-1,-9.96913E-1,-1.2148695E-2,-2.7412835E-3,1.2621108E-2,-7.6663E-1,-6.3083124E-1,7.148166E-1,-6.2529007E-3,1.0357342E-2,-1.9997164E0,1.2257602E0,1.7663465E0,1.932584E-2,-4.6439928E-1,1.4482108E-2,1.4575959E-2,4.0171245E-1,8.1541575E-2,-1.9966274E-2,7.881971E-1,-1.7322276E-2,-2.323395E-2,3.2268874E-3,-1.7683528E-2,1.5984083E-2,-1.1003093E-2,-6.429117E-1,9.86282E-1,3.29058E-1,5.7835275E-1,-2.6500833E-1,4.138955E-1,1.6463645E-2,7.944697E-1,1.672236E-2,9.400006E-3,-1.4636215E-2,1.5411238E-2,7.34778E-4,-1.2891148E-2,1.1194261E-2,8.100031E-3,-2.0246925E-2],"split_indices":[1,7,6,3,7,6,7,0,0,0,1,6,7,0,0,1,3,7,0,6,0,0,4,7,0,1,0,0,0,0,0,0,6,0,7,7,1,3,0,3,0,0,0,0,0,0,0,0,0],"split_type":[0,0,0,0,0,0,0,0,0,0,0,0,0,0,0,0,0,0,0,0,0,0,0,0,0,0,0,0,0,0,0,0,0,0,0,0,0,0,0,0,0,0,0,0,0,0,0,0,0],"sum_hessian":[4.98E2,2.57E2,2.41E2,1.51E2,1.06E2,8.7E1,1.54E2,1.03E2,4.8E1,1.8E1,8.8E1,7E1,1.7E1,7E0,1.47E2,3E1,5.8E1,6.1E1,9E0,1.3E1,4E0,3E0,2.7E1,5.3E1,5E0,5.3E1,8E0,9E0,4E0,2.5E1,2E0,6E0,4.7E1,2.8E1,2.5E1,1.2E1,3.5E1,2.3E1,5E0,8E0,1.7E1,4E0,8E0,2E1,1.5E1,1.9E1,4E0,6E0,2E0],"tree_param":{"num_deleted":"0","num_feature":"8","num_nodes":"49","size_leaf_vector":"1"}},{"base_weights":[3.0789243E-3,-8.043663E-2,5.883661E-2,-1.0253052E-2,-2.7124051E-2,-4.2294804E-2,7.91491E-2,-5.0291426E-2,1.3657016E-2,3.4862693E-2,-9.022116E-3,8.451908E-2,-1.4726376E-2,2.769123E-2,-1.18852496E-1,-5.308061E-3,1.06397625E-2,8.9704216E-2,-1.3464852E-2,-1.1022039E-1,9.177637E-2,-2.8128652E-3,-1.9385885E-1,6.1657034E-2,1.4089891E-1,9.7708E-3,-1.4509688E-2,-6.392573E-3,1.2164928E-2,-3.963988E-3,-1.9881368E-2,1.3450918E-1,1.3937902E-2,-6.4501567E-3,1.1090173E-2,1.2057381E-2,-3.4829006E-3,-9.507247E-2,6.9883585E-2,-2.3201017E-2,1.1254164E-2,-1.1211339E-2,7.135552E-2,1.0278845E-1,-1.2893636E-2,1.2021263E-2,-1.516223E-2,-1.8733041E-3,1.1059018E-2],"categories":[],"categories_nodes":[],"categories_segments":[],"categories_sizes":[],"default_left":[0,0,0,0,0,0,0,0,0,0,0,0,0,0,0,0,0,0,0,0,0,0,0,0,0,0,0,0,0,0,0,0,0,0,0,0,0,0,0,0,0,0,0,0,0,0,0,0,0],"id":17,"left_children":[1,3,5,-1,7,9,11,13,-1,15,-1,17,-1,19,21,-1,-1,23,-1,25,27,-1,29,31,33,-1,-1,-1,-1,-1,-1,35,37,-1,-1,-1,39,41,43,-1,-1,-1,45,47,-1,-1,-1,-1,-1],"loss_changes":[2.3842726E0,6.945919E-1,6.3399637E-1,0E0,5.840312E-1,3.4435943E-1,4.113475E-1,5.5398834E-1,0E0,3.6387247E-1,0E0,3.751408E-1,0E0,4.431818E-1,3.1926125E-1,0E0,0E0,3.4740746E-1,0E0,4.009869E-1,5.066886E-1,0E0,3.1697834E-1,5.613087E-1,3.2131588E-1,0E0,0E0,0E0,0E0,0E0,0E0,3.1183732E-1,6.104113E-1,0E0,0E0,0E0,7.8434104E-1,3.664405E-1,5.646486E-1,0E0,0E0,0E0,3.1493136E-1,4.0729374E-1,0E0,0E0,0E0,0E0,0E0],"parents":[2147483647,0,0,1,1,2,2,4,4,5,5,6,6,7,7,9,9,11,11,13,13,14,14,17,17,19,19,20,20,22,22,23,23,24,24,31,31,32,32,36,36,37,37,38,38,42,42,43,43],"right_children":[2,4,6,-1,8,10,12,14,-1,16,-1,18,-1,20,22,-1,-1,24,-1,26,28,-1,30,32,34,-1,-1,-1,-1,-1,-1,36,38,-1,-1,-1,40,42,44,-1,-1,-1,46,48,-1,-1,-1,-1,-1],"split_conditions":[-4.4137797E-1,-1.3611127E-1,-7.637958E-1,-1.0253052E-2,1.4081088E0,8.7224805E-1,2.8724873E0,-1.3817592E-1,1.3657016E-2,3.29058E-1,-9.022116E-3,2.784923E0,-1.4726376E-2,-1.3718523E-1,-3.247435E-1,-5.308061E-3,1.06397625E-2,7.567591E-1,-1.3464852E-2,-8.3015907E-1,-9.1194415E-1,-2.8128652E-3,4.1951925E-1,-2.0496398E-2,-1.0905635E0,9.7708E-3,-1.4509688E-2,-6.392573E-3,1.2164928E-2,-3.963988E-3,-1.9881368E-2,5.847705E-1,3.543598E-2,-6.4501567E-3,1.1090173E-2,1.2057381E-2,3.8864452E-1,3.1432536E-1,1.3348861E0,-2.3201017E-2,1.1254164E-2,-1.1211339E-2,8.3529913E-1,-5.0096613E-1,-1.2893636E-2,1.2021263E-2,-1.516223E-2,-1.8733041E-3,1.1059018E-2],"split_indices":[7,5,6,0,6,7,7,2,0,7,0,6,0,4,6,0,0,7,0,6,7,0,3,7,5,0,0,0,0,0,0,5,5,0,0,0,2,4,3,0,0,0,4,6,0,0,0,0,0],"split_type":[0,0,0,0,0,0,0,0,0,0,0,0,0,0,0,0,0,0,0,0,0,0,0,0,0,0,0,0,0,0,0,0,0,0,0,0,0,0,0,0,0,0,0,0,0,0,0,0,0],"sum_hessian":[5.1E2,2.04E2,3.06E2,9.2E1,1.12E2,5.1E1,2.55E2,1.02E2,1E1,2.7E1,2.4E1,2.51E2,4E0,4.8E1,5.4E1,1.4E1,1.3E1,2.47E2,4E0,1.5E1,3.3E1,2.7E1,2.7E1,1.61E2,8.6E1,4E0,1.1E1,1E1,2.3E1,1.1E1,1.6E1,6.3E1,9.8E1,5E0,8.1E1,5E1,1.3E1,3.3E1,6.5E1,4E0,9E0,2.4E1,9E0,5.8E1,7E0,7E0,2E0,1.7E1,4.1E1],"tree_param":{"num_deleted":"0","num_feature":"8","num_nodes":"49","size_leaf_vector":"1"}},{"base_weights":[-1.4699844E-3,-1.1941244E-1,4.231328E-2,-9.571362E-3,9.875296E-3,8.908197E-3,1.3710316E-1,-6.098022E-3,3.3779867E-2,1.0724316E-2,-9.164848E-2,-6.7678993E-3,1.1327991E-1,-2.1388832E-2,1.5498966E-2,-5.5905316E-2,5.399185E-2,-1.0980314E-2,9.32689E-3,-1.135211E-1,7.308562E-2,7.222955E-3,-1.3145359E-2,-3.2918368E-2,-1.9701837E-2,-7.868129E-2,1.275042E-2,2.4186293E-2,-1.5598747E-2,-2.17453E-2,6.7501343E-3,-1.276304E-2,7.5638876E-3],"categories":[],"categories_nodes":[],"categories_segments":[],"categories_sizes":[],"default_left":[0,0,0,0,0,0,0,0,0,0,0,0,0,0,0,0,0,0,0,0,0,0,0,0,0,0,0,0,0,0,0,0,0],"id":18,"left_children":[1,3,5,-1,-1,7,9,-1,11,-1,13,15,17,-1,-1,19,21,-1,-1,23,25,-1,-1,27,-1,29,-1,31,-1,-1,-1,-1,-1],"loss_changes":[2.556022E0,5.499687E-1,1.1418722E0,0E0,0E0,6.345347E-1,3.1231534E-1,0E0,6.873827E-1,0E0,4.5515183E-1,4.2697036E-1,3.6804068E-1,0E0,0E0,5.95418E-1,7.4859107E-1,0E0,0E0,7.172613E-1,4.179126E-1,0E0,0E0,4.1042733E-1,0E0,4.6374428E-1,0E0,5.2251667E-1,0E0,0E0,0E0,0E0,0E0],"parents":[2147483647,0,0,1,1,2,2,5,5,6,6,8,8,10,10,11,11,12,12,15,15,16,16,19,19,20,20,23,23,25,25,27,27],"right_children":[2,4,6,-1,-1,8,10,-1,12,-1,14,16,18,-1,-1,20,22,-1,-1,24,26,-1,-1,28,-1,30,-1,32,-1,-1,-1,-1,-1],"split_conditions":[-5.7006216E-1,4.0171245E-1,1.0728016E0,-9.571362E-3,9.875296E-3,-7.093543E-1,2.1066973E0,-6.098022E-3,4.9567702E-1,1.0724316E-2,1.8498324E0,1.7252035E-1,-2.9972842E0,-2.1388832E-2,1.5498966E-2,7.944697E-1,5.480844E-1,-1.0980314E-2,9.32689E-3,-1.2043116E-1,-4.2811432E-1,7.222955E-3,-1.3145359E-2,2.2497088E-1,-1.9701837E-2,3.8864452E-1,1.275042E-2,-8.6755323E-1,-1.5598747E-2,-2.17453E-2,6.7501343E-3,-1.276304E-2,7.5638876E-3],"split_indices":[1,4,1,0,0,6,7,0,7,0,1,6,2,0,0,3,1,0,0,6,6,0,0,2,0,2,0,7,0,0,0,0,0],"split_type":[0,0,0,0,0,0,0,0,0,0,0,0,0,0,0,0,0,0,0,0,0,0,0,0,0,0,0,0,0,0,0,0,0],"sum_hessian":[4.93E2,1.33E2,3.6E2,1.26E2,7E0,2.67E2,9.3E1,5.5E1,2.12E2,8.8E1,5E0,1.41E2,7.1E1,3E0,2E0,7.8E1,6.3E1,4E0,6.7E1,5.4E1,2.4E1,5.3E1,1E1,3.7E1,1.7E1,1E1,1.4E1,2.9E1,8E0,4E0,6E0,8E0,2.1E1],"tree_param":{"num_deleted":"0","num_feature":"8","num_nodes":"33","size_leaf_vector":"1"}},{"base_weights":[-2.2444527E-3,-8.087987E-3,3.681464E-2,4.587346E-3,9.658561E-3,-8.21879E-3,2.1469621E-2,-1.027241E-1,3.4981858E-2,-1.9230962E-2,1.20461024E-1,1.8564194E-3,1.5431026E-2,1.5819825E-2,-1.6086457E-2],"categories":[],"categories_nodes":[],"categories_segments":[],"categories_sizes":[],"default_left":[0,0,0,0,0,0,0,0,0,0,0,0,0,0,0],"id":19,"left_children":[1,-1,3,5,-1,-1,7,9,11,-1,13,-1,-1,-1,-1],"loss_changes":[2.1361928E0,0E0,1.1594596E0,5.609782E-1,0E0,0E0,4.0970212E-1,9.3261623E-1,3.474197E-1,0E0,4.407009E-1,0E0,0E0,0E0,0E0],"parents":[2147483647,0,0,2,2,3,3,6,6,7,7,8,8,10,10],"right_children":[2,-1,4,6,-1,-1,8,10,12,-1,14,-1,-1,-1,-1],"split_conditions":[-5.7006216E-1,-8.087987E-3,1.0728016E0,-8.4675664E-1,9.658561E-3,-8.21879E-3,-1.1064967E0,5.685136E-1,1.4778177E0,-1.9230962E-2,1.4090945E0,1.8564194E-3,1.5431026E-2,1.5819825E-2,-1.6086457E-2],"split_indices":[1,0,1,6,0,0,0,3,3,0,3,0,0,0,0],"split_type":[0,0,0,0,0,0,0,0,0,0,0,0,0,0,0],"sum_hessian":[4.88E2,1.26E2,3.62E2,2.74E2,8.8E1,3.3E1,2.41E2,2.3E1,2.18E2,1.3E1,1E1,2.09E2,9E0,8E0,2E0],"tree_param":{"num_deleted":"0","num_feature":"8","num_nodes":"15","size_leaf_vector":"1"}},{"base_weights":[-1.1917845E-3,-7.223881E-2,4.053803E-2,-1.0684194E-1,2.077413E-2,-1.0086788E-2,5.0138723E-2,-9.593472E-3,5.9736287E-3,-1.0211819E-2,6.961767E-2,4.1778893E-3,-1.0371898E-2,1.1399949E-1,-1.426834E-2,1.9939799E-2,1.8017663E-2,1.2569117E-2,-8.9251185E-3],"categories":[],"categories_nodes":[],"categories_segments":[],"categories_sizes":[],"default_left":[0,0,0,0,0,0,0,0,0,0,0,0,0,0,0,0,0,0,0],"id":20,"left_children":[1,3,5,7,9,-1,11,-1,-1,-1,13,-1,-1,15,-1,17,-1,-1,-1],"loss_changes":[1.4823534E0,5.976489E-1,5.591809E-1,7.3882973E-1,4.198888E-1,0E0,5.194171E-1,0E0,0E0,0E0,5.031061E-1,0E0,0E0,4.5473254E-1,0E0,5.2516913E-1,0E0,0E0,0E0],"parents":[2147483647,0,0,1,1,2,2,3,3,4,4,6,6,10,10,13,13,15,15],"right_children":[2,4,6,8,10,-1,12,-1,-1,-1,14,-1,-1,16,-1,18,-1,-1,-1],"split_conditions":[-5.053077E-1,-5.325919E-1,-9.781449E-1,1.3462859E0,-9.1194415E-1,-1.0086788E-2,2.5321362E0,-9.593472E-3,5.9736287E-3,-1.0211819E-2,4.262746E-1,4.1778893E-3,-1.0371898E-2,4.960349E-1,-1.426834E-2,-4.1001937E-1,1.8017663E-2,1.2569117E-2,-8.9251185E-3],"split_indices":[7,0,6,5,7,0,7,0,0,0,0,0,0,3,0,3,0,0,0],"split_type":[0,0,0,0,0,0,0,0,0,0,0,0,0,0,0,0,0,0,0],"sum_hessian":[4.98E2,1.84E2,3.14E2,1.34E2,5E1,1.5E1,2.99E2,1.17E2,1.7E1,1.1E1,3.9E1,2.87E2,1.2E1,3.4E1,5E0,2.1E1,1.3E1,1E1,1.1E1],"tree_param":{"num_deleted":"0","num_feature":"8","num_nodes":"19","size_leaf_vector":"1"}}]},"name":"gbtree"},"learner_model_param":{"base_score":"5.0666666E-1","boost_from_average":"1","num_class":"0","num_feature":"8","num_target":"1"},"objective":{"name":"reg:squarederror","reg_loss_param":{"scale_pos_weight":"1"}}},"version":[2,0,3]}