{"learner":{"attributes":{"best_iteration":"19","best_score":"0.7907137907137907"},"feature_names":[],"feature_types":[],"gradient_booster":{"model":{"gbtree_model_param":{"num_parallel_tree":"1","num_trees":"30"},"iteration_indptr":[0,1,2,3,4,5,6,7,8,9,10,11,12,13,14,15,16,17,18,19,20,21,22,23,24,25,26,27,28,29,30],"tree_info":[0,0,0,0,0,0,0,0,0,0,0,0,0,0,0,0,0,0,0,0,0,0,0,0,0,0,0,0,0,0],"trees":[{"base_weights":[2.1260896E-5,-1.7533304E-1,1.5791595E-1,-2.3576674E-1,1.7732924E-1,-8.580618E-2,2.77972E-1,-2.2438796E-2,-1.3589442E-1,3.0477399E-2,1.7411549E-2,-1.6309124E-1,5.526736E-2,2.2315332E-1,4.2014718E-1,-1.6611755E-1,3.4621883E-2,-2.1758547E-2,2.1529867E-1,-2.0897992E-1,2.0825574E-1,-2.210392E-2,2.1741155E-1,2.969318E-1,1.6038928E-2,-1.657794E-2,4.586592E-1,-2.1645504E-1,-4.3839227E-2,3.6930006E-2,2.213946E-2,-2.4399327E-1,1.19925514E-1,3.4621883E-2,-1.657794E-2,4.0900627E-1,-1.5083795E-2,4.2549044E-1,1.5824243E-1,-2.2735736E-1,1.4276847E-1,3.1730223E-1,4.359793E-2,-2.3249878E-1,2.3081256E-2,2.4436167E-1,-2.0321228E-1,-1.9893529E-2,2.2724126E-2,2.3081256E-2,-2.6634076E-1,3.0775009E-2,-1.657794E-2,-1.256983E-2,4.0392194E-2,2.3743016E-1,-1.1167435E-2,2.6741153E-1,5.394941E-1,3.3243675E-2,3.592877E-1,2.3081256E-2,-2.2380222E-2,6.5797665E-3,4.142059E-1,4.0392194E-2,1.7178771E-1,-1.06907055E-1,-2.196096E-2,-8.007448E-2,3.6930006E-2,2.3081256E-2,-2.600869E-1,-2.0474128E-2,7.098533E-3,-1.657794E-2,2.3081256E-2,-1.2433455E-2,3.0775009E-2,-1.657794E-2,3.3602315E-1,5.749111E-1,7.098533E-3,-8.258845E-2,2.2634842E-2,4.6062782E-1,-1.657794E-2,3.0775009E-2,-9.239364E-2,3.846876E-2,-1.2433455E-2,1.2414652E-2,3.6930006E-2,2.3081256E-2,-1.4294581E-1,2.3081256E-2,-1.8650183E-2,-2.2954071E-2,7.098533E-3,3.7638295E-1,-1.2433455E-2,7.098533E-3,4.3854386E-2,1.9366853E-1,-2.4623978E-1,-1.2433455E-2,5.2299094E-1,3.0775009E-2,-2.2735736E-1,3.0775009E-2,-1.1508379E-1,-1.2969152E-2,2.3081256E-2,9.1266865E-3,3.55087E-2,-1.657794E-2,2.6630523E-2,-2.279467E-2,2.3081256E-2,4.2315636E-2,-1.2433455E-2,7.098533E-3,-2.210392E-2,-2.0722425E-2,8.51824E-3],"categories":[],"categories_nodes":[],"categories_segments":[],"categories_sizes":[],"default_left":[0,0,0,0,0,0,0,0,0,0,0,0,0,0,0,0,0,0,0,0,0,0,0,0,0,0,0,0,0,0,0,0,0,0,0,0,0,0,0,0,0,0,0,0,0,0,0,0,0,0,0,0,0,0,0,0,0,0,0,0,0,0,0,0,0,0,0,0,0,0,0,0,0,0,0,0,0,0,0,0,0,0,0,0,0,0,0,0,0,0,0,0,0,0,0,0,0,0,0,0,0,0,0,0,0,0,0,0,0,0,0,0,0,0,0,0,0,0,0,0,0,0,0,0,0],"id":0,"left_children":[1,3,5,7,9,11,13,-1,15,-1,17,19,21,23,25,27,-1,-1,29,31,33,-1,35,37,39,-1,41,43,45,-1,47,49,51,-1,-1,53,55,57,59,61,63,65,-1,67,-1,69,71,-1,-1,-1,73,-1,-1,75,-1,77,-1,79,81,83,85,-1,-1,87,89,-1,91,93,-1,95,-1,-1,97,-1,-1,-1,-1,-1,-1,-1,99,101,-1,103,-1,105,-1,-1,107,-1,-1,109,-1,-1,111,-1,-1,-1,-1,113,-1,-1,-1,115,117,-1,119,-1,121,-1,123,-1,-1,-1,-1,-1,-1,-1,-1,-1,-1,-1,-1,-1,-1],"loss_changes":[1.21548195E1,4.4748464E0,6.7829847E0,1.3817711E0,1.2405769E0,8.485351E-1,1.1142912E0,0E0,1.606915E0,0E0,1.3472441E0,8.955525E-1,1.7314047E0,1.7372236E0,1.1641574E0,4.7061515E-1,0E0,0E0,7.5342846E-1,5.474845E-1,8.535502E-1,0E0,8.970668E-1,1.4303651E0,9.8866993E-1,0E0,6.824541E-1,5.532932E-1,1.1520122E0,0E0,8.9955884E-1,6.078446E-1,6.5468156E-1,0E0,0E0,7.4755585E-1,3.9624986E-1,6.306615E-1,1.0435332E0,6.353624E-1,7.7357554E-1,7.4359107E-1,0E0,4.8700285E-1,0E0,8.462587E-1,5.651437E-1,0E0,0E0,0E0,3.4978104E-1,0E0,0E0,3.7397772E-1,0E0,3.9896217E-1,0E0,7.656498E-1,3.161707E-1,9.1897523E-1,1.0685093E0,0E0,0E0,6.734981E-1,6.2022936E-1,0E0,8.8128597E-1,3.8885254E-1,0E0,4.5490152E-1,0E0,0E0,3.7292993E-1,0E0,0E0,0E0,0E0,0E0,0E0,0E0,4.3716455E-1,3.8240194E-1,0E0,9.5188534E-1,0E0,6.465452E-1,0E0,0E0,1.0208014E0,0E0,0E0,6.937652E-1,0E0,0E0,4.488567E-1,0E0,0E0,0E0,0E0,4.563496E-1,0E0,0E0,0E0,7.0676106E-1,6.588126E-1,0E0,7.6451635E-1,0E0,3.329323E-1,0E0,4.5015606E-1,0E0,0E0,0E0,0E0,0E0,0E0,0E0,0E0,0E0,0E0,0E0,0E0,0E0,0E0],"parents":[2147483647,0,0,1,1,2,2,3,3,4,4,5,5,6,6,8,8,10,10,11,11,12,12,13,13,14,14,15,15,18,18,19,19,20,20,22,22,23,23,24,24,26,26,27,27,28,28,30,30,31,31,32,32,35,35,36,36,37,37,38,38,39,39,40,40,41,41,43,43,45,45,46,46,50,50,53,53,55,55,57,57,58,58,59,59,60,60,63,63,64,64,66,66,67,67,69,69,72,72,80,80,81,81,83,83,85,85,88,88,91,91,94,94,99,99,103,103,104,104,106,106,108,108,110,110],"right_children":[2,4,6,8,10,12,14,-1,16,-1,18,20,22,24,26,28,-1,-1,30,32,34,-1,36,38,40,-1,42,44,46,-1,48,50,52,-1,-1,54,56,58,60,62,64,66,-1,68,-1,70,72,-1,-1,-1,74,-1,-1,76,-1,78,-1,80,82,84,86,-1,-1,88,90,-1,92,94,-1,96,-1,-1,98,-1,-1,-1,-1,-1,-1,-1,100,102,-1,104,-1,106,-1,-1,108,-1,-1,110,-1,-1,112,-1,-1,-1,-1,114,-1,-1,-1,116,118,-1,120,-1,122,-1,124,-1,-1,-1,-1,-1,-1,-1,-1,-1,-1,-1,-1,-1,-1],"split_conditions":[-3.4900945E-1,1.1190698E0,-2.9873806E-1,-1.9371526E-1,-5.3728765E-1,-6.5319E-1,5.4013544E-1,-2.2438796E-2,1.9547726E0,3.0477399E-2,-7.7729577E-1,5.2275765E-1,-6.464019E-1,-5.7204324E-1,-2.8637555E-1,-4.6580993E-2,3.4621883E-2,-2.1758547E-2,1.7408991E-2,7.918516E-1,8.355579E-1,-2.210392E-2,2.9515934E-1,4.5994762E-1,3.6179464E-2,-1.657794E-2,6.812169E-1,2.7123594E0,1.9627331E-1,3.6930006E-2,6.812169E-1,-2.6335222E-1,-6.902912E-1,3.4621883E-2,-1.657794E-2,-6.380429E-3,-5.2191156E-1,1.7386457E-1,-2.367681E-1,1.6330361E-2,1.1351542E0,-2.5917765E-1,4.359793E-2,-5.7204324E-1,2.3081256E-2,6.182343E-1,-2.527188E0,-1.9893529E-2,2.2724126E-2,2.3081256E-2,2.0249956E0,3.0775009E-2,-1.657794E-2,1.7408991E-2,4.0392194E-2,1.2897633E-1,-1.1167435E-2,-6.4639896E-1,1.2643842E0,7.5149E-1,1.9547726E0,2.3081256E-2,-2.2380222E-2,5.536193E-1,1.7166891E0,4.0392194E-2,1.449793E0,-8.676682E-1,-2.196096E-2,-8.032955E-1,3.6930006E-2,2.3081256E-2,6.8784666E-1,-2.0474128E-2,7.098533E-3,-1.657794E-2,2.3081256E-2,-1.2433455E-2,3.0775009E-2,-1.657794E-2,1.4760888E-1,-2.6335222E-1,7.098533E-3,-6.844393E-1,2.2634842E-2,-2.6335222E-1,-1.657794E-2,3.0775009E-2,1.665129E-1,3.846876E-2,-1.2433455E-2,7.486689E-1,3.6930006E-2,2.3081256E-2,1.2643842E0,2.3081256E-2,-1.8650183E-2,-2.2954071E-2,7.098533E-3,-5.8203083E-1,-1.2433455E-2,7.098533E-3,4.3854386E-2,-9.448493E-1,1.6211075E0,-1.2433455E-2,2.9059663E0,3.0775009E-2,-9.1558975E-1,3.0775009E-2,4.626773E-1,-1.2969152E-2,2.3081256E-2,9.1266865E-3,3.55087E-2,-1.657794E-2,2.6630523E-2,-2.279467E-2,2.3081256E-2,4.2315636E-2,-1.2433455E-2,7.098533E-3,-2.210392E-2,-2.0722425E-2,8.51824E-3],"split_indices":[7,5,5,5,4,5,4,0,6,0,7,4,6,4,3,6,0,0,2,2,4,0,3,2,4,0,2,4,6,0,2,7,6,0,0,7,5,5,6,5,3,2,0,4,0,3,2,0,0,0,6,0,0,2,0,6,0,2,3,5,6,0,0,3,3,0,7,2,0,3,0,0,4,0,0,0,0,0,0,0,5,7,0,6,0,7,0,0,4,0,0,4,0,0,3,0,0,0,0,6,0,0,0,6,7,0,7,0,6,0,5,0,0,0,0,0,0,0,0,0,0,0,0,0,0],"split_type":[0,0,0,0,0,0,0,0,0,0,0,0,0,0,0,0,0,0,0,0,0,0,0,0,0,0,0,0,0,0,0,0,0,0,0,0,0,0,0,0,0,0,0,0,0,0,0,0,0,0,0,0,0,0,0,0,0,0,0,0,0,0,0,0,0,0,0,0,0,0,0,0,0,0,0,0,0,0,0,0,0,0,0,0,0,0,0,0,0,0,0,0,0,0,0,0,0,0,0,0,0,0,0,0,0,0,0,0,0,0,0,0,0,0,0,0,0,0,0,0,0,0,0,0,0],"sum_hessian":[4.37E2,2.07E2,2.3E2,1.77E2,3E1,7.6E1,1.54E2,9.7E1,8E1,1.1E1,1.9E1,4.9E1,2.7E1,1.13E2,4.1E1,7.7E1,3E0,7E0,1.2E1,4.4E1,5E0,8E0,1.9E1,8.3E1,3E1,2E0,3.9E1,5.4E1,2.3E1,4E0,8E0,4E1,4E0,3E0,2E0,1E1,9E0,4.2E1,4.1E1,1E1,2E1,2.2E1,1.7E1,5.3E1,1E0,8E0,1.5E1,4E0,4E0,1E0,3.9E1,2E0,2E0,3E0,7E0,3E0,6E0,1.9E1,2.3E1,2.6E1,1.5E1,1E0,9E0,1.4E1,6E0,7E0,1.5E1,2.1E1,3.2E1,4E0,4E0,1E0,1.4E1,3.7E1,2E0,2E0,1E0,1E0,2E0,2E0,1.7E1,2.1E1,2E0,1.9E1,7E0,1.3E1,2E0,2E0,1.2E1,5E0,1E0,1.1E1,4E0,1E0,2E1,1E0,3E0,1.2E1,2E0,1.6E1,1E0,2E0,1.9E1,7E0,1.2E1,1E0,1.2E1,2E0,1E1,2E0,9E0,1.9E1,1E0,6E0,1E1,2E0,5E0,1.1E1,1E0,1.1E1,1E0,2E0,8E0,5E0,4E0],"tree_param":{"num_deleted":"0","num_feature":"8","num_nodes":"125","size_leaf_vector":"1"}},{"base_weights":[7.818162E-3,-9.771972E-2,3.9322686E-1,-2.0842744E-2,-2.5956836E-2,2.0202777E-1,4.8713708E-1,-1.567499E-1,1.0101151E-1,2.7549326E-1,-1.8785696E-2,5.109669E-1,1.085176E-1,-2.4389416E-1,1.7181212E-1,2.2665208E-2,2.8323838E-1,3.2131743E-1,-1.6248351E-2,3.4164235E-1,4.0981974E-2,2.9233687E-2,-1.6387116E-2,-2.9079846E-1,-8.3247334E-2,-9.559476E-2,3.9211062E-1,1.2110274E-1,-7.8405E-2,3.1627798E-1,-1.5531504E-2,2.0104745E-1,3.395054E-2,4.205268E-1,-1.5573228E-2,-2.1499913E-2,2.1769699E-2,1.7118785E-1,-2.2140363E-2,-2.1213748E-2,1.9109322E-1,1.2262818E-1,3.964438E-2,2.6685366E-2,3.322604E-2,3.207858E-1,-1.2406093E-1,1.3466747E-1,3.9806432E-1,1.0930205E-1,3.3518396E-2,-1.1726943E-2,3.3202507E-2,3.271448E-2,1.6727296E-3,3.0810136E-1,-1.3990931E-2,-1.5508359E-2,3.026817E-1,-2.4659336E-2,3.3332698E-2,3.4308296E-2,-1.1653518E-2,-1.6110127E-1,2.9204736E-2,3.5576537E-2,-8.3741665E-2,-1.1618248E-2,3.0420562E-2,3.6266786E-1,-7.175315E-2,3.3179548E-2,-1.1648441E-2,3.269345E-2,-1.1638628E-2,1.1103741E-1,-1.1292692E-2,-1.9663075E-2,-4.2756232E-3,2.1769699E-2,-1.2134062E-2,-1.1844696E-2,3.564998E-2,3.1570688E-2,-2.0083046E-2,-1.0675863E-2,1.8057972E-2,-1.881602E-2,6.329542E-3],"categories":[],"categories_nodes":[],"categories_segments":[],"categories_sizes":[],"default_left":[0,0,0,0,0,0,0,0,0,0,0,0,0,0,0,0,0,0,0,0,0,0,0,0,0,0,0,0,0,0,0,0,0,0,0,0,0,0,0,0,0,0,0,0,0,0,0,0,0,0,0,0,0,0,0,0,0,0,0,0,0,0,0,0,0,0,0,0,0,0,0,0,0,0,0,0,0,0,0,0,0,0,0,0,0,0,0,0,0],"id":1,"left_children":[1,3,5,-1,7,9,11,13,15,17,-1,19,21,23,25,27,29,31,-1,33,-1,-1,-1,35,37,39,41,43,45,47,-1,49,-1,51,-1,-1,-1,53,-1,-1,55,57,-1,59,-1,61,63,65,67,69,-1,-1,-1,-1,-1,71,-1,-1,73,75,-1,-1,-1,77,-1,-1,79,-1,-1,81,83,-1,-1,-1,-1,85,-1,-1,87,-1,-1,-1,-1,-1,-1,-1,-1,-1,-1],"loss_changes":[1.79762E1,4.86611E0,1.6073618E0,0E0,4.250511E0,1.2038395E0,5.1296616E-1,3.6495726E0,1.8495644E0,7.435992E-1,0E0,4.6227932E-1,6.0897267E-1,7.292943E-1,1.6280357E0,9.2481244E-1,7.1588063E-1,4.1262746E-1,0E0,9.328692E-1,0E0,0E0,0E0,6.396866E-1,1.4484363E0,8.138901E-1,6.026871E-1,1.5259312E0,8.781667E-1,4.9596405E-1,0E0,3.708536E-1,0E0,5.4429865E-1,0E0,0E0,0E0,5.018507E-1,0E0,0E0,3.3312988E-1,4.9583066E-1,0E0,8.751182E-1,0E0,4.725327E-1,8.988852E-1,1.0817106E0,4.943235E-1,6.6824734E-1,0E0,0E0,0E0,0E0,0E0,4.5197546E-1,0E0,0E0,4.430488E-1,6.5562314E-1,0E0,0E0,0E0,7.2478557E-1,0E0,0E0,3.582235E-1,0E0,0E0,5.2598864E-1,1.1059368E0,0E0,0E0,0E0,0E0,7.118159E-1,0E0,0E0,4.617153E-1,0E0,0E0,0E0,0E0,0E0,0E0,0E0,0E0,0E0,0E0],"parents":[2147483647,0,0,1,1,2,2,4,4,5,5,6,6,7,7,8,8,9,9,11,11,12,12,13,13,14,14,15,15,16,16,17,17,19,19,23,23,24,24,25,25,26,26,27,27,28,28,29,29,31,31,33,33,37,37,40,40,41,41,43,43,45,45,46,46,47,47,48,48,49,49,55,55,58,58,59,59,63,63,66,66,69,69,70,70,75,75,78,78],"right_children":[2,4,6,-1,8,10,12,14,16,18,-1,20,22,24,26,28,30,32,-1,34,-1,-1,-1,36,38,40,42,44,46,48,-1,50,-1,52,-1,-1,-1,54,-1,-1,56,58,-1,60,-1,62,64,66,68,70,-1,-1,-1,-1,-1,72,-1,-1,74,76,-1,-1,-1,78,-1,-1,80,-1,-1,82,84,-1,-1,-1,-1,86,-1,-1,88,-1,-1,-1,-1,-1,-1,-1,-1,-1,-1],"split_conditions":[7.1653575E-1,-7.3195714E-1,1.1498462E0,-2.0842744E-2,-2.7388817E-1,4.9764672E-1,2.841337E0,1.0042386E0,1.8749544E-1,1.1188954E0,-1.8785696E-2,-4.796224E-1,8.397217E-2,5.705823E-1,-5.381415E-1,2.386783E-1,6.8558496E-1,3.9703804E-1,-1.6248351E-2,-5.439934E-1,4.0981974E-2,2.9233687E-2,-1.6387116E-2,1.9329966E0,8.471689E-1,-5.2149415E-1,-6.4529717E-1,4.7580516E-1,-2.1198668E-1,-2.5917765E-1,-1.5531504E-2,6.974832E-1,3.395054E-2,-8.362943E-1,-1.5573228E-2,-2.1499913E-2,2.1769699E-2,-1.4120385E-1,-2.2140363E-2,-2.1213748E-2,2.2312605E0,3.5977435E-1,3.964438E-2,1.2804365E-1,3.322604E-2,8.1207925E-1,1.7492067E0,-9.783029E-1,-2.1198668E-1,8.09388E-1,3.3518396E-2,-1.1726943E-2,3.3202507E-2,3.271448E-2,1.6727296E-3,-3.667404E-1,-1.3990931E-2,-1.5508359E-2,8.1207925E-1,-6.171423E-1,3.3332698E-2,3.4308296E-2,-1.1653518E-2,2.8322527E-1,2.9204736E-2,3.5576537E-2,-8.362943E-1,-1.1618248E-2,3.0420562E-2,-5.295388E-1,-2.2278331E-1,3.3179548E-2,-1.1648441E-2,3.269345E-2,-1.1638628E-2,-8.570707E-1,-1.1292692E-2,-1.9663075E-2,-5.087837E-1,2.1769699E-2,-1.2134062E-2,-1.1844696E-2,3.564998E-2,3.1570688E-2,-2.0083046E-2,-1.0675863E-2,1.8057972E-2,-1.881602E-2,6.329542E-3],"split_indices":[1,5,1,0,1,6,6,0,6,1,0,6,0,2,6,2,1,5,0,6,0,0,0,5,2,1,1,5,1,2,0,0,0,0,0,0,0,5,0,0,0,3,0,2,0,3,5,2,1,1,0,0,0,0,0,1,0,0,3,6,0,0,0,1,0,0,0,0,0,0,0,0,0,0,0,6,0,0,5,0,0,0,0,0,0,0,0,0,0],"split_type":[0,0,0,0,0,0,0,0,0,0,0,0,0,0,0,0,0,0,0,0,0,0,0,0,0,0,0,0,0,0,0,0,0,0,0,0,0,0,0,0,0,0,0,0,0,0,0,0,0,0,0,0,0,0,0,0,0,0,0,0,0,0,0,0,0,0,0,0,0,0,0,0,0,0,0,0,0,0,0,0,0,0,0,0,0,0,0,0,0],"sum_hessian":[4.4E2,3.46E2,9.4E1,9.2E1,2.54E2,3.2E1,6.2E1,1.25E2,1.29E2,2.8E1,4E0,5.8E1,4E0,9.9E1,2.6E1,9.1E1,3.8E1,2.6E1,2E0,1.8E1,4E1,2E0,2E0,7.6E1,2.3E1,1.2E1,1.4E1,4.6E1,4.5E1,3.6E1,2E0,1.6E1,1E1,1.6E1,2E0,7.5E1,1E0,1.1E1,1.2E1,7E0,5E0,6E0,8E0,3.7E1,9E0,4E0,4.1E1,1.2E1,2.4E1,1.3E1,3E0,1E0,1.5E1,3E0,8E0,4E0,1E0,2E0,4E0,3.4E1,3E0,3E0,1E0,3.9E1,2E0,4E0,8E0,1E0,2.3E1,5E0,8E0,3E0,1E0,3E0,1E0,1.7E1,1.7E1,2.2E1,1.7E1,1E0,7E0,1E0,4E0,2E0,6E0,6E0,1.1E1,4E0,1.3E1],"tree_param":{"num_deleted":"0","num_feature":"8","num_nodes":"89","size_leaf_vector":"1"}},{"base_weights":[6.489455E-3,-1.3507937E-1,2.6523954E-1,-2.5419062E-1,2.1322347E-2,-5.0402835E-2,3.809559E-1,-2.6468638E-1,2.7972145E-2,-2.1160893E-2,1.0817233E-1,-2.2612995E-1,4.2228527E-2,2.8415048E-1,3.6236398E-2,-2.1668026E-2,-2.034938E-1,-1.4311966E-1,2.0928916E-1,7.684251E-3,-2.0306226E-2,2.5766325E-1,-1.03740655E-1,7.228224E-2,3.4795067E-1,-2.41306E-2,-1.7202536E-2,3.0540466E-2,-1.4312108E-2,2.92033E-1,-5.05695E-2,-7.635457E-2,4.3421647E-1,2.9116926E-1,-2.3736987E-1,-1.3245111E-2,3.230067E-1,2.8259158E-2,1.4846049E-1,-2.0130144E-2,2.3859176E-1,2.3800972E-1,3.805073E-2,-2.2382799E-1,3.3325213E-1,2.2612067E-2,-1.808531E-2,3.875953E-2,-1.2289764E-2,3.1313635E-2,-1.0923305E-2,-2.1631153E-2,7.843473E-3,2.8559236E-2,-1.0993538E-2,3.093907E-1,-1.781046E-2,-3.5959877E-2,3.221152E-2,3.4250206E-1,-8.6593695E-2,7.5957435E-3,-2.0860553E-2,-1.1205576E-2,3.288708E-2,2.7955996E-2,-1.2932686E-2,2.108152E-2,-1.7459959E-2,2.1165043E-1,3.8900148E-2,2.8949764E-2,-2.2618471E-1,8.0737687E-4,2.8006656E-2,-2.2497058E-2,2.0907912E-2],"categories":[],"categories_nodes":[],"categories_segments":[],"categories_sizes":[],"default_left":[0,0,0,0,0,0,0,0,0,0,0,0,0,0,0,0,0,0,0,0,0,0,0,0,0,0,0,0,0,0,0,0,0,0,0,0,0,0,0,0,0,0,0,0,0,0,0,0,0,0,0,0,0,0,0,0,0,0,0,0,0,0,0,0,0,0,0,0,0,0,0,0,0,0,0,0,0],"id":2,"left_children":[1,3,5,7,9,11,13,15,-1,-1,17,19,21,23,-1,-1,25,27,29,-1,-1,31,33,35,37,39,-1,-1,-1,41,43,45,47,49,51,-1,53,-1,55,-1,57,59,-1,61,63,-1,-1,-1,-1,-1,-1,-1,-1,-1,-1,65,-1,67,-1,69,71,-1,-1,-1,-1,-1,-1,-1,-1,73,-1,-1,75,-1,-1,-1,-1],"loss_changes":[1.6263338E1,5.352002E0,5.753625E0,1.2128401E0,3.497971E0,7.0949626E-1,1.2934227E0,3.3565426E-1,0E0,0E0,2.5455284E0,3.30581E-1,9.386882E-1,8.94022E-1,0E0,0E0,4.5916724E-1,1.0568182E0,1.541389E0,0E0,0E0,7.408175E-1,1.0190017E0,1.1631312E0,4.5857906E-1,9.5314413E-1,0E0,0E0,0E0,5.833473E-1,1.2715974E0,4.3286023E-1,6.3591003E-1,4.0081275E-1,3.606794E-1,0E0,4.0223205E-1,0E0,8.485147E-1,0E0,4.2932275E-1,1.5899124E0,0E0,3.318054E-1,4.5530897E-1,0E0,0E0,0E0,0E0,0E0,0E0,0E0,0E0,0E0,0E0,4.4406182E-1,0E0,3.5227993E-1,0E0,8.236823E-1,9.199638E-1,0E0,0E0,0E0,0E0,0E0,0E0,0E0,0E0,8.3688164E-1,0E0,0E0,5.64549E-1,0E0,0E0,0E0,0E0],"parents":[2147483647,0,0,1,1,2,2,3,3,4,4,5,5,6,6,7,7,10,10,11,11,12,12,13,13,16,16,17,17,18,18,21,21,22,22,23,23,24,24,25,25,29,29,30,30,31,31,32,32,33,33,34,34,36,36,38,38,40,40,41,41,43,43,44,44,55,55,57,57,59,59,60,60,69,69,72,72],"right_children":[2,4,6,8,10,12,14,16,-1,-1,18,20,22,24,-1,-1,26,28,30,-1,-1,32,34,36,38,40,-1,-1,-1,42,44,46,48,50,52,-1,54,-1,56,-1,58,60,-1,62,64,-1,-1,-1,-1,-1,-1,-1,-1,-1,-1,66,-1,68,-1,70,72,-1,-1,-1,-1,-1,-1,-1,-1,74,-1,-1,76,-1,-1,-1,-1],"split_conditions":[2.2132377E-1,-3.4900945E-1,-2.593545E-1,1.7623346E0,-7.45085E-1,-4.3466672E-1,1.2117476E0,-4.9308892E-2,2.7972145E-2,-2.1160893E-2,-6.4529717E-1,-8.123509E-1,2.386783E-1,-6.916385E-1,3.6236398E-2,-2.1668026E-2,-8.032955E-1,-2.378539E0,8.471689E-1,7.684251E-3,-2.0306226E-2,-4.8044696E-1,1.6493408E-1,1.7386457E-1,9.6153563E-1,-3.9769116E-1,-1.7202536E-2,3.0540466E-2,-1.4312108E-2,9.752079E-2,9.6153563E-1,-2.527188E0,1.3109941E0,8.397217E-2,-3.2499376E-1,-1.3245111E-2,9.9509245E-1,2.8259158E-2,7.927683E-2,-2.0130144E-2,1.2804365E-1,-2.6282199E-2,3.805073E-2,-5.295388E-1,-8.362943E-1,2.2612067E-2,-1.808531E-2,3.875953E-2,-1.2289764E-2,3.1313635E-2,-1.0923305E-2,-2.1631153E-2,7.843473E-3,2.8559236E-2,-1.0993538E-2,6.974832E-1,-1.781046E-2,-8.676682E-1,3.221152E-2,-3.0483893E-1,-9.3225665E-2,7.5957435E-3,-2.0860553E-2,-1.1205576E-2,3.288708E-2,2.7955996E-2,-1.2932686E-2,2.108152E-2,-1.7459959E-2,2.386783E-1,3.8900148E-2,2.8949764E-2,2.2312605E0,8.0737687E-4,2.8006656E-2,-2.2497058E-2,2.0907912E-2],"split_indices":[1,7,5,5,5,7,1,5,0,0,1,2,2,7,0,0,3,1,2,0,0,2,7,5,5,1,0,0,0,1,5,2,0,0,5,0,1,0,7,0,2,1,0,0,0,0,0,0,0,0,0,0,0,0,0,0,0,2,0,1,2,0,0,0,0,0,0,0,0,2,0,0,0,0,0,0,0],"split_type":[0,0,0,0,0,0,0,0,0,0,0,0,0,0,0,0,0,0,0,0,0,0,0,0,0,0,0,0,0,0,0,0,0,0,0,0,0,0,0,0,0,0,0,0,0,0,0,0,0,0,0,0,0,0,0,0,0,0,0,0,0,0,0,0,0,0,0,0,0,0,0,0,0,0,0,0,0],"sum_hessian":[4.42E2,2.86E2,1.56E2,1.62E2,1.24E2,4.2E1,1.14E2,1.6E2,2E0,2.6E1,9.8E1,1.4E1,2.8E1,6.7E1,4.7E1,9.4E1,6.6E1,2.8E1,7E1,2E0,1.2E1,1.1E1,1.7E1,1.6E1,5.1E1,1.2E1,5.4E1,2E0,2.6E1,5.3E1,1.7E1,4E0,7E0,4E0,1.3E1,8E0,8E0,4E1,1.1E1,6E0,6E0,4.5E1,8E0,1.2E1,5E0,1E0,3E0,6E0,1E0,3E0,1E0,1.1E1,2E0,7E0,1E0,8E0,3E0,3E0,3E0,3.4E1,1.1E1,2E0,1E1,1E0,4E0,7E0,1E0,1E0,2E0,2.2E1,1.2E1,2E0,9E0,1.1E1,1.1E1,8E0,1E0],"tree_param":{"num_deleted":"0","num_feature":"8","num_nodes":"77","size_leaf_vector":"1"}},{"base_weights":[1.9315049E-2,-1.2468034E-1,2.5361386E-1,-2.1584117E-1,2.9310018E-2,1.2077876E-1,4.3210557E-1,-2.2042526E-1,2.0824902E-2,-1.8796486E-1,9.955798E-2,3.7027508E-2,8.02847E-2,-2.2162097E-3,4.524073E-1,-1.8215626E-2,-1.3928926E-1,2.1133346E-2,-1.5575745E-2,4.5552734E-2,2.3141652E-1,-7.813882E-2,1.34225E-1,4.6402147E-1,-1.2393561E-2,2.3800261E-2,-2.4551779E-1,1.3695069E-1,-1.6023155E-2,2.9185118E-2,3.8473412E-1,-1.2886646E-1,1.4753949E-2,1.0072218E-1,3.3328246E-2,3.4576453E-2,7.521872E-2,-1.0313209E-1,1.6529236E-2,-2.0970186E-2,1.01873375E-1,3.4023255E-1,5.0087713E-2,2.2412375E-1,-1.772653E-2,3.1774294E-2,-1.301738E-2,-1.6521527E-1,2.124169E-2,1.5477291E-1,-1.0337132E-1,2.623161E-2,-1.7327039E-2,-1.8761324E-2,7.076187E-2,2.688938E-2,-1.4829369E-2,3.1328335E-2,2.2036006E-4,-4.028609E-2,3.7860644E-1,-1.2598745E-2,3.2060224E-1,1.5318622E-2,-2.037463E-2,1.990963E-1,-1.5227368E-1,-1.5087631E-2,2.608596E-2,-1.5192892E-2,1.42980125E-2,1.5477318E-1,-1.0843143E-2,3.5306945E-2,-1.1798141E-2,-1.0214576E-2,3.141246E-2,1.315805E-2,-1.7288912E-2,1.1565453E-1,3.5826954E-1,-2.0020405E-2,2.2205522E-2,-1.5631044E-2,1.9603454E-2,1.1715093E-2,-1.8340368E-2,7.647214E-3,3.6464967E-2],"categories":[],"categories_nodes":[],"categories_segments":[],"categories_sizes":[],"default_left":[0,0,0,0,0,0,0,0,0,0,0,0,0,0,0,0,0,0,0,0,0,0,0,0,0,0,0,0,0,0,0,0,0,0,0,0,0,0,0,0,0,0,0,0,0,0,0,0,0,0,0,0,0,0,0,0,0,0,0,0,0,0,0,0,0,0,0,0,0,0,0,0,0,0,0,0,0,0,0,0,0,0,0,0,0,0,0,0,0],"id":3,"left_children":[1,3,5,7,9,11,13,15,-1,17,19,-1,21,-1,23,-1,25,-1,-1,27,29,31,33,35,-1,37,39,41,-1,43,45,47,-1,49,-1,-1,51,53,-1,-1,55,57,59,61,-1,-1,-1,63,-1,65,67,-1,-1,-1,69,-1,-1,-1,-1,71,73,-1,75,77,-1,79,81,-1,-1,-1,-1,83,-1,-1,-1,-1,-1,-1,-1,85,87,-1,-1,-1,-1,-1,-1,-1,-1],"loss_changes":[1.5247435E1,3.9369354E0,4.0259247E0,4.7530937E-1,1.6213408E0,1.580013E0,7.0074844E-1,4.758129E-1,0E0,4.6060377E-1,5.591426E-1,0E0,7.96666E-1,0E0,5.9062195E-1,0E0,9.760301E-1,0E0,0E0,1.4682158E0,7.0190096E-1,3.7478542E-1,7.271395E-1,5.7422066E-1,0E0,6.3389933E-1,6.1727E-1,7.5989574E-1,0E0,6.536666E-1,5.4426503E-1,3.760513E-1,0E0,7.2200876E-1,0E0,0E0,5.593947E-1,4.3865097E-1,0E0,0E0,5.0881207E-1,4.405334E-1,9.653162E-1,3.2801735E-1,0E0,0E0,0E0,4.4356978E-1,0E0,7.2439396E-1,7.964668E-1,0E0,0E0,0E0,3.4031922E-1,0E0,0E0,0E0,0E0,5.935212E-1,5.3428066E-1,0E0,4.0255302E-1,4.4077253E-1,0E0,5.562409E-1,5.0982976E-1,0E0,0E0,0E0,0E0,5.1510406E-1,0E0,0E0,0E0,0E0,0E0,0E0,0E0,6.137111E-1,5.277983E-1,0E0,0E0,0E0,0E0,0E0,0E0,0E0,0E0],"parents":[2147483647,0,0,1,1,2,2,3,3,4,4,5,5,6,6,7,7,9,9,10,10,12,12,14,14,16,16,19,19,20,20,21,21,22,22,23,23,25,25,26,26,27,27,29,29,30,30,31,31,33,33,36,36,37,37,40,40,41,41,42,42,43,43,47,47,49,49,50,50,54,54,59,59,60,60,62,62,63,63,65,65,66,66,71,71,79,79,80,80],"right_children":[2,4,6,8,10,12,14,16,-1,18,20,-1,22,-1,24,-1,26,-1,-1,28,30,32,34,36,-1,38,40,42,-1,44,46,48,-1,50,-1,-1,52,54,-1,-1,56,58,60,62,-1,-1,-1,64,-1,66,68,-1,-1,-1,70,-1,-1,-1,-1,72,74,-1,76,78,-1,80,82,-1,-1,-1,-1,84,-1,-1,-1,-1,-1,-1,-1,86,88,-1,-1,-1,-1,-1,-1,-1,-1],"split_conditions":[2.2132377E-1,-1.7769495E-1,1.056994E0,1.0042386E0,-8.0005085E-1,-8.123509E-1,-9.741089E-1,-2.7388817E-1,2.0824902E-2,-2.378539E0,2.7946854E-1,3.7027508E-2,-6.916385E-1,-2.2162097E-3,2.9059663E0,-1.8215626E-2,-5.7204324E-1,2.1133346E-2,-1.5575745E-2,-5.7204324E-1,1.2804365E-1,8.471689E-1,1.2343901E0,2.841337E0,-1.2393561E-2,-6.054385E-1,-3.4900945E-1,-9.3225665E-2,-1.6023155E-2,8.7031347E-1,9.277622E-1,1.9547726E0,1.4753949E-2,1.5354502E0,3.3328246E-2,3.4576453E-2,-8.362943E-1,-6.916385E-1,1.6529236E-2,-2.0970186E-2,-5.295388E-1,-1.5008518E-1,6.657004E-2,-6.380429E-3,-1.772653E-2,3.1774294E-2,-1.301738E-2,-8.362943E-1,2.124169E-2,9.022402E-1,6.8558496E-1,2.623161E-2,-1.7327039E-2,-1.8761324E-2,-2.2278331E-1,2.688938E-2,-1.4829369E-2,3.1328335E-2,2.2036006E-4,-4.5959267E-1,1.6177497E0,-1.2598745E-2,-3.667404E-1,1.7408991E-2,-2.037463E-2,7.645349E-1,9.91958E-1,-1.5087631E-2,2.608596E-2,-1.5192892E-2,1.42980125E-2,1.7408991E-2,-1.0843143E-2,3.5306945E-2,-1.1798141E-2,-1.0214576E-2,3.141246E-2,1.315805E-2,-1.7288912E-2,9.6589136E-1,6.974832E-1,-2.0020405E-2,2.2205522E-2,-1.5631044E-2,1.9603454E-2,1.1715093E-2,-1.8340368E-2,7.647214E-3,3.6464967E-2],"split_indices":[1,7,1,0,1,2,6,1,0,1,4,0,7,0,7,0,4,0,0,4,2,2,2,6,0,6,7,2,0,4,6,6,0,7,0,0,0,7,0,0,0,1,1,7,0,0,0,0,0,1,1,0,0,0,0,0,0,0,0,1,0,0,1,2,0,7,4,0,0,0,0,2,0,0,0,0,0,0,0,4,0,0,0,0,0,0,0,0,0],"split_type":[0,0,0,0,0,0,0,0,0,0,0,0,0,0,0,0,0,0,0,0,0,0,0,0,0,0,0,0,0,0,0,0,0,0,0,0,0,0,0,0,0,0,0,0,0,0,0,0,0,0,0,0,0,0,0,0,0,0,0,0,0,0,0,0,0,0,0,0,0,0,0,0,0,0,0,0,0,0,0,0,0,0,0,0,0,0,0,0,0],"sum_hessian":[4.5E2,2.79E2,1.71E2,1.75E2,1.04E2,9.9E1,7.2E1,1.74E2,1E0,2.5E1,7.9E1,8E0,9.1E1,3E0,6.9E1,1.19E2,5.5E1,1E0,2.4E1,5.7E1,2.2E1,2.3E1,6.8E1,6.8E1,1E0,2.2E1,3.3E1,4.3E1,1.4E1,1E1,1.2E1,2E1,3E0,6.3E1,5E0,6.4E1,4E0,1.4E1,8E0,2.9E1,4E0,1.2E1,3.1E1,6E0,4E0,1.1E1,1E0,1.9E1,1E0,5E1,1.3E1,2E0,2E0,7E0,7E0,2E0,2E0,9E0,3E0,2.5E1,6E0,1E0,5E0,8E0,1.1E1,4.4E1,6E0,1.1E1,2E0,2E0,5E0,9E0,1.6E1,5E0,1E0,1E0,4E0,5E0,3E0,3E1,1.4E1,5E0,1E0,2E0,7E0,2.7E1,3E0,6E0,8E0],"tree_param":{"num_deleted":"0","num_feature":"8","num_nodes":"89","size_leaf_vector":"1"}},{"base_weights":[8.5025355E-3,-1.0302186E-1,1.4408244E-1,-1.9899485E-1,-4.8248444E-4,-8.3928764E-2,2.2115955E-1,-1.7097313E-2,-8.4856495E-2,-1.9389825E-2,3.0592471E-2,-1.24289826E-1,1.4854817E-1,1.00351825E-1,2.992407E-1,-1.7850313E-2,2.4924753E-2,-8.902355E-2,1.0210189E-1,-1.5264781E-1,1.27432E-1,2.8720777E-2,-1.4798391E-2,1.6254349E-1,-8.08342E-2,3.1843594E-1,-9.0765454E-2,3.188985E-2,-6.565907E-2,3.4394328E-2,-1.2927322E-1,3.737159E-1,5.5438904E-3,-1.39628695E-2,4.764794E-2,2.8376177E-2,-1.3290476E-2,2.5252137E-1,-5.47305E-2,2.7067026E-2,-1.2361914E-2,2.7723196E-1,3.4191884E-2,1.8075379E-2,-1.7096462E-2,2.7193347E-2,-1.0011226E-2,2.6749415E-2,-1.980904E-1,3.1783707E-2,-1.2922E-2,1.2807952E-1,-1.6115046E-1,2.5322448E-2,-1.1472265E-1,2.1831634E-2,4.9584247E-2,1.17468E-2,-1.3878386E-2,3.0325818E-1,-1.6657958E-2,1.2149019E-1,-1.7483253E-2,-2.2705285E-1,9.6397296E-2,3.0262384E-1,1.043337E-3,-1.9532552E-2,9.876355E-2,-1.7099474E-2,1.8302636E-2,2.4714497E-1,-1.4899325E-2,4.3801618E-1,2.3372766E-1,-9.812454E-3,3.1152016E-2,1.9825026E-2,-2.4531502E-1,2.4282707E-2,-1.2870966E-2,-6.166143E-4,3.4885608E-2,-1.7357983E-2,1.5005313E-2,2.6348073E-2,-1.4656211E-2,-1.3101172E-2,2.8493792E-2,3.352819E-2,-9.813607E-3,1.2720463E-1,3.7117353E-1,8.056878E-3,-1.631451E-2,-1.8697957E-2,1.8028498E-2,-3.7954957E-3,2.9209683E-2,3.1410985E-2,-1.6754782E-3],"categories":[],"categories_nodes":[],"categories_segments":[],"categories_sizes":[],"default_left":[0,0,0,0,0,0,0,0,0,0,0,0,0,0,0,0,0,0,0,0,0,0,0,0,0,0,0,0,0,0,0,0,0,0,0,0,0,0,0,0,0,0,0,0,0,0,0,0,0,0,0,0,0,0,0,0,0,0,0,0,0,0,0,0,0,0,0,0,0,0,0,0,0,0,0,0,0,0,0,0,0,0,0,0,0,0,0,0,0,0,0,0,0,0,0,0,0,0,0,0,0],"id":4,"left_children":[1,3,5,7,9,11,13,-1,15,17,-1,19,21,23,25,-1,27,29,31,33,35,-1,-1,37,39,41,43,-1,45,-1,47,49,51,-1,53,-1,-1,55,57,-1,-1,59,-1,-1,-1,-1,-1,61,63,-1,-1,65,67,-1,69,-1,71,-1,-1,73,-1,75,-1,77,79,81,83,-1,85,-1,-1,87,-1,89,91,93,-1,-1,95,-1,-1,-1,-1,-1,-1,-1,-1,-1,-1,-1,-1,97,99,-1,-1,-1,-1,-1,-1,-1,-1],"loss_changes":[6.6678486E0,2.3814285E0,3.5158763E0,5.7470036E-1,9.7035104E-1,4.9699685E-1,1.3754582E0,0E0,6.458304E-1,9.735205E-1,0E0,3.3353835E-1,8.145889E-1,6.8923473E-1,7.026663E-1,0E0,8.745283E-1,1.7469354E0,1.0994415E0,3.6133313E-1,5.0263655E-1,0E0,0E0,8.93564E-1,7.55147E-1,4.439335E-1,3.2006285E-1,0E0,6.9551486E-1,0E0,7.461544E-1,5.322094E-1,6.7427194E-1,0E0,4.420957E-1,0E0,0E0,3.4088373E-1,4.6575856E-1,0E0,0E0,1.0167713E0,0E0,0E0,0E0,0E0,0E0,5.9868836E-1,4.312836E-1,0E0,0E0,4.209797E-1,4.4140688E-1,0E0,3.4360063E-1,0E0,4.6173596E-1,0E0,0E0,5.3476954E-1,0E0,7.120918E-1,0E0,4.751897E-1,4.026666E-1,4.737593E-1,6.7070895E-1,0E0,4.9175996E-1,0E0,0E0,4.0633887E-1,0E0,4.9640465E-1,6.409192E-1,3.783256E-1,0E0,0E0,4.5158505E-1,0E0,0E0,0E0,0E0,0E0,0E0,0E0,0E0,0E0,0E0,0E0,0E0,1.4585712E0,5.713997E-1,0E0,0E0,0E0,0E0,0E0,0E0,0E0,0E0],"parents":[2147483647,0,0,1,1,2,2,3,3,4,4,5,5,6,6,8,8,9,9,11,11,12,12,13,13,14,14,16,16,17,17,18,18,19,19,20,20,23,23,24,24,25,25,26,26,28,28,30,30,31,31,32,32,34,34,37,37,38,38,41,41,47,47,48,48,51,51,52,52,54,54,56,56,59,59,61,61,63,63,64,64,65,65,66,66,68,68,71,71,73,73,74,74,75,75,78,78,91,91,92,92],"right_children":[2,4,6,8,10,12,14,-1,16,18,-1,20,22,24,26,-1,28,30,32,34,36,-1,-1,38,40,42,44,-1,46,-1,48,50,52,-1,54,-1,-1,56,58,-1,-1,60,-1,-1,-1,-1,-1,62,64,-1,-1,66,68,-1,70,-1,72,-1,-1,74,-1,76,-1,78,80,82,84,-1,86,-1,-1,88,-1,90,92,94,-1,-1,96,-1,-1,-1,-1,-1,-1,-1,-1,-1,-1,-1,-1,98,100,-1,-1,-1,-1,-1,-1,-1,-1],"split_conditions":[-1.7769495E-1,-4.9308892E-2,-5.3503937E-1,-5.20324E-1,2.1430423E0,5.2275765E-1,-4.796224E-1,-1.7097313E-2,-7.45085E-1,8.5087E-2,3.0592471E-2,8.471689E-1,8.7031347E-1,1.6177497E0,2.7038171E0,-1.7850313E-2,-6.7944574E-1,-9.92534E-3,2.372367E-1,-6.006786E-1,-6.902912E-1,2.8720777E-2,-1.4798391E-2,-6.0836446E-1,-1.018203E-1,1.0788469E0,-1.4208415E0,3.188985E-2,-2.527188E0,3.4394328E-2,-8.362943E-1,6.812169E-1,-2.2278331E-1,-1.39628695E-2,1.2804365E-1,2.8376177E-2,-1.3290476E-2,7.777457E-1,8.397217E-2,2.7067026E-2,-1.2361914E-2,9.13758E-1,3.4191884E-2,1.8075379E-2,-1.7096462E-2,2.7193347E-2,-1.0011226E-2,1.4997776E0,6.812169E-1,3.1783707E-2,-1.2922E-2,8.0400145E-1,6.812169E-1,2.5322448E-2,1.2897633E-1,2.1831634E-2,-5.7204324E-1,1.17468E-2,-1.3878386E-2,8.397217E-2,-1.6657958E-2,1.3159876E0,-1.7483253E-2,-1.0004425E0,8.471689E-1,4.011131E-1,1.4078826E0,-1.9532552E-2,1.0131209E0,-1.7099474E-2,1.8302636E-2,-8.1318134E-1,-1.4899325E-2,1.8673574E0,4.1572E-1,7.908736E-1,3.1152016E-2,1.9825026E-2,1.0403028E0,2.4282707E-2,-1.2870966E-2,-6.166143E-4,3.4885608E-2,-1.7357983E-2,1.5005313E-2,2.6348073E-2,-1.4656211E-2,-1.3101172E-2,2.8493792E-2,3.352819E-2,-9.813607E-3,4.88933E-1,1.0131209E0,8.056878E-3,-1.631451E-2,-1.8697957E-2,1.8028498E-2,-3.7954957E-3,2.9209683E-2,3.1410985E-2,-1.6754782E-3],"split_indices":[7,5,5,7,5,4,6,0,5,6,0,2,4,0,6,0,5,5,6,5,6,0,0,6,5,4,2,0,2,0,0,2,0,0,2,0,0,5,0,0,0,4,0,0,0,0,0,5,2,0,0,5,2,0,6,0,4,0,0,0,0,5,0,6,2,4,5,0,2,0,0,6,0,5,6,5,0,0,5,0,0,0,0,0,0,0,0,0,0,0,0,5,2,0,0,0,0,0,0,0,0],"split_type":[0,0,0,0,0,0,0,0,0,0,0,0,0,0,0,0,0,0,0,0,0,0,0,0,0,0,0,0,0,0,0,0,0,0,0,0,0,0,0,0,0,0,0,0,0,0,0,0,0,0,0,0,0,0,0,0,0,0,0,0,0,0,0,0,0,0,0,0,0,0,0,0,0,0,0,0,0,0,0,0,0,0,0,0,0,0,0,0,0,0,0,0,0,0,0,0,0,0,0,0,0],"sum_hessian":[4.39E2,2.41E2,1.98E2,1.24E2,1.17E2,5E1,1.48E2,9E1,3.4E1,1.13E2,4E0,4.3E1,7E0,5.9E1,8.9E1,1.3E1,2.1E1,7.2E1,4.1E1,3.9E1,4E0,4E0,3E0,4.4E1,1.5E1,8.5E1,4E0,3E0,1.8E1,4E0,6.8E1,1E1,3.1E1,3.2E1,7E0,2E0,2E0,3.1E1,1.3E1,2E0,1.3E1,7E1,1.5E1,1E0,3E0,2E0,1.6E1,2.1E1,4.7E1,9E0,1E0,1.8E1,1.3E1,2E0,5E0,2.4E1,7E0,5E0,8E0,6.7E1,3E0,1.6E1,5E0,4.3E1,4E0,7E0,1.1E1,9E0,4E0,4E0,1E0,4E0,3E0,2.1E1,4.6E1,1.2E1,4E0,1E0,4.2E1,2E0,2E0,3E0,4E0,5E0,6E0,2E0,2E0,1E0,3E0,2E1,1E0,2.7E1,1.9E1,8E0,4E0,4.1E1,1E0,1.7E1,1E1,1.6E1,3E0],"tree_param":{"num_deleted":"0","num_feature":"8","num_nodes":"101","size_leaf_vector":"1"}},{"base_weights":[9.443946E-3,-1.08833924E-1,2.0604183E-1,-2.0243602E-1,9.7501837E-4,1.0065386E-1,3.527372E-1,-1.4724365E-2,1.8373966E-2,-4.8229594E-2,3.043493E-1,3.3884138E-2,6.1896503E-2,3.712767E-1,-2.9369963E-3,-1.6797902E-1,1.8967718E-2,3.294333E-2,1.304102E-1,-2.5643667E-3,2.4978532E-1,1.2475392E-1,2.829888E-2,2.6658276E-2,-1.4664025E-2,8.4338866E-2,-1.1024777E-2,-1.5451382E-2,3.1060597E-1,-3.5134252E-2,2.946606E-2,2.9883724E-1,-1.256084E-2,2.8133478E-2,-1.7444449E-2,3.1444535E-2,2.9171888E-2,-9.197834E-3,2.8805135E-2,-1.3014971E-2,1.5862398E-3,3.2997653E-1,-1.1504931E-2,-3.9197516E-2,2.564897E-1,9.537563E-3,3.0189257E-2,4.4545606E-2,-1.916079E-2,3.1425595E-1,-1.14063565E-2,9.436939E-3,-1.7002758E-2,3.2078456E-2,-3.3375344E-4],"categories":[],"categories_nodes":[],"categories_segments":[],"categories_sizes":[],"default_left":[0,0,0,0,0,0,0,0,0,0,0,0,0,0,0,0,0,0,0,0,0,0,0,0,0,0,0,0,0,0,0,0,0,0,0,0,0,0,0,0,0,0,0,0,0,0,0,0,0,0,0,0,0,0,0],"id":5,"left_children":[1,3,5,7,9,11,13,-1,-1,15,17,-1,19,21,-1,23,25,-1,27,29,31,33,-1,-1,-1,35,-1,-1,37,39,-1,41,-1,-1,-1,-1,43,-1,-1,-1,-1,45,-1,47,49,-1,-1,51,-1,53,-1,-1,-1,-1,-1],"loss_changes":[1.0277077E1,2.8370206E0,2.5308437E0,3.8777876E-1,1.9253875E0,1.4000841E0,5.194769E-1,0E0,0E0,8.963853E-1,4.3873572E-1,0E0,1.0906734E0,3.917799E-1,0E0,9.1352284E-1,8.329167E-1,0E0,6.945501E-1,9.390292E-1,5.341625E-1,9.011635E-1,0E0,0E0,0E0,1.034872E0,0E0,0E0,3.4497124E-1,5.487788E-1,0E0,3.5478354E-1,0E0,0E0,0E0,0E0,7.4050814E-1,0E0,0E0,0E0,0E0,3.1494856E-1,0E0,7.264088E-1,3.1548727E-1,0E0,0E0,7.338829E-1,0E0,4.402579E-1,0E0,0E0,0E0,0E0,0E0],"parents":[2147483647,0,0,1,1,2,2,3,3,4,4,5,5,6,6,9,9,10,10,12,12,13,13,15,15,16,16,18,18,19,19,20,20,21,21,25,25,28,28,29,29,31,31,36,36,41,41,43,43,44,44,47,47,49,49],"right_children":[2,4,6,8,10,12,14,-1,-1,16,18,-1,20,22,-1,24,26,-1,28,30,32,34,-1,-1,-1,36,-1,-1,38,40,-1,42,-1,-1,-1,-1,44,-1,-1,-1,-1,46,-1,48,50,-1,-1,52,-1,54,-1,-1,-1,-1,-1],"split_conditions":[2.2132377E-1,-3.4900945E-1,1.056994E0,1.5662942E0,5.2275765E-1,-8.123509E-1,2.3920228E0,-1.4724365E-2,1.8373966E-2,-6.143464E-1,9.13758E-1,3.3884138E-2,8.7669426E-1,-6.916385E-1,-2.9369963E-3,-2.378539E0,-5.7204324E-1,3.294333E-2,1.0788469E0,1.1237556E0,9.9509245E-1,-8.62953E-1,2.829888E-2,2.6658276E-2,-1.4664025E-2,-4.5959267E-1,-1.1024777E-2,-1.5451382E-2,1.2804365E-1,-5.295388E-1,2.946606E-2,1.9105341E0,-1.256084E-2,2.8133478E-2,-1.7444449E-2,3.1444535E-2,6.657004E-2,-9.197834E-3,2.8805135E-2,-1.3014971E-2,1.5862398E-3,-5.7204324E-1,-1.1504931E-2,-8.818369E-2,7.474643E-1,9.537563E-3,3.0189257E-2,8.471689E-1,-1.916079E-2,1.0042386E0,-1.14063565E-2,9.436939E-3,-1.7002758E-2,3.2078456E-2,-3.3375344E-4],"split_indices":[1,7,1,2,4,2,7,0,0,1,4,0,3,7,0,1,4,0,4,2,1,7,0,0,0,1,0,0,2,0,0,3,0,0,0,0,1,0,0,0,0,4,0,1,3,0,0,2,0,0,0,0,0,0,0],"split_type":[0,0,0,0,0,0,0,0,0,0,0,0,0,0,0,0,0,0,0,0,0,0,0,0,0,0,0,0,0,0,0,0,0,0,0,0,0,0,0,0,0,0,0,0,0,0,0,0,0,0,0,0,0,0,0],"sum_hessian":[4.4E2,2.75E2,1.65E2,1.48E2,1.27E2,9.7E1,6.8E1,1.47E2,1E0,1.1E2,1.7E1,8E0,8.9E1,6.5E1,3E0,3.9E1,7.1E1,8E0,9E0,6.7E1,2.2E1,7E0,5.8E1,2E0,3.7E1,5.2E1,1.9E1,3E0,6E0,6.3E1,4E0,2E1,2E0,4E0,3E0,6E0,4.6E1,1E0,5E0,1.7E1,4.6E1,1.9E1,1E0,3.6E1,1E1,7E0,1.2E1,2.7E1,9E0,9E0,1E0,2.1E1,6E0,6E0,3E0],"tree_param":{"num_deleted":"0","num_feature":"8","num_nodes":"55","size_leaf_vector":"1"}},{"base_weights":[-7.746495E-3,-1.4912367E-1,8.7076314E-2,-1.8602344E-1,3.7903683E-3,-2.5594342E-2,1.8924241E-1,-1.3882888E-2,1.0954085E-1,1.5330838E-1,-1.1616219E-2,-9.644683E-2,8.626761E-2,2.0031315E-1,-1.626133E-2,-1.1099587E-2,2.4067294E-2,3.620955E-1,-3.1454593E-2,-1.5041171E-1,2.4101622E-1,-8.075059E-3,1.4045283E-1,1.4023484E-1,3.0503187E-1,-1.3720192E-2,3.2364413E-2,-1.5430792E-2,2.34943E-1,-1.4888142E-2,-5.495436E-2,2.9312633E-2,2.0726481E-3,2.5187215E-1,9.912887E-3,3.2457748E-1,9.412133E-2,-5.755518E-3,3.4197E-1,2.770239E-2,-1.368511E-2,1.18225545E-1,-2.0137998E-1,1.068971E-1,3.367466E-2,-7.8860894E-2,2.5750285E-2,-9.413995E-3,3.6143064E-1,3.2791787E-1,5.0418325E-2,2.5307098E-2,-9.724067E-3,-1.2101789E-1,2.4191175E-2,2.027307E-2,-1.8221766E-2,3.466894E-1,-6.4841904E-2,-1.9556136E-1,1.4823343E-1,2.8609386E-2,-9.19271E-3,2.784402E-2,-1.1115092E-2,-6.312749E-2,1.8649472E-1,1.9643877E-2,-1.6576428E-2,-1.0202677E-2,3.363125E-2,1.3065785E-2,-1.5619048E-2,1.7589992E-2,-1.879767E-2,2.7446877E-2,-1.5537965E-2,-1.515785E-1,1.1166425E-1,3.1854287E-2,7.781542E-2,-1.7077936E-2,9.962095E-3,1.8495312E-2,-1.782011E-2,2.3254536E-2,-4.9975296E-3],"categories":[],"categories_nodes":[],"categories_segments":[],"categories_sizes":[],"default_left":[0,0,0,0,0,0,0,0,0,0,0,0,0,0,0,0,0,0,0,0,0,0,0,0,0,0,0,0,0,0,0,0,0,0,0,0,0,0,0,0,0,0,0,0,0,0,0,0,0,0,0,0,0,0,0,0,0,0,0,0,0,0,0,0,0,0,0,0,0,0,0,0,0,0,0,0,0,0,0,0,0,0,0,0,0,0,0],"id":6,"left_children":[1,3,5,7,9,11,13,-1,15,17,-1,19,21,23,-1,-1,-1,25,27,29,31,-1,33,35,37,-1,-1,-1,39,-1,41,-1,-1,43,45,47,49,-1,51,-1,-1,53,55,57,-1,59,-1,-1,61,63,65,-1,-1,67,-1,-1,-1,69,71,73,75,-1,-1,-1,-1,77,79,-1,-1,-1,-1,-1,-1,-1,-1,-1,-1,81,83,-1,85,-1,-1,-1,-1,-1,-1],"loss_changes":[5.8444996E0,9.881413E-1,3.0092459E0,4.1436768E-1,9.007388E-1,9.990324E-1,6.801095E-1,0E0,3.5769114E-1,7.4433607E-1,0E0,1.4385102E0,5.4685986E-1,8.002615E-1,0E0,0E0,0E0,5.555254E-1,5.9547573E-1,3.6706233E-1,3.8797516E-1,0E0,5.647454E-1,7.090101E-1,7.122092E-1,0E0,0E0,0E0,4.0669107E-1,0E0,7.084736E-1,0E0,0E0,6.258714E-1,6.23349E-1,3.3428633E-1,7.0891744E-1,0E0,3.5051107E-1,0E0,0E0,7.3277396E-1,4.7598463E-1,5.990237E-1,0E0,4.5302093E-1,0E0,0E0,3.7688828E-1,4.028374E-1,9.542781E-1,0E0,0E0,3.7723407E-1,0E0,0E0,0E0,4.4103616E-1,3.8763267E-1,4.023445E-1,6.0898894E-1,0E0,0E0,0E0,0E0,5.4258317E-1,7.6228666E-1,0E0,0E0,0E0,0E0,0E0,0E0,0E0,0E0,0E0,0E0,6.301355E-1,7.123673E-1,0E0,7.99634E-1,0E0,0E0,0E0,0E0,0E0,0E0],"parents":[2147483647,0,0,1,1,2,2,3,3,4,4,5,5,6,6,8,8,9,9,11,11,12,12,13,13,17,17,18,18,19,19,20,20,22,22,23,23,24,24,28,28,30,30,33,33,34,34,35,35,36,36,38,38,41,41,42,42,43,43,45,45,48,48,49,49,50,50,53,53,57,57,58,58,59,59,60,60,65,65,66,66,77,77,78,78,80,80],"right_children":[2,4,6,8,10,12,14,-1,16,18,-1,20,22,24,-1,-1,-1,26,28,30,32,-1,34,36,38,-1,-1,-1,40,-1,42,-1,-1,44,46,48,50,-1,52,-1,-1,54,56,58,-1,60,-1,-1,62,64,66,-1,-1,68,-1,-1,-1,70,72,74,76,-1,-1,-1,-1,78,80,-1,-1,-1,-1,-1,-1,-1,-1,-1,-1,82,84,-1,86,-1,-1,-1,-1,-1,-1],"split_conditions":[-2.9873806E-1,7.645349E-1,-1.7769495E-1,2.0249956E0,1.8780793E0,9.386487E-2,2.7038171E0,-1.3882888E-2,-2.2278331E-1,1.0042386E0,-1.1616219E-2,1.3159876E0,3.2025112E-3,-1.1469527E-2,-1.626133E-2,-1.1099587E-2,2.4067294E-2,-8.362943E-1,1.6211075E0,-2.2278331E-1,1.752018E-1,-8.075059E-3,8.5651284E-1,-5.295388E-1,-9.2037685E-2,-1.3720192E-2,3.2364413E-2,-1.5430792E-2,1.9245051E0,-1.4888142E-2,8.397217E-2,2.9312633E-2,2.0726481E-3,6.8784666E-1,1.9547726E0,-8.278111E-1,-9.3225665E-2,-5.755518E-3,2.9059663E0,2.770239E-2,-1.368511E-2,-9.3225665E-2,-2.856102E-1,2.3138478E-1,3.367466E-2,8.471689E-1,2.5750285E-2,-9.413995E-3,-9.047033E-2,-5.7204324E-1,8.501922E-1,2.5307098E-2,-9.724067E-3,-1.0004425E0,2.4191175E-2,2.027307E-2,-1.8221766E-2,-8.362943E-1,-5.295388E-1,-1.0889375E0,3.663575E-1,2.8609386E-2,-9.19271E-3,2.784402E-2,-1.1115092E-2,-3.3331703E-2,1.0215067E0,1.9643877E-2,-1.6576428E-2,-1.0202677E-2,3.363125E-2,1.3065785E-2,-1.5619048E-2,1.7589992E-2,-1.879767E-2,2.7446877E-2,-1.5537965E-2,1.0009192E0,-3.09917E-1,3.1854287E-2,2.526317E-1,-1.7077936E-2,9.962095E-3,1.8495312E-2,-1.782011E-2,2.3254536E-2,-4.9975296E-3],"split_indices":[5,7,7,6,7,6,6,0,0,0,0,5,5,6,0,0,0,0,7,0,4,0,5,0,7,0,0,0,0,0,0,0,0,4,6,6,2,0,7,0,0,2,5,6,0,2,0,0,6,4,7,0,0,6,0,0,0,0,0,2,4,0,0,0,0,4,7,0,0,0,0,0,0,0,0,0,0,5,6,0,5,0,0,0,0,0,0],"split_type":[0,0,0,0,0,0,0,0,0,0,0,0,0,0,0,0,0,0,0,0,0,0,0,0,0,0,0,0,0,0,0,0,0,0,0,0,0,0,0,0,0,0,0,0,0,0,0,0,0,0,0,0,0,0,0,0,0,0,0,0,0,0,0,0,0,0,0,0,0,0,0,0,0,0,0,0,0,0,0,0,0,0,0,0,0,0,0],"sum_hessian":[4.34E2,1.74E2,2.6E2,1.4E2,3.4E1,1.24E2,1.36E2,1.36E2,4E0,1.8E1,1.6E1,7.6E1,4.8E1,1.33E2,3E0,2E0,2E0,8E0,1E1,6.6E1,1E1,1E1,3.8E1,8.6E1,4.7E1,1E0,7E0,6E0,4E0,4E1,2.6E1,5E0,5E0,2E1,1.8E1,1.6E1,7E1,4E0,4.3E1,3E0,1E0,1.2E1,1.4E1,1.3E1,7E0,1.5E1,3E0,1E0,1.5E1,1E1,6E1,4.2E1,1E0,6E0,6E0,1E0,1.3E1,5E0,8E0,1E1,5E0,1.4E1,1E0,9E0,1E0,3.3E1,2.7E1,1E0,5E0,1E0,4E0,3E0,5E0,1E0,9E0,3E0,2E0,2.2E1,1.1E1,7E0,2E1,1.7E1,5E0,8E0,3E0,7E0,1.3E1],"tree_param":{"num_deleted":"0","num_feature":"8","num_nodes":"87","size_leaf_vector":"1"}},{"base_weights":[6.27916E-3,-5.2531365E-2,3.3885992E-1,-1.3458625E-2,9.348098E-3,3.5722303E-1,-2.8173767E-3,-9.6504666E-2,1.3736027E-1,2.813036E-2,1.7448394E-1,-1.454537E-1,5.4382853E-2,-9.820107E-2,1.803138E-1,-8.497078E-3,2.2622311E-2,-1.5712121E-1,2.267058E-2,2.880443E-1,-3.417261E-2,2.4560878E-2,-1.7077495E-1,8.505133E-2,2.5844148E-1,-1.3713954E-2,-7.42492E-2,-1.5299686E-4,2.9315459E-2,4.6227727E-2,-1.6400827E-2,-1.8939005E-2,2.074326E-1,1.6281289E-1,-3.5000704E-3,2.9459763E-1,-3.157171E-2,2.0554867E-1,-1.544023E-1,-1.1135082E-2,1.6759169E-1,2.6959613E-2,-1.0971783E-2,2.2721113E-1,-8.124008E-2,1.8494257E-1,2.787683E-2,2.1759855E-2,-1.619544E-2,-1.2891325E-2,3.3673067E-2,-1.4554602E-2,1.08811125E-1,-1.14845686E-1,2.5461972E-2,2.1740293E-2,3.122512E-2,2.1532115E-2,-2.0997878E-2,3.8651627E-1,4.7400106E-2,-1.2949042E-2,2.5830362E-2,-1.696812E-2,1.7948033E-2,-9.062075E-3,2.4038555E-2,3.247475E-2,-8.866233E-3,-1.3607106E-2,1.8080631E-2],"categories":[],"categories_nodes":[],"categories_segments":[],"categories_sizes":[],"default_left":[0,0,0,0,0,0,0,0,0,0,0,0,0,0,0,0,0,0,0,0,0,0,0,0,0,0,0,0,0,0,0,0,0,0,0,0,0,0,0,0,0,0,0,0,0,0,0,0,0,0,0,0,0,0,0,0,0,0,0,0,0,0,0,0,0,0,0,0,0,0,0],"id":7,"left_children":[1,3,5,-1,7,9,-1,11,13,-1,15,17,19,21,23,-1,-1,25,-1,27,29,-1,31,33,35,-1,37,-1,-1,39,-1,-1,41,43,-1,45,47,49,51,-1,53,-1,-1,55,57,59,-1,-1,-1,-1,-1,-1,61,63,-1,-1,65,-1,-1,67,69,-1,-1,-1,-1,-1,-1,-1,-1,-1,-1],"loss_changes":[8.721666E0,3.2135239E0,4.798789E-1,0E0,3.5634718E0,3.848524E-1,0E0,1.0714655E0,1.2217715E0,0E0,5.887084E-1,6.410394E-1,7.5475526E-1,6.712647E-1,7.297256E-1,0E0,0E0,3.0447125E-1,0E0,3.6270356E-1,4.377357E-1,0E0,6.7165065E-1,4.9896273E-1,5.860174E-1,0E0,7.942439E-1,0E0,0E0,5.189982E-1,0E0,0E0,3.0779496E-1,4.8995614E-1,0E0,4.5328712E-1,5.345168E-1,9.17478E-1,3.8123888E-1,0E0,7.420168E-1,0E0,0E0,3.6138952E-1,6.66451E-1,6.748026E-1,0E0,0E0,0E0,0E0,0E0,0E0,4.3724608E-1,3.3390054E-1,0E0,0E0,4.3346938E-1,0E0,0E0,4.185121E-1,8.408113E-1,0E0,0E0,0E0,0E0,0E0,0E0,0E0,0E0,0E0,0E0],"parents":[2147483647,0,0,1,1,2,2,4,4,5,5,7,7,8,8,10,10,11,11,12,12,13,13,14,14,17,17,19,19,20,20,22,22,23,23,24,24,26,26,29,29,32,32,33,33,35,35,36,36,37,37,38,38,40,40,43,43,44,44,45,45,52,52,53,53,56,56,59,59,60,60],"right_children":[2,4,6,-1,8,10,-1,12,14,-1,16,18,20,22,24,-1,-1,26,-1,28,30,-1,32,34,36,-1,38,-1,-1,40,-1,-1,42,44,-1,46,48,50,52,-1,54,-1,-1,56,58,60,-1,-1,-1,-1,-1,-1,62,64,-1,-1,66,-1,-1,68,70,-1,-1,-1,-1,-1,-1,-1,-1,-1,-1],"split_conditions":[1.056994E0,-6.006786E-1,2.3920228E0,-1.3458625E-2,-1.7769495E-1,2.1736479E0,-2.8173767E-3,2.2132377E-1,-8.0005085E-1,2.813036E-2,3.346649E0,1.7623346E0,-8.362943E-1,-2.378539E0,-4.796224E-1,-8.497078E-3,2.2622311E-2,9.386487E-2,2.267058E-2,1.7386457E-1,8.09388E-1,2.4560878E-2,1.9245051E0,9.358494E-1,2.0249956E0,-1.3713954E-2,2.3138478E-1,-1.5299686E-4,2.9315459E-2,-5.295388E-1,-1.6400827E-2,-1.8939005E-2,2.8447716E0,3.1422412E-1,-3.5000704E-3,1.7386457E-1,7.927683E-2,-8.362943E-1,-3.4900945E-1,-1.1135082E-2,3.4512678E-1,2.6959613E-2,-1.0971783E-2,4.101659E-1,-7.7806985E-1,-1.1913444E-1,2.787683E-2,2.1759855E-2,-1.619544E-2,-1.2891325E-2,3.3673067E-2,-1.4554602E-2,-1.2022067E-1,7.5735784E-1,2.5461972E-2,2.1740293E-2,8.501922E-1,2.1532115E-2,-2.0997878E-2,3.0553523E-1,5.932204E-1,-1.2949042E-2,2.5830362E-2,-1.696812E-2,1.7948033E-2,-9.062075E-3,2.4038555E-2,3.247475E-2,-8.866233E-3,-1.3607106E-2,1.8080631E-2],"split_indices":[1,5,7,0,7,4,0,1,1,0,4,5,0,1,6,0,0,6,0,5,1,0,0,7,6,0,6,0,0,0,0,0,0,4,0,5,7,0,7,0,1,0,0,5,6,1,0,0,0,0,0,0,4,4,0,0,7,0,0,4,7,0,0,0,0,0,0,0,0,0,0],"split_type":[0,0,0,0,0,0,0,0,0,0,0,0,0,0,0,0,0,0,0,0,0,0,0,0,0,0,0,0,0,0,0,0,0,0,0,0,0,0,0,0,0,0,0,0,0,0,0,0,0,0,0,0,0,0,0,0,0,0,0,0,0,0,0,0,0,0,0,0,0,0,0],"sum_hessian":[4.44E2,3.78E2,6.6E1,1.17E2,2.61E2,6.3E1,3E0,1.43E2,1.18E2,5.1E1,1.2E1,1.08E2,3.5E1,1.8E1,1E2,4E0,8E0,1.06E2,2E0,9E0,2.6E1,2E0,1.6E1,4.6E1,5.4E1,7.3E1,3.3E1,3E0,6E0,1.9E1,7E0,1.3E1,3E0,2.9E1,1.7E1,4.8E1,6E0,7E0,2.6E1,7E0,1.2E1,2E0,1E0,2.3E1,6E0,2.4E1,2.4E1,2E0,4E0,3E0,4E0,2.2E1,4E0,5E0,7E0,1.6E1,7E0,2E0,4E0,9E0,1.5E1,2E0,2E0,4E0,1E0,5E0,2E0,8E0,1E0,7E0,8E0],"tree_param":{"num_deleted":"0","num_feature":"8","num_nodes":"71","size_leaf_vector":"1"}},{"base_weights":[9.213527E-3,-9.485993E-2,1.8614554E-1,-1.3476152E-2,-5.4742325E-2,9.401913E-2,2.1355389E-2,2.4244059E-2,-1.2576072E-1,-6.4035743E-3,2.3580508E-1,-1.094551E-1,1.0994446E-1,-1.3256523E-2,7.8934826E-2,2.9414156E-2,-3.80198E-2,1.8672198E-2,-1.2552155E-2,-1.4582007E-1,2.5812771E-2,1.6084899E-1,-8.255224E-2,4.731994E-3,1.9111613E-2,-5.1989164E-3,2.497092E-1,-1.8053915E-1,1.0554609E-1,1.9310504E-2,3.0770174E-1,-1.7116401E-2,2.3734182E-2,-7.4269764E-2,2.269788E-2,-1.0167383E-2,2.5350995E-2,1.7172594E-2,-1.4345166E-2,-1.3188201E-2,2.5682997E-2,1.2460104E-1,-1.8171722E-1,3.6162025E-1,-2.7570955E-3,8.6813E-2,-1.4859515E-2,-4.7598314E-2,2.0098189E-2,1.6082508E-2,-1.8541304E-2,-8.594868E-3,3.9339018E-1,-1.1144954E-2,2.6442572E-1,-1.6000686E-2,2.719229E-2,3.3577554E-2,1.0136257E-2,2.9769616E-2,-1.258421E-2],"categories":[],"categories_nodes":[],"categories_segments":[],"categories_sizes":[],"default_left":[0,0,0,0,0,0,0,0,0,0,0,0,0,0,0,0,0,0,0,0,0,0,0,0,0,0,0,0,0,0,0,0,0,0,0,0,0,0,0,0,0,0,0,0,0,0,0,0,0,0,0,0,0,0,0,0,0,0,0,0,0],"id":8,"left_children":[1,3,5,-1,7,9,-1,11,13,15,17,19,21,-1,23,-1,25,-1,-1,27,-1,29,31,33,-1,-1,35,37,39,41,43,-1,-1,45,-1,-1,-1,-1,-1,-1,-1,47,49,51,-1,53,-1,55,-1,-1,-1,-1,57,-1,59,-1,-1,-1,-1,-1,-1],"loss_changes":[8.303925E0,1.0704646E0,1.7334814E0,0E0,1.1305557E0,1.3399315E0,0E0,1.1120089E0,1.3355488E0,7.602713E-1,4.8204374E-1,7.0642936E-1,5.914168E-1,0E0,3.514338E-1,0E0,5.546686E-1,0E0,0E0,3.332346E-1,0E0,9.70968E-1,9.387156E-1,4.9629474E-1,0E0,0E0,3.037697E-1,3.3831668E-1,4.399485E-1,5.518E-1,4.4376254E-1,0E0,0E0,3.6592627E-1,0E0,0E0,0E0,0E0,0E0,0E0,0E0,4.770343E-1,3.5046446E-1,3.5426092E-1,0E0,3.8779104E-1,0E0,7.7451026E-1,0E0,0E0,0E0,0E0,3.1042385E-1,0E0,4.1580796E-1,0E0,0E0,0E0,0E0,0E0,0E0],"parents":[2147483647,0,0,1,1,2,2,4,4,5,5,7,7,8,8,9,9,10,10,11,11,12,12,14,14,16,16,19,19,21,21,22,22,23,23,26,26,27,27,28,28,29,29,30,30,33,33,41,41,42,42,43,43,45,45,47,47,52,52,54,54],"right_children":[2,4,6,-1,8,10,-1,12,14,16,18,20,22,-1,24,-1,26,-1,-1,28,-1,30,32,34,-1,-1,36,38,40,42,44,-1,-1,46,-1,-1,-1,-1,-1,-1,-1,48,50,52,-1,54,-1,56,-1,-1,-1,-1,58,-1,60,-1,-1,-1,-1,-1,-1],"split_conditions":[2.2132377E-1,-7.3195714E-1,1.056994E0,-1.3476152E-2,-5.7204324E-1,2.6575953E-1,2.1355389E-2,-6.4529717E-1,6.8784666E-1,-8.123509E-1,9.9509245E-1,1.2643842E0,8.471689E-1,-1.3256523E-2,6.974832E-1,2.9414156E-2,1.2343901E0,1.8672198E-2,-1.2552155E-2,1.9245051E0,2.5812771E-2,1.2804365E-1,9.3527997E-1,1.7623346E0,1.9111613E-2,-5.1989164E-3,-1.2176876E0,-2.378539E0,-1.3262136E0,-9.3225665E-2,1.3109941E0,-1.7116401E-2,2.3734182E-2,9.745802E-1,2.269788E-2,-1.0167383E-2,2.5350995E-2,1.7172594E-2,-1.4345166E-2,-1.3188201E-2,2.5682997E-2,8.397217E-2,-8.362943E-1,-5.8339566E-1,-2.7570955E-3,6.182343E-1,-1.4859515E-2,-9.92534E-3,2.0098189E-2,1.6082508E-2,-1.8541304E-2,-8.594868E-3,-8.032955E-1,-1.1144954E-2,6.812169E-1,-1.6000686E-2,2.719229E-2,3.3577554E-2,1.0136257E-2,2.9769616E-2,-1.258421E-2],"split_indices":[1,5,1,0,4,5,0,1,4,2,1,3,2,0,0,0,2,0,0,0,0,2,5,5,0,0,5,1,1,2,0,0,0,4,0,0,0,0,0,0,0,0,0,1,0,3,0,5,0,0,0,0,3,0,2,0,0,0,0,0,0],"split_type":[0,0,0,0,0,0,0,0,0,0,0,0,0,0,0,0,0,0,0,0,0,0,0,0,0,0,0,0,0,0,0,0,0,0,0,0,0,0,0,0,0,0,0,0,0,0,0,0,0,0,0,0,0,0,0,0,0,0,0,0,0],"sum_hessian":[4.49E2,2.83E2,1.66E2,8.3E1,2E2,9.3E1,7.3E1,9.5E1,1.05E2,5.5E1,3.8E1,3.7E1,5.8E1,8.1E1,2.4E1,3E0,5.2E1,3.6E1,2E0,3.5E1,2E0,4.6E1,1.2E1,1.8E1,6E0,4.7E1,5E0,3.1E1,4E0,2.4E1,2.2E1,9E0,3E0,1.5E1,3E0,1E0,4E0,1E0,3E1,2E0,2E0,1.6E1,8E0,1.9E1,3E0,7E0,8E0,8E0,8E0,1E0,7E0,1E0,1.8E1,3E0,4E0,6E0,2E0,1.3E1,5E0,3E0,1E0],"tree_param":{"num_deleted":"0","num_feature":"8","num_nodes":"61","size_leaf_vector":"1"}},{"base_weights":[-3.487698E-3,-9.214076E-2,1.5906526E-1,-1.5502548E-1,1.939816E-2,-4.3080226E-2,2.2227924E-1,-1.1472785E-2,2.0497715E-2,-1.7103714E-1,7.866672E-2,2.2516286E-2,-1.6265886E-2,1.5417354E-1,2.4724338E-2,-1.4421776E-2,2.1202944E-2,-1.0783926E-1,1.4687797E-1,1.3246302E-1,-1.680044E-2,8.308385E-2,2.958916E-1,2.2380106E-2,-1.1782752E-2,1.9179681E-1,-6.656755E-2,2.2020364E-2,-6.4877595E-4,1.5339279E-1,-2.05705E-1,3.30754E-1,-2.0444691E-2,3.494141E-1,5.0426647E-2,-1.7265607E-2,2.1528514E-2,1.2456989E-1,-1.6046444E-2,-1.446206E-2,1.8448071E-1,1.745012E-2,-1.9562243E-2,2.7292825E-2,-3.2776222E-3,2.6941113E-2,-1.0937404E-2,3.016791E-1,-3.572544E-2,-3.0942403E-3,2.454965E-2,2.0381415E-2,5.07376E-2,2.8345454E-2,-1.0038035E-2,-1.9500715E-1,1.2680404E-1,-9.787442E-2,1.9427587E-1,-1.8143343E-2,1.4534871E-2,2.5239885E-2,-3.8749187E-3,-2.187872E-2,2.090785E-2,2.1733293E-2,-1.1957775E-2],"categories":[],"categories_nodes":[],"categories_segments":[],"categories_sizes":[],"default_left":[0,0,0,0,0,0,0,0,0,0,0,0,0,0,0,0,0,0,0,0,0,0,0,0,0,0,0,0,0,0,0,0,0,0,0,0,0,0,0,0,0,0,0,0,0,0,0,0,0,0,0,0,0,0,0,0,0,0,0,0,0,0,0,0,0,0,0],"id":9,"left_children":[1,3,5,7,9,11,13,-1,-1,15,17,19,-1,21,-1,-1,-1,23,25,27,-1,29,31,-1,-1,33,35,-1,37,39,41,43,-1,45,47,-1,-1,49,-1,-1,51,-1,-1,-1,-1,-1,-1,53,55,-1,-1,-1,57,-1,-1,59,61,63,65,-1,-1,-1,-1,-1,-1,-1,-1],"loss_changes":[6.3698263E0,2.0090382E0,2.0030088E0,5.739646E-1,1.1872847E0,4.6859768E-1,9.659438E-1,0E0,0E0,4.3627357E-1,1.0335839E0,8.5728204E-1,0E0,7.71317E-1,0E0,0E0,0E0,5.923457E-1,5.7844317E-1,4.965276E-1,0E0,1.1279935E0,6.2430453E-1,0E0,0E0,1.0742171E0,7.914083E-1,0E0,3.94836E-1,5.2588975E-1,4.1376078E-1,5.2176404E-1,0E0,4.0437245E-1,5.952175E-1,0E0,0E0,3.4955797E-1,0E0,0E0,5.4729116E-1,0E0,0E0,0E0,0E0,0E0,0E0,3.583957E-1,5.683751E-1,0E0,0E0,0E0,4.2431334E-1,0E0,0E0,3.1790885E-1,4.7530794E-1,9.149335E-1,4.5656383E-1,0E0,0E0,0E0,0E0,0E0,0E0,0E0,0E0],"parents":[2147483647,0,0,1,1,2,2,3,3,4,4,5,5,6,6,9,9,10,10,11,11,13,13,17,17,18,18,19,19,21,21,22,22,25,25,26,26,28,28,29,29,30,30,31,31,33,33,34,34,37,37,40,40,47,47,48,48,52,52,55,55,56,56,57,57,58,58],"right_children":[2,4,6,8,10,12,14,-1,-1,16,18,20,-1,22,-1,-1,-1,24,26,28,-1,30,32,-1,-1,34,36,-1,38,40,42,44,-1,46,48,-1,-1,50,-1,-1,52,-1,-1,-1,-1,-1,-1,54,56,-1,-1,-1,58,-1,-1,60,62,64,66,-1,-1,-1,-1,-1,-1,-1,-1],"split_conditions":[2.2132377E-1,-1.7769495E-1,-4.0376088E-1,1.7623346E0,-6.5319E-1,5.922688E-1,1.3974522E0,-1.1472785E-2,2.0497715E-2,6.657004E-2,-8.0005085E-1,5.705823E-1,-1.6265886E-2,7.645349E-1,2.4724338E-2,-1.4421776E-2,2.1202944E-2,-2.378539E0,8.471689E-1,1.6493408E-1,-1.680044E-2,1.1744249E0,1.3665015E0,2.2380106E-2,-1.1782752E-2,4.2438933E-1,9.6153563E-1,2.2020364E-2,-7.8446853E-1,-2.856102E-1,-8.676682E-1,9.8779136E-1,-2.0444691E-2,1.7067648E0,-6.380429E-3,-1.7265607E-2,2.1528514E-2,9.3319094E-1,-1.6046444E-2,-1.446206E-2,2.386783E-1,1.745012E-2,-1.9562243E-2,2.7292825E-2,-3.2776222E-3,2.6941113E-2,-1.0937404E-2,-5.7232946E-2,-3.667404E-1,-3.0942403E-3,2.454965E-2,2.0381415E-2,-5.7204324E-1,2.8345454E-2,-1.0038035E-2,1.1071639E0,-1.1913444E-1,6.5463424E-1,9.9509245E-1,-1.8143343E-2,1.4534871E-2,2.5239885E-2,-3.8749187E-3,-2.187872E-2,2.090785E-2,2.1733293E-2,-1.1957775E-2],"split_indices":[1,7,5,5,5,4,1,0,0,1,1,2,0,7,0,0,0,1,2,7,0,4,1,0,0,3,5,0,5,5,2,5,0,7,7,0,0,1,0,0,2,0,0,0,0,0,0,1,1,0,0,0,4,0,0,7,1,1,1,0,0,0,0,0,0,0,0],"split_type":[0,0,0,0,0,0,0,0,0,0,0,0,0,0,0,0,0,0,0,0,0,0,0,0,0,0,0,0,0,0,0,0,0,0,0,0,0,0,0,0,0,0,0,0,0,0,0,0,0,0,0,0,0,0,0,0,0,0,0,0,0,0,0,0,0,0,0],"sum_hessian":[4.4E2,2.85E2,1.55E2,1.82E2,1.03E2,3.7E1,1.18E2,1.8E2,2E0,2.4E1,7.9E1,2.8E1,9E0,7.8E1,4E1,2.3E1,1E0,2.1E1,5.8E1,2E1,8E0,5.3E1,2.5E1,2E0,1.9E1,4.8E1,1E1,8E0,1.2E1,4.3E1,1E1,2.4E1,1E0,2.2E1,2.6E1,7E0,3E0,8E0,4E0,3E0,4E1,1E0,9E0,2.1E1,3E0,2.1E1,1E0,6E0,2E1,5E0,3E0,2.2E1,1.8E1,5E0,1E0,1E1,1E1,9E0,9E0,9E0,1E0,4E0,6E0,6E0,3E0,7E0,2E0],"tree_param":{"num_deleted":"0","num_feature":"8","num_nodes":"67","size_leaf_vector":"1"}},{"base_weights":[-3.5410407E-3,-8.29879E-2,9.41053E-2,-1.1085808E-1,1.0110537E-1,-7.017748E-2,1.5493147E-1,-1.0160016E-2,-1.7984912E-3,3.0040521E-2,2.0404892E-2,-7.2305533E-3,1.6118161E-1,1.0448788E-1,2.4242601E-1,-1.4143098E-2,8.845521E-2,2.0008768E-1,-7.8116484E-2,2.1972826E-2,-9.90789E-3,1.1955241E-1,-1.9044293E-2,1.4438228E-1,3.548796E-1,2.0276709E-1,-5.9963096E-2,-9.4862655E-3,2.132249E-2,7.0402403E-3,-1.6122112E-2,1.5070772E-1,-2.6887883E-3,2.1586388E-2,4.9424186E-2,-1.1955889E-2,2.7342487E-2,2.7421734E-1,-1.076722E-2,-1.2934352E-1,2.0158147E-2,2.3022139E-1,4.1569835E-3,-1.5370108E-1,1.6307674E-2,8.317952E-2,3.9962584E-1,-1.5984781E-2,1.1802962E-2,9.631739E-2,2.5084928E-2,2.03635E-2,-2.1282937E-2,-4.5267283E-3,2.480864E-2,3.3030447E-2,-6.7110374E-3,8.0078637E-4,2.6011074E-2],"categories":[],"categories_nodes":[],"categories_segments":[],"categories_sizes":[],"default_left":[0,0,0,0,0,0,0,0,0,0,0,0,0,0,0,0,0,0,0,0,0,0,0,0,0,0,0,0,0,0,0,0,0,0,0,0,0,0,0,0,0,0,0,0,0,0,0,0,0,0,0,0,0,0,0,0,0,0,0],"id":10,"left_children":[1,3,5,7,9,11,13,-1,15,17,-1,-1,19,21,23,-1,25,27,29,-1,-1,31,-1,33,35,37,39,-1,-1,-1,-1,41,-1,-1,43,-1,-1,45,-1,47,-1,49,-1,51,-1,53,55,-1,-1,57,-1,-1,-1,-1,-1,-1,-1,-1,-1],"loss_changes":[3.4754994E0,1.2784947E0,2.019404E0,7.5432754E-1,4.2796117E-1,4.1875297E-1,6.234596E-1,0E0,9.0804493E-1,4.754249E-1,0E0,0E0,3.5499734E-1,5.653024E-1,5.331061E-1,0E0,6.0596776E-1,3.7408286E-1,4.4462973E-1,0E0,0E0,4.568789E-1,0E0,4.3942654E-1,4.4233394E-1,5.4794335E-1,4.1831455E-1,0E0,0E0,0E0,0E0,5.509212E-1,0E0,0E0,7.6721454E-1,0E0,0E0,3.7404132E-1,0E0,4.3332875E-1,0E0,6.409385E-1,0E0,7.2858655E-1,0E0,3.349929E-1,3.6707842E-1,0E0,0E0,4.7786027E-1,0E0,0E0,0E0,0E0,0E0,0E0,0E0,0E0,0E0],"parents":[2147483647,0,0,1,1,2,2,3,3,4,4,5,5,6,6,8,8,9,9,12,12,13,13,14,14,16,16,17,17,18,18,21,21,23,23,24,24,25,25,26,26,31,31,34,34,37,37,39,39,41,41,43,43,45,45,46,46,49,49],"right_children":[2,4,6,8,10,12,14,-1,16,18,-1,-1,20,22,24,-1,26,28,30,-1,-1,32,-1,34,36,38,40,-1,-1,-1,-1,42,-1,-1,44,-1,-1,46,-1,48,-1,50,-1,52,-1,54,56,-1,-1,58,-1,-1,-1,-1,-1,-1,-1,-1,-1],"split_conditions":[-1.7769495E-1,1.1190698E0,-5.3503937E-1,4.011131E-1,8.471689E-1,5.2275765E-1,2.6209077E-1,-1.0160016E-2,-2.0684311E-1,1.7408991E-2,2.0404892E-2,-7.2305533E-3,8.7031347E-1,1.665129E-1,2.9399562E-1,-1.4143098E-2,9.745802E-1,-7.7729577E-1,-5.3728765E-1,2.1972826E-2,-9.90789E-3,1.1351542E0,-1.9044293E-2,8.397217E-2,-2.8637555E-1,8.0400145E-1,3.346649E0,-9.4862655E-3,2.132249E-2,7.0402403E-3,-1.6122112E-2,5.705823E-1,-2.6887883E-3,2.1586388E-2,1.0042386E0,-1.1955889E-2,2.7342487E-2,-6.916385E-1,-1.076722E-2,3.9072767E-1,2.0158147E-2,2.0012027E-1,4.1569835E-3,-9.253059E-2,1.6307674E-2,6.2021154E-1,5.151887E-1,-1.5984781E-2,1.1802962E-2,8.501922E-1,2.5084928E-2,2.03635E-2,-2.1282937E-2,-4.5267283E-3,2.480864E-2,3.3030447E-2,-6.7110374E-3,8.0078637E-4,2.6011074E-2],"split_indices":[7,5,5,4,2,4,4,0,5,2,0,0,4,4,2,0,4,7,4,0,0,3,0,0,3,5,4,0,0,0,0,2,0,0,0,0,0,7,0,0,0,5,0,3,0,5,5,0,0,7,0,0,0,0,0,0,0,0,0],"split_type":[0,0,0,0,0,0,0,0,0,0,0,0,0,0,0,0,0,0,0,0,0,0,0,0,0,0,0,0,0,0,0,0,0,0,0,0,0,0,0,0,0,0,0,0,0,0,0,0,0,0,0,0,0,0,0,0,0,0,0],"sum_hessian":[4.46E2,2.46E2,2E2,2.14E2,3.2E1,5.4E1,1.46E2,1.65E2,4.9E1,2.4E1,8E0,4.8E1,6E0,9.4E1,5.2E1,1.5E1,3.4E1,9E0,1.5E1,4E0,2E0,9.1E1,3E0,2.9E1,2.3E1,1.9E1,1.5E1,2E0,7E0,7E0,8E0,7.6E1,1.5E1,1E1,1.9E1,1E0,2.2E1,1.6E1,3E0,1.3E1,2E0,4E1,3.6E1,9E0,1E1,7E0,9E0,1E1,3E0,2E1,2E1,2E0,7E0,5E0,2E0,8E0,1E0,1.6E1,4E0],"tree_param":{"num_deleted":"0","num_feature":"8","num_nodes":"59","size_leaf_vector":"1"}},{"base_weights":[1.6090955E-3,-7.811163E-2,1.4519545E-1,-9.860137E-3,-2.3287267E-3,-8.898586E-3,2.0691045E-1,-3.9959446E-2,2.3403795E-1,-6.5706824E-3,1.4408632E-1,1.6619235E-1,2.8504467E-1,-1.161374E-2,6.6658966E-3,-3.897524E-4,2.319715E-2,2.3658013E-1,-8.89394E-3,1.8306473E-1,-2.2490656E-2,2.1568356E-2,-1.4329966E-2,-1.4365481E-1,4.756145E-2,-1.4311416E-2,3.3454537E-1,4.622244E-2,1.5540217E-2,2.0706719E-2,-1.3240021E-2,1.2465853E-1,-5.3871553E-3,-7.551938E-3,2.7649207E-2,1.5046367E-2,-9.088816E-2,1.9335207E-1,-3.817003E-2,-1.6208742E-2,1.2225965E-2,1.15011394E-1,2.7319334E-2,-1.5627772E-2,1.02987416E-1,-8.796257E-3,1.3676459E-2,2.1331526E-2,-5.3610024E-3],"categories":[],"categories_nodes":[],"categories_segments":[],"categories_sizes":[],"default_left":[0,0,0,0,0,0,0,0,0,0,0,0,0,0,0,0,0,0,0,0,0,0,0,0,0,0,0,0,0,0,0,0,0,0,0,0,0,0,0,0,0,0,0,0,0,0,0,0,0],"id":11,"left_children":[1,3,5,-1,7,9,11,13,15,-1,17,19,21,-1,23,-1,-1,25,-1,27,-1,-1,-1,29,31,-1,33,35,-1,-1,-1,37,-1,-1,-1,-1,39,41,43,-1,-1,45,-1,-1,47,-1,-1,-1,-1],"loss_changes":[5.162406E0,1.3338152E0,1.5329373E0,0E0,1.1656563E0,6.1449397E-1,3.1849718E-1,6.520153E-1,4.0080452E-1,0E0,4.5307115E-1,6.9339275E-1,4.054947E-1,0E0,5.170707E-1,0E0,0E0,6.2530404E-1,0E0,3.613851E-1,0E0,0E0,0E0,3.8918734E-1,6.373918E-1,0E0,3.0674744E-1,4.0527117E-1,0E0,0E0,0E0,4.6597636E-1,0E0,0E0,0E0,0E0,4.004209E-1,3.9030182E-1,3.5635918E-1,0E0,0E0,4.3126968E-1,0E0,0E0,3.043991E-1,0E0,0E0,0E0,0E0],"parents":[2147483647,0,0,1,1,2,2,4,4,5,5,6,6,7,7,8,8,10,10,11,11,12,12,14,14,17,17,19,19,23,23,24,24,26,26,27,27,31,31,36,36,37,37,38,38,41,41,44,44],"right_children":[2,4,6,-1,8,10,12,14,16,-1,18,20,22,-1,24,-1,-1,26,-1,28,-1,-1,-1,30,32,-1,34,36,-1,-1,-1,38,-1,-1,-1,-1,40,42,44,-1,-1,46,-1,-1,48,-1,-1,-1,-1],"split_conditions":[2.2132377E-1,-3.4900945E-1,-2.593545E-1,-9.860137E-3,5.2275765E-1,8.403387E-1,1.3974522E0,-8.0005085E-1,1.6330361E-2,-6.5706824E-3,1.792422E0,1.3665015E0,4.51965E0,-1.161374E-2,-7.45085E-1,-3.897524E-4,2.319715E-2,-6.916385E-1,-8.89394E-3,-6.916385E-1,-2.2490656E-2,2.1568356E-2,-1.4329966E-2,-1.8084409E0,2.788874E-1,-1.4311416E-2,-1.4277333E0,-8.62953E-1,1.5540217E-2,2.0706719E-2,-1.3240021E-2,4.2438933E-1,-5.3871553E-3,-7.551938E-3,2.7649207E-2,1.5046367E-2,1.0665585E0,6.657004E-2,6.974832E-1,-1.6208742E-2,1.2225965E-2,-5.295388E-1,2.7319334E-2,-1.5627772E-2,-1.5008518E-1,-8.796257E-3,1.3676459E-2,2.1331526E-2,-5.3610024E-3],"split_indices":[1,7,5,0,4,1,1,1,5,0,7,1,4,0,5,0,0,7,0,7,0,0,0,5,5,0,5,7,0,0,0,3,0,0,0,0,5,1,0,0,0,0,0,0,1,0,0,0,0],"split_type":[0,0,0,0,0,0,0,0,0,0,0,0,0,0,0,0,0,0,0,0,0,0,0,0,0,0,0,0,0,0,0,0,0,0,0,0,0,0,0,0,0,0,0,0,0,0,0,0,0],"sum_hessian":[4.49E2,2.89E2,1.6E2,1.6E2,1.29E2,4.6E1,1.14E2,1.12E2,1.7E1,3E1,1.6E1,7.7E1,3.7E1,3E1,8.2E1,5E0,1.2E1,1.2E1,4E0,7.5E1,2E0,3.6E1,1E0,1.7E1,6.5E1,2E0,1E1,1.6E1,5.9E1,1E0,1.6E1,4E1,2.5E1,1E0,9E0,7E0,9E0,2.8E1,1.2E1,6E0,3E0,2.1E1,7E0,5E0,7E0,5E0,1.6E1,3E0,4E0],"tree_param":{"num_deleted":"0","num_feature":"8","num_nodes":"49","size_leaf_vector":"1"}},{"base_weights":[-3.7458688E-3,-8.826084E-2,5.5365145E-2,-1.0448951E-2,-1.5053058E-2,-9.652607E-3,1.1852794E-1,-5.1401515E-2,1.4264047E-1,-2.5571566E-2,2.336211E-2,4.5413524E-2,1.9892967E-1,-7.5348965E-3,3.7584923E-2,1.8724022E-2,-1.2516307E-2,2.3917543E-2,-4.009126E-2,1.7918715E-2,3.9756214E-3,1.5926395E-2,-1.0254534E-2,7.5359787E-3,-1.5618563E-2,-5.3999055E-2,2.1232998E-2,5.3233832E-2,-9.794263E-3,-1.447582E-2,-3.0433485E-2,1.4827172E-2,-3.66647E-2,2.637016E-2,-4.194954E-2,-8.564235E-2,2.1529064E-2,-6.2179957E-3,8.166898E-2,1.7900866E-2,-8.7178815E-3,-2.4720954E-4,2.3980547E-2],"categories":[],"categories_nodes":[],"categories_segments":[],"categories_sizes":[],"default_left":[0,0,0,0,0,0,0,0,0,0,0,0,0,0,0,0,0,0,0,0,0,0,0,0,0,0,0,0,0,0,0,0,0,0,0,0,0,0,0,0,0,0,0],"id":12,"left_children":[1,3,5,-1,7,9,11,13,15,17,-1,19,21,-1,23,-1,-1,-1,25,-1,27,-1,-1,-1,-1,29,-1,31,-1,-1,33,-1,35,-1,37,39,-1,-1,41,-1,-1,-1,-1],"loss_changes":[2.2579768E0,7.9907787E-1,1.0935271E0,0E0,4.888129E-1,7.1982795E-1,7.845669E-1,3.3972466E-1,6.6359305E-1,6.8157935E-1,0E0,6.1616457E-1,5.880847E-1,0E0,4.996077E-1,0E0,0E0,0E0,5.960958E-1,0E0,4.336119E-1,0E0,0E0,0E0,0E0,4.1388577E-1,0E0,6.507518E-1,0E0,0E0,4.9666637E-1,0E0,5.251856E-1,0E0,5.820178E-1,3.6911267E-1,0E0,0E0,6.113952E-1,0E0,0E0,0E0,0E0],"parents":[2147483647,0,0,1,1,2,2,4,4,5,5,6,6,7,7,8,8,9,9,11,11,12,12,14,14,18,18,20,20,25,25,27,27,30,30,32,32,34,34,35,35,38,38],"right_children":[2,4,6,-1,8,10,12,14,16,18,-1,20,22,-1,24,-1,-1,-1,26,-1,28,-1,-1,-1,-1,30,-1,32,-1,-1,34,-1,36,-1,38,40,-1,-1,42,-1,-1,-1,-1],"split_conditions":[-2.593545E-1,-4.3466672E-1,-1.7769495E-1,-1.0448951E-2,2.9684633E-1,1.8289565E0,-2.2506428E-1,-6.006786E-1,8.7031347E-1,-1.7527455E0,2.336211E-2,-9.3225665E-2,2.4902225E0,-7.5348965E-3,8.471689E-1,1.8724022E-2,-1.2516307E-2,2.3917543E-2,1.1237556E0,1.7918715E-2,8.1207925E-1,1.5926395E-2,-1.0254534E-2,7.5359787E-3,-1.5618563E-2,-8.541447E-1,2.1232998E-2,4.5994762E-1,-9.794263E-3,-1.447582E-2,-7.956256E-1,1.4827172E-2,6.6178E-1,2.637016E-2,6.8784666E-1,-1.4120385E-1,2.1529064E-2,-6.2179957E-3,-4.3466672E-1,1.7900866E-2,-8.7178815E-3,-2.4720954E-4,2.3980547E-2],"split_indices":[5,7,7,0,4,6,6,5,4,2,0,2,6,0,2,0,0,0,2,0,3,0,0,0,0,6,0,2,0,0,6,0,4,0,4,5,0,0,7,0,0,0,0],"split_type":[0,0,0,0,0,0,0,0,0,0,0,0,0,0,0,0,0,0,0,0,0,0,0,0,0,0,0,0,0,0,0,0,0,0,0,0,0,0,0,0,0,0,0],"sum_hessian":[4.5E2,1.85E2,2.65E2,1.02E2,8.3E1,1.31E2,1.34E2,6.8E1,1.5E1,1.26E2,5E0,7.1E1,6.3E1,4.2E1,2.6E1,1.1E1,4E0,4E0,1.22E2,1.1E1,6E1,5.9E1,4E0,2.1E1,5E0,1.18E2,4E0,4.5E1,1.5E1,1.5E1,1.03E2,1.6E1,2.9E1,2E0,1.01E2,2.6E1,3E0,7.4E1,2.7E1,2E0,2.4E1,2.1E1,6E0],"tree_param":{"num_deleted":"0","num_feature":"8","num_nodes":"43","size_leaf_vector":"1"}},{"base_weights":[3.7639255E-3,-3.9175447E-2,1.6353114E-2,-9.536536E-2,1.6311236E-2,-1.0923586E-1,1.09080516E-1,-6.0556673E-2,6.9757566E-2,-9.154168E-3,-4.2917716E-4,-9.280341E-3,2.1236736E-2,-1.5729211E-2,-1.1589932E-2,3.1931388E-1,3.8487837E-2,-7.162148E-3,1.1545502E-1,-6.68452E-3,8.616694E-2,3.043561E-2,-4.3807988E-4,-4.033325E-2,1.06172405E-1,2.5282523E-2,-2.2003856E-3,6.512792E-3,1.9794645E-2,1.1242253E-2,-5.261969E-3,-5.061614E-2,1.9527824E-1,-7.256141E-3,1.5511942E-1,-1.24087505E-1,1.9482745E-2,1.6839491E-2,-1.26068E-2,-9.411489E-3,2.5158059E-2,1.192511E-2,-1.9864617E-1,-2.244841E-2,5.3895894E-3],"categories":[],"categories_nodes":[],"categories_segments":[],"categories_sizes":[],"default_left":[0,0,0,0,0,0,0,0,0,0,0,0,0,0,0,0,0,0,0,0,0,0,0,0,0,0,0,0,0,0,0,0,0,0,0,0,0,0,0,0,0,0,0,0,0],"id":13,"left_children":[1,3,-1,5,7,9,11,13,15,-1,17,-1,-1,19,-1,21,23,-1,25,-1,27,-1,-1,29,31,-1,-1,33,-1,-1,-1,35,37,-1,39,41,-1,-1,-1,-1,-1,-1,43,-1,-1],"loss_changes":[4.209924E0,1.1364319E0,0E0,5.251893E-1,7.601529E-1,3.6327767E-1,5.853859E-1,3.4702832E-1,8.382982E-1,0E0,3.2579425E-1,0E0,0E0,4.393863E-1,0E0,4.2907202E-1,5.271095E-1,0E0,4.6883073E-1,0E0,3.6621654E-1,0E0,0E0,3.200505E-1,7.503353E-1,0E0,0E0,3.06529E-1,0E0,0E0,0E0,5.1146376E-1,5.718453E-1,0E0,5.049902E-1,4.034311E-1,0E0,0E0,0E0,0E0,0E0,0E0,4.7517997E-1,0E0,0E0],"parents":[2147483647,0,0,1,1,3,3,4,4,5,5,6,6,7,7,8,8,10,10,13,13,15,15,16,16,18,18,20,20,23,23,24,24,27,27,31,31,32,32,34,34,35,35,42,42],"right_children":[2,4,-1,6,8,10,12,14,16,-1,18,-1,-1,20,-1,22,24,-1,26,-1,28,-1,-1,30,32,-1,-1,34,-1,-1,-1,36,38,-1,40,42,-1,-1,-1,-1,-1,-1,44,-1,-1],"split_conditions":[1.056994E0,-2.7388817E-1,1.6353114E-2,6.8784666E-1,-1.14948146E-1,1.0042386E0,-3.1449497E-1,2.9515934E-1,-1.5008518E-1,-9.154168E-3,-6.4529717E-1,-9.280341E-3,2.1236736E-2,-6.400622E-1,-1.1589932E-2,1.0059242E0,2.522745E-1,-7.162148E-3,-9.3225665E-2,-6.68452E-3,6.974832E-1,3.043561E-2,-4.3807988E-4,5.5713914E-2,2.6575953E-1,2.5282523E-2,-2.2003856E-3,-1.5714557E-1,1.9794645E-2,1.1242253E-2,-5.261969E-3,1.2343901E0,9.9509245E-1,-7.256141E-3,6.657004E-2,-9.92534E-3,1.9482745E-2,1.6839491E-2,-1.26068E-2,-9.411489E-3,2.5158059E-2,1.192511E-2,7.474865E-1,-2.244841E-2,5.3895894E-3],"split_indices":[1,1,0,4,5,0,2,3,1,0,1,0,0,5,0,3,1,0,2,0,0,0,0,5,5,0,0,3,0,0,0,2,1,0,1,5,0,0,0,0,0,0,1,0,0],"split_type":[0,0,0,0,0,0,0,0,0,0,0,0,0,0,0,0,0,0,0,0,0,0,0,0,0,0,0,0,0,0,0,0,0,0,0,0,0,0,0,0,0,0,0,0,0],"sum_hessian":[4.31E2,3.63E2,6.8E1,1.8E2,1.83E2,1.69E2,1.1E1,7.5E1,1.08E2,1.43E2,2.6E1,5E0,6E0,5.3E1,2.2E1,1.1E1,9.7E1,1.4E1,1.2E1,3E1,2.3E1,8E0,3E0,4.5E1,5.2E1,4E0,8E0,1.7E1,6E0,6E0,3.9E1,1.9E1,3.3E1,1E1,7E0,1.6E1,3E0,3E1,3E0,3E0,4E0,3E0,1.3E1,9E0,4E0],"tree_param":{"num_deleted":"0","num_feature":"8","num_nodes":"45","size_leaf_vector":"1"}},{"base_weights":[8.644713E-3,-8.3412305E-2,6.130961E-2,-8.7706E-3,-3.549853E-2,-2.5194548E-2,1.2792374E-1,-1.0196238E-2,-1.4490306E-2,-4.2243853E-2,2.3132417E-2,1.3521683E-1,-9.307661E-3,2.0261442E-2,-1.3415819E-2,-4.9990583E-3,8.88473E-2,7.854017E-3,1.793561E-2,-5.0268557E-2,1.0571435E-1,-8.091821E-4,2.3302346E-2,-8.2661845E-3,1.7086713E-1,-1.2254516E-2,1.0489853E-2,-1.0105142E-2,9.996577E-3,2.0768998E-2,-9.173743E-3],"categories":[],"categories_nodes":[],"categories_segments":[],"categories_sizes":[],"default_left":[0,0,0,0,0,0,0,0,0,0,0,0,0,0,0,0,0,0,0,0,0,0,0,0,0,0,0,0,0,0,0],"id":14,"left_children":[1,3,5,-1,7,9,11,13,-1,15,-1,17,-1,19,-1,-1,21,-1,-1,23,25,27,-1,-1,29,-1,-1,-1,-1,-1,-1],"loss_changes":[2.2110329E0,3.1428993E-1,1.6743191E0,0E0,3.2621574E-1,7.7347934E-1,3.2745552E-1,3.7389648E-1,0E0,4.5623952E-1,0E0,4.345441E-1,0E0,3.6090675E-1,0E0,0E0,4.7211084E-1,0E0,0E0,5.0230914E-1,3.4077132E-1,3.604139E-1,0E0,0E0,3.2946402E-1,0E0,0E0,0E0,0E0,0E0,0E0],"parents":[2147483647,0,0,1,1,2,2,4,4,5,5,6,6,7,7,9,9,11,11,13,13,16,16,19,19,20,20,21,21,24,24],"right_children":[2,4,6,-1,8,10,12,14,-1,16,-1,18,-1,20,-1,-1,22,-1,-1,24,26,28,-1,-1,30,-1,-1,-1,-1,-1,-1],"split_conditions":[-4.0376088E-1,-4.3466672E-1,-3.4900945E-1,-8.7706E-3,1.6177497E0,1.9547726E0,2.7038171E0,2.5633373E0,-1.4490306E-2,1.1190698E0,2.3132417E-2,7.9316825E-1,-9.307661E-3,-7.45085E-1,-1.3415819E-2,-4.9990583E-3,-5.295388E-1,7.854017E-3,1.793561E-2,1.3641357E0,-8.395149E-1,1.3936142E0,2.3302346E-2,-8.2661845E-3,3.4549704E-1,-1.2254516E-2,1.0489853E-2,-1.0105142E-2,9.996577E-3,2.0768998E-2,-9.173743E-3],"split_indices":[5,7,7,0,0,6,6,7,0,5,0,6,0,5,0,0,0,0,0,7,6,3,0,0,6,0,0,0,0,0,0],"split_type":[0,0,0,0,0,0,0,0,0,0,0,0,0,0,0,0,0,0,0,0,0,0,0,0,0,0,0,0,0,0,0],"sum_hessian":[4.54E2,1.65E2,2.89E2,8.9E1,7.6E1,1.26E2,1.63E2,6.7E1,9E0,1.21E2,5E0,1.59E2,4E0,5.8E1,9E0,1E2,2.1E1,1.33E2,2.6E1,3.2E1,2.6E1,1.6E1,5E0,2.5E1,7E0,3E0,2.3E1,8E0,8E0,5E0,2E0],"tree_param":{"num_deleted":"0","num_feature":"8","num_nodes":"31","size_leaf_vector":"1"}},{"base_weights":[-3.0780747E-3,-7.6598935E-2,1.279002E-1,-1.3296753E-1,-3.3593185E-2,6.29501E-2,1.5260538E-2,-1.0380104E-2,7.462637E-2,-9.078165E-3,-1.0498611E-2,-7.1074724E-2,1.1326915E-1,1.6716124E-2,-1.0293821E-2,-2.0704538E-2,1.796141E-2,2.8644842E-3,-1.4518797E-2,-4.964247E-2,1.7745207E-1,3.2598715E-2,-7.7972494E-2,1.14902645E-1,-1.3830564E-2,1.6331257E-2,-2.4711164E-2,6.959496E-2,-1.1511925E-2,-1.0296627E-2,4.192254E-2,1.5261004E-2,-1.3491115E-2,8.110523E-3,-1.52162155E-2,3.8931202E-2,3.2374832E-1,-5.5558216E-3,2.3276692E-2,8.320199E-2,-1.291524E-2,-9.99601E-3,3.1593192E-2,2.8943354E-3,2.4525274E-2],"categories":[],"categories_nodes":[],"categories_segments":[],"categories_sizes":[],"default_left":[0,0,0,0,0,0,0,0,0,0,0,0,0,0,0,0,0,0,0,0,0,0,0,0,0,0,0,0,0,0,0,0,0,0,0,0,0,0,0,0,0,0,0,0,0],"id":15,"left_children":[1,3,5,7,9,11,-1,-1,13,-1,15,17,19,-1,-1,21,-1,-1,-1,23,25,27,29,31,-1,-1,33,35,-1,-1,37,-1,-1,-1,-1,39,41,-1,-1,43,-1,-1,-1,-1,-1],"loss_changes":[4.285355E0,6.864228E-1,8.900392E-1,3.4720325E-1,3.5332376E-1,6.3524276E-1,0E0,0E0,3.163849E-1,0E0,3.6004502E-1,3.9443213E-1,7.1982694E-1,0E0,0E0,3.9327055E-1,0E0,0E0,0E0,4.997961E-1,5.2545273E-1,4.9382067E-1,5.040493E-1,3.4550223E-1,0E0,0E0,3.140109E-1,4.3161398E-1,0E0,0E0,8.1531966E-1,0E0,0E0,0E0,0E0,5.2333736E-1,3.9992392E-1,0E0,0E0,4.7548714E-1,0E0,0E0,0E0,0E0,0E0],"parents":[2147483647,0,0,1,1,2,2,3,3,4,4,5,5,8,8,10,10,11,11,12,12,15,15,19,19,20,20,21,21,22,22,23,23,26,26,27,27,30,30,35,35,36,36,39,39],"right_children":[2,4,6,8,10,12,-1,-1,14,-1,16,18,20,-1,-1,22,-1,-1,-1,24,26,28,30,32,-1,-1,34,36,-1,-1,38,-1,-1,-1,-1,40,42,-1,-1,44,-1,-1,-1,-1,-1],"split_conditions":[2.2132377E-1,-5.8339566E-1,1.056994E0,5.4013544E-1,-8.1318134E-1,-5.8788276E-1,1.5260538E-2,-1.0380104E-2,9.13758E-1,-9.078165E-3,1.7623346E0,-6.844393E-1,-2.856102E-1,1.6716124E-2,-1.0293821E-2,-2.679319E-1,1.796141E-2,2.8644842E-3,-1.4518797E-2,-1.9580473E-1,7.7843726E-1,6.8490785E-1,1.2897633E-1,-3.2499376E-1,-1.3830564E-2,1.6331257E-2,4.7131312E-1,2.6064435E-1,-1.1511925E-2,-1.0296627E-2,8.397217E-2,1.5261004E-2,-1.3491115E-2,8.110523E-3,-1.52162155E-2,-2.6017573E-1,-8.362943E-1,-5.5558216E-3,2.3276692E-2,-3.684361E-1,-1.291524E-2,-9.99601E-3,3.1593192E-2,2.8943354E-3,2.4525274E-2],"split_indices":[1,1,1,4,6,6,0,0,4,0,5,6,5,0,0,4,0,0,0,6,1,6,6,5,0,0,6,6,0,0,0,0,0,0,0,6,0,0,0,6,0,0,0,0,0],"split_type":[0,0,0,0,0,0,0,0,0,0,0,0,0,0,0,0,0,0,0,0,0,0,0,0,0,0,0,0,0,0,0,0,0,0,0,0,0,0,0,0,0,0,0,0,0],"sum_hessian":[4.43E2,2.84E2,1.59E2,1.22E2,1.62E2,9.2E1,6.7E1,1.15E2,7E0,3.1E1,1.31E2,2.5E1,6.7E1,4E0,3E0,1.27E2,4E0,1.4E1,1.1E1,1.9E1,4.8E1,6.6E1,6.1E1,9E0,1E1,3.8E1,1E1,5.6E1,1E1,3.9E1,2.2E1,7E0,2E0,6E0,4E0,5.1E1,5E0,1.6E1,6E0,4.3E1,8E0,1E0,4E0,3.8E1,5E0],"tree_param":{"num_deleted":"0","num_feature":"8","num_nodes":"45","size_leaf_vector":"1"}},{"base_weights":[6.626723E-3,-2.8990204E-2,1.4396377E-2,-8.01325E-2,2.4782583E-2,-9.5351994E-2,3.78286E-2,-1.3045807E-1,5.311927E-2,-8.795524E-3,-3.030333E-2,7.712536E-3,-1.2837656E-2,-2.2118311E-2,-1.8616665E-2,-6.441642E-2,5.8468794E-3,1.9528314E-2,-4.7632856E-3,-7.344965E-3,1.9030413E-2,2.2217942E-2,-9.999077E-2,-1.3880625E-1,2.0997534E-2,-1.3329524E-2,1.4294216E-2],"categories":[],"categories_nodes":[],"categories_segments":[],"categories_sizes":[],"default_left":[0,0,0,0,0,0,0,0,0,0,0,0,0,0,0,0,0,0,0,0,0,0,0,0,0,0,0],"id":16,"left_children":[1,3,-1,5,7,9,11,13,15,-1,17,-1,-1,19,-1,21,-1,-1,-1,-1,-1,-1,23,25,-1,-1,-1],"loss_changes":[3.1342068E0,1.0470102E0,0E0,3.5369217E-1,8.25145E-1,3.1671464E-1,3.7530437E-1,4.077959E-1,5.4751E-1,0E0,6.2430024E-1,0E0,0E0,4.285172E-1,0E0,4.6069127E-1,0E0,0E0,0E0,0E0,0E0,0E0,5.017053E-1,5.029405E-1,0E0,0E0,0E0],"parents":[2147483647,0,0,1,1,3,3,4,4,5,5,6,6,7,7,8,8,10,10,13,13,15,15,22,22,23,23],"right_children":[2,4,-1,6,8,10,12,14,16,-1,18,-1,-1,20,-1,22,-1,-1,-1,-1,-1,-1,24,26,-1,-1,-1],"split_conditions":[1.056994E0,-3.4900945E-1,1.4396377E-2,1.2643842E0,-7.8099585E-1,1.6701376E-1,4.2157188E-1,-9.0096E-1,-6.4529717E-1,-8.795524E-3,2.372367E-1,7.712536E-3,-1.2837656E-2,2.522745E-1,-1.8616665E-2,-2.378539E0,5.8468794E-3,1.9528314E-2,-4.7632856E-3,-7.344965E-3,1.9030413E-2,2.2217942E-2,3.6179464E-2,1.9245051E0,2.0997534E-2,-1.3329524E-2,1.4294216E-2],"split_indices":[1,7,0,3,6,6,6,6,1,0,6,0,0,1,0,1,0,0,0,0,0,0,4,0,0,0,0],"split_type":[0,0,0,0,0,0,0,0,0,0,0,0,0,0,0,0,0,0,0,0,0,0,0,0,0,0,0],"sum_hessian":[4.47E2,3.79E2,6.8E1,1.94E2,1.85E2,1.72E2,2.2E1,2.8E1,1.57E2,1.19E2,5.3E1,1.7E1,5E0,1.6E1,1.2E1,3.1E1,1.26E2,5E0,4.8E1,1.3E1,3E0,2E0,2.9E1,2.7E1,2E0,2.4E1,3E0],"tree_param":{"num_deleted":"0","num_feature":"8","num_nodes":"27","size_leaf_vector":"1"}},{"base_weights":[1.5684149E-3,-5.6981677E-3,4.675612E-2,-1.8704748E-2,1.1190107E-1,-4.3432575E-2,9.8996304E-2,3.6908403E-2,1.584689E-1,-6.0028057E-3,3.7803315E-2,1.6492309E-2,-3.6976477E-3,7.3990315E-2,-7.913018E-3,1.2221801E-2,-7.8009632E-3,-5.200095E-3,1.898889E-1,7.529734E-3,-1.5354116E-2,2.6425362E-1,-9.692038E-3,2.3159336E-2,-6.50821E-3],"categories":[],"categories_nodes":[],"categories_segments":[],"categories_sizes":[],"default_left":[0,0,0,0,0,0,0,0,0,0,0,0,0,0,0,0,0,0,0,0,0,0,0,0,0],"id":17,"left_children":[1,-1,3,5,7,9,11,13,15,-1,17,-1,-1,19,-1,-1,-1,-1,21,-1,-1,23,-1,-1,-1],"loss_changes":[1.6928E0,0E0,1.2601042E0,4.3505234E-1,5.110035E-1,4.1365638E-1,5.351931E-1,3.272276E-1,3.50888E-1,0E0,7.230126E-1,0E0,0E0,4.5956013E-1,0E0,0E0,0E0,0E0,4.728849E-1,0E0,0E0,3.5977173E-1,0E0,0E0,0E0],"parents":[2147483647,0,0,2,2,3,3,4,4,5,5,6,6,7,7,8,8,10,10,13,13,18,18,21,21],"right_children":[2,-1,4,6,8,10,12,14,16,-1,18,-1,-1,20,-1,-1,-1,-1,22,-1,-1,24,-1,-1,-1],"split_conditions":[-4.0376088E-1,-5.6981677E-3,-1.7769495E-1,1.3159876E0,-5.205858E-1,4.011131E-1,1.752018E-1,8.1207925E-1,2.7038171E0,-6.0028057E-3,7.923509E-2,1.6492309E-2,-3.6976477E-3,-5.439934E-1,-7.913018E-3,1.2221801E-2,-7.8009632E-3,-5.200095E-3,7.918516E-1,7.529734E-3,-1.5354116E-2,8.5651284E-1,-9.692038E-3,2.3159336E-2,-6.50821E-3],"split_indices":[5,0,7,5,6,4,4,3,6,0,6,0,0,6,0,0,0,0,2,0,0,5,0,0,0],"split_type":[0,0,0,0,0,0,0,0,0,0,0,0,0,0,0,0,0,0,0,0,0,0,0,0,0],"sum_hessian":[4.56E2,1.62E2,2.94E2,1.47E2,1.47E2,1.22E2,2.5E1,5.7E1,9E1,8.1E1,4.1E1,1.3E1,1.2E1,4.6E1,1.1E1,8.6E1,4E0,2.4E1,1.7E1,4.2E1,4E0,1.4E1,3E0,1.2E1,2E0],"tree_param":{"num_deleted":"0","num_feature":"8","num_nodes":"25","size_leaf_vector":"1"}},{"base_weights":[-1.105083E-3,-3.6414348E-2,1.2741246E-2,-8.068036E-3,-4.3412135E-3,-8.9742E-2,2.561546E-2,-9.133892E-3,3.4375515E-2,3.2475322E-2,-1.7060015E-2,2.607206E-2,-4.484271E-3,-1.6811319E-3,9.818667E-2,-1.6315907E-2,1.7717643E-2,2.4084512E-2,5.842863E-2,1.6103888E-2,-1.5178207E-2,-1.6421964E-4,1.7091438E-1,3.435898E-2,-1.1288695E-2,-1.0695705E-2,2.3650666E-1,4.836917E-3,-5.271634E-3,1.9396232E-2,-1.2378937E-2],"categories":[],"categories_nodes":[],"categories_segments":[],"categories_sizes":[],"default_left":[0,0,0,0,0,0,0,0,0,0,0,0,0,0,0,0,0,0,0,0,0,0,0,0,0,0,0,0,0,0,0],"id":18,"left_children":[1,3,-1,-1,5,7,9,-1,11,13,-1,-1,-1,15,17,19,-1,-1,21,23,-1,-1,25,27,-1,-1,29,-1,-1,-1,-1],"loss_changes":[2.8041863E0,9.1037184E-1,0E0,0E0,6.7002124E-1,3.323232E-1,3.615272E-1,0E0,5.746438E-1,4.266137E-1,0E0,0E0,0E0,4.6713424E-1,6.027169E-1,7.7129674E-1,0E0,0E0,3.8984513E-1,3.377673E-1,0E0,0E0,4.57366E-1,3.5305792E-1,0E0,0E0,3.0294806E-1,0E0,0E0,0E0,0E0],"parents":[2147483647,0,0,1,1,4,4,5,5,6,6,8,8,9,9,13,13,14,14,15,15,18,18,19,19,22,22,23,23,26,26],"right_children":[2,4,-1,-1,6,8,10,-1,12,14,-1,-1,-1,16,18,20,-1,-1,22,24,-1,-1,26,28,-1,-1,30,-1,-1,-1,-1],"split_conditions":[1.056994E0,-6.4529717E-1,1.2741246E-2,-8.068036E-3,-6.916385E-1,4.37979E-1,9.9509245E-1,-9.133892E-3,-8.032955E-1,1.2897633E-1,-1.7060015E-2,2.607206E-2,-4.484271E-3,1.4556595E0,2.5479242E-1,8.471689E-1,1.7717643E-2,2.4084512E-2,8.7669426E-1,9.13758E-1,-1.5178207E-2,-1.6421964E-4,-3.4900945E-1,-2.6895362E-1,-1.1288695E-2,-1.0695705E-2,1.8459191E0,4.836917E-3,-5.271634E-3,1.9396232E-2,-1.2378937E-2],"split_indices":[1,1,0,0,7,1,1,0,3,6,0,0,0,2,6,2,0,0,3,4,0,0,7,6,0,0,3,0,0,0,0],"split_type":[0,0,0,0,0,0,0,0,0,0,0,0,0,0,0,0,0,0,0,0,0,0,0,0,0,0,0,0,0,0,0],"sum_hessian":[4.38E2,3.67E2,7.1E1,1.07E2,2.6E2,6.7E1,1.93E2,5.1E1,1.6E1,1.89E2,4E0,3E0,1.3E1,1.25E2,6.4E1,1.19E2,6E0,8E0,5.6E1,1.03E2,1.6E1,3.7E1,1.9E1,9.4E1,9E0,3E0,1.6E1,7.2E1,2.2E1,1.5E1,1E0],"tree_param":{"num_deleted":"0","num_feature":"8","num_nodes":"31","size_leaf_vector":"1"}},{"base_weights":[1.6627269E-2,-4.5007646E-2,9.731393E-2,-5.5722524E-3,5.6058397E-3,6.4974055E-2,1.3611543E-2,-6.384768E-2,5.1057234E-2,2.191386E-2,4.2341463E-2,1.7876823E-2,-6.18508E-3,1.5277565E-1,1.4042464E-3,-2.016705E-2,8.587514E-2,2.4200878E-1,-1.879858E-2,-2.759958E-3,1.4792525E-2,2.2396311E-2,-1.7061383E-2,1.9124277E-2,4.155616E-2,3.070079E-1,-3.2666724E-3,-3.4772637E-3,2.862731E-2,-1.517681E-2,6.213235E-2,2.4981437E-2,-9.73317E-3,-4.2294867E-2,1.2880547E-2,-5.3297937E-2,1.21179946E-1,4.87477E-3,-1.1762129E-1,1.675818E-2,-1.1461046E-1,1.398308E-1,-2.1529144E-2,-1.8730687E-2,1.0678757E-3,-1.2237275E-2,1.6421175E-2,1.3909745E-2,-2.9940405E-3],"categories":[],"categories_nodes":[],"categories_segments":[],"categories_sizes":[],"default_left":[0,0,0,0,0,0,0,0,0,0,0,0,0,0,0,0,0,0,0,0,0,0,0,0,0,0,0,0,0,0,0,0,0,0,0,0,0,0,0,0,0,0,0,0,0,0,0,0,0],"id":19,"left_children":[1,3,5,-1,7,9,-1,11,13,-1,15,-1,-1,17,19,21,23,25,-1,-1,-1,27,-1,-1,29,31,-1,33,-1,-1,35,-1,-1,37,-1,39,41,-1,43,-1,45,47,-1,-1,-1,-1,-1,-1,-1],"loss_changes":[2.1826046E0,4.2190474E-1,5.6709635E-1,0E0,3.189358E-1,7.751575E-1,0E0,3.1510636E-1,3.0787343E-1,0E0,3.6093357E-1,0E0,0E0,8.090298E-1,3.5787413E-1,5.2047724E-1,6.2269706E-1,3.323545E-1,0E0,0E0,0E0,4.642796E-1,0E0,0E0,3.4937617E-1,3.260579E-1,0E0,3.3050892E-1,0E0,0E0,4.1541147E-1,0E0,0E0,3.25585E-1,0E0,3.9944333E-1,3.589117E-1,0E0,4.496719E-1,0E0,3.9881575E-1,4.0570492E-1,0E0,0E0,0E0,0E0,0E0,0E0,0E0],"parents":[2147483647,0,0,1,1,2,2,4,4,5,5,7,7,8,8,10,10,13,13,14,14,15,15,16,16,17,17,21,21,24,24,25,25,27,27,30,30,33,33,35,35,36,36,38,38,40,40,41,41],"right_children":[2,4,6,-1,8,10,-1,12,14,-1,16,-1,-1,18,20,22,24,26,-1,-1,-1,28,-1,-1,30,32,-1,34,-1,-1,36,-1,-1,38,-1,40,42,-1,44,-1,46,48,-1,-1,-1,-1,-1,-1,-1],"split_conditions":[9.752079E-2,-4.2864192E-1,1.4284029E0,-5.5722524E-3,-4.168887E-1,-8.123509E-1,1.3611543E-2,-3.9769116E-1,-4.8022053E-1,2.191386E-2,-4.796224E-1,1.7876823E-2,-6.18508E-3,6.8490785E-1,6.812169E-1,-5.586232E-1,-2.8065744E-1,6.812169E-1,-1.879858E-2,-2.759958E-3,1.4792525E-2,-5.8788276E-1,-1.7061383E-2,1.9124277E-2,-2.1921237E-1,1.460394E0,-3.2666724E-3,8.471689E-1,2.862731E-2,-1.517681E-2,-2.0684311E-1,2.4981437E-2,-9.73317E-3,1.2804365E-1,1.2880547E-2,1.5942228E-1,1.3665015E0,4.87477E-3,8.397217E-2,1.675818E-2,1.056994E0,9.3527997E-1,-2.1529144E-2,-1.8730687E-2,1.0678757E-3,-1.2237275E-2,1.6421175E-2,1.3909745E-2,-2.9940405E-3],"split_indices":[1,1,1,0,5,2,0,1,3,0,6,0,0,6,2,6,6,2,0,0,0,6,0,0,6,5,0,2,0,0,5,0,0,2,0,1,1,0,0,0,1,5,0,0,0,0,0,0,0],"split_type":[0,0,0,0,0,0,0,0,0,0,0,0,0,0,0,0,0,0,0,0,0,0,0,0,0,0,0,0,0,0,0,0,0,0,0,0,0,0,0,0,0,0,0,0,0,0,0,0,0],"sum_hessian":[4.37E2,2.48E2,1.89E2,1.49E2,9.9E1,1.42E2,4.7E1,3.9E1,6E1,1.1E1,1.31E2,2E0,3.7E1,1.9E1,4.1E1,5.4E1,7.7E1,1.6E1,3E0,3.5E1,6E0,4.6E1,8E0,1.4E1,6.3E1,1.3E1,3E0,4.4E1,2E0,4E0,5.9E1,1.2E1,1E0,3.7E1,7E0,2E1,3.9E1,1.5E1,2.2E1,3E0,1.7E1,3.8E1,1E0,1E1,1.2E1,1.5E1,2E0,2.9E1,9E0],"tree_param":{"num_deleted":"0","num_feature":"8","num_nodes":"49","size_leaf_vector":"1"}},{"base_weights":[3.3450527E-3,-5.1031224E-3,4.3997783E-2,-1.0619909E-2,9.72205E-2,-1.6596894E-3,1.74607E-2,1.21320575E-1,-1.6169457E-2,1.4757281E-2,8.596324E-2,-1.2964365E-2,6.564607E-3,6.407855E-2,1.7930986E-2,3.9290734E-2,1.659703E-2,1.5546115E-1,-1.6034367E-4,1.9046908E-2,-4.2573167E-3,5.0017282E-2,-7.977504E-3,-2.044903E-3,1.7478166E-2],"categories":[],"categories_nodes":[],"categories_segments":[],"categories_sizes":[],"default_left":[0,0,0,0,0,0,0,0,0,0,0,0,0,0,0,0,0,0,0,0,0,0,0,0,0],"id":20,"left_children":[1,-1,3,5,7,-1,-1,9,11,-1,13,-1,-1,15,-1,17,-1,19,21,-1,-1,23,-1,-1,-1],"loss_changes":[1.3847843E0,0E0,8.556618E-1,4.8297533E-1,4.0913486E-1,0E0,0E0,3.580737E-1,5.046018E-1,0E0,3.0808562E-1,0E0,0E0,3.2711163E-1,0E0,3.2542133E-1,0E0,4.5300686E-1,3.0950457E-1,0E0,0E0,5.9419334E-1,0E0,0E0,0E0],"parents":[2147483647,0,0,2,2,3,3,4,4,7,7,8,8,10,10,13,13,15,15,17,17,18,18,21,21],"right_children":[2,-1,4,6,8,-1,-1,10,12,-1,14,-1,-1,16,-1,18,-1,20,22,-1,-1,24,-1,-1,-1],"split_conditions":[-4.0376088E-1,-5.1031224E-3,-1.7769495E-1,1.9547726E0,1.1351542E0,-1.6596894E-3,1.74607E-2,3.9072767E-1,1.3289992E0,1.4757281E-2,1.7067648E0,-1.2964365E-2,6.564607E-3,1.1715813E0,1.7930986E-2,-1.018203E-1,1.659703E-2,4.2438933E-1,8.471689E-1,1.9046908E-2,-4.2573167E-3,4.626773E-1,-7.977504E-3,-2.044903E-3,1.7478166E-2],"split_indices":[5,0,7,6,3,0,0,0,3,0,7,0,0,5,0,5,0,3,2,0,0,5,0,0,0],"split_type":[0,0,0,0,0,0,0,0,0,0,0,0,0,0,0,0,0,0,0,0,0,0,0,0,0],"sum_hessian":[4.51E2,1.58E2,2.93E2,1.45E2,1.48E2,1.39E2,6E0,1.22E2,2.6E1,3.4E1,8.8E1,1E1,1.6E1,7.9E1,9E0,7E1,9E0,1.7E1,5.3E1,1.1E1,6E0,3.7E1,1.6E1,2.7E1,1E1],"tree_param":{"num_deleted":"0","num_feature":"8","num_nodes":"25","size_leaf_vector":"1"}},{"base_weights":[4.7324635E-3,-2.5445817E-2,1.19904846E-1,-3.0726619E-2,1.9186428E-2,9.742955E-3,-1.3786443E-2,-4.031568E-3,2.911729E-2,-2.9240947E-3,1.1074578E-1,1.186978E-2,-8.8913254E-2,-1.2617682E-2,1.4696373E-2],"categories":[],"categories_nodes":[],"categories_segments":[],"categories_sizes":[],"default_left":[0,0,0,0,0,0,0,0,0,0,0,0,0,0,0],"id":21,"left_children":[1,3,5,7,-1,-1,-1,-1,9,-1,11,-1,13,-1,-1],"loss_changes":[1.4732741E0,5.3273594E-1,5.036347E-1,5.173131E-1,0E0,0E0,0E0,0E0,5.840194E-1,0E0,5.437858E-1,0E0,3.2547274E-1,0E0,0E0],"parents":[2147483647,0,0,1,1,2,2,3,3,8,8,10,10,12,12],"right_children":[2,4,6,8,-1,-1,-1,-1,10,-1,12,-1,14,-1,-1],"split_conditions":[7.1653575E-1,1.9461244E0,2.841337E0,9.386487E-2,1.9186428E-2,9.742955E-3,-1.3786443E-2,-4.031568E-3,2.9458214E-2,-2.9240947E-3,1.1823204E0,1.186978E-2,3.9072767E-1,-1.2617682E-2,1.4696373E-2],"split_indices":[1,5,6,6,0,0,0,0,5,0,6,0,0,0,0],"split_type":[0,0,0,0,0,0,0,0,0,0,0,0,0,0,0],"sum_hessian":[4.22E2,3.35E2,8.7E1,3.3E2,5E0,8.3E1,4E0,2.3E2,1E2,5.4E1,4.6E1,3.6E1,1E1,8E0,2E0],"tree_param":{"num_deleted":"0","num_feature":"8","num_nodes":"15","size_leaf_vector":"1"}},{"base_weights":[6.1435187E-3,-2.1939347E-2,1.1088158E-2,-7.8820586E-2,3.27702E-3,-7.871909E-3,1.8867716E-2,-4.095393E-2,4.0930964E-2,-6.888934E-3,2.0673299E-1,4.7443144E-2,-5.5860803E-3,-4.6522752E-3,4.5837183E-3,2.148274E-2,-1.0606424E-2,-2.2715717E-3,2.4920085E-1,2.8088927E-2,-4.904136E-3],"categories":[],"categories_nodes":[],"categories_segments":[],"categories_sizes":[],"default_left":[0,0,0,0,0,0,0,0,0,0,0,0,0,0,0,0,0,0,0,0,0],"id":22,"left_children":[1,3,-1,5,7,-1,9,11,13,-1,15,17,-1,-1,-1,-1,-1,-1,19,-1,-1],"loss_changes":[1.7890548E0,5.137514E-1,0E0,3.460123E-1,4.1637823E-1,0E0,6.294728E-1,3.8688177E-1,3.433335E-1,0E0,4.20045E-1,5.6882274E-1,0E0,0E0,0E0,0E0,0E0,0E0,4.9274886E-1,0E0,0E0],"parents":[2147483647,0,0,1,1,3,3,4,4,6,6,7,7,8,8,10,10,11,11,18,18],"right_children":[2,4,-1,6,8,-1,10,12,14,-1,16,18,-1,-1,-1,-1,-1,-1,20,-1,-1],"split_conditions":[1.056994E0,-6.4529717E-1,1.1088158E-2,6.828493E-1,-3.4900945E-1,-7.871909E-3,-1.3728562E-1,-4.1560555E-1,-7.546622E-1,-6.888934E-3,1.1823204E0,3.760775E-1,-5.5860803E-3,-4.6522752E-3,4.5837183E-3,2.148274E-2,-1.0606424E-2,-2.2715717E-3,1.2804365E-1,2.8088927E-2,-4.904136E-3],"split_indices":[1,1,0,3,7,0,6,3,6,0,6,1,0,0,0,0,0,0,2,0,0],"split_type":[0,0,0,0,0,0,0,0,0,0,0,0,0,0,0,0,0,0,0,0,0],"sum_hessian":[4.23E2,3.57E2,6.6E1,1.09E2,2.48E2,8.2E1,2.7E1,1.14E2,1.34E2,1.7E1,1E1,3.4E1,8E1,2.4E1,1.1E2,8E0,2E0,2.5E1,9E0,6E0,3E0],"tree_param":{"num_deleted":"0","num_feature":"8","num_nodes":"21","size_leaf_vector":"1"}},{"base_weights":[5.0793914E-3,-4.1977763E-3,5.456173E-2,2.818428E-2,1.1259231E-2,3.3640657E-2,-2.5148885E-2,-3.72606E-2,5.675242E-2,1.0422272E-1,-5.5952775E-3,2.0042362E-2,4.418423E-2,-6.4344965E-2,2.507953E-2,7.040446E-2,-3.6379274E-2,2.1231148E-2,-1.128934E-2,8.931024E-2,-1.3136546E-1,-6.54759E-3,1.0474682E-2,4.809581E-3,1.6594196E-2,-1.6939985E-2,1.4070581E-2],"categories":[],"categories_nodes":[],"categories_segments":[],"categories_sizes":[],"default_left":[0,0,0,0,0,0,0,0,0,0,0,0,0,0,0,0,0,0,0,0,0,0,0,0,0,0,0],"id":23,"left_children":[1,-1,3,5,-1,7,-1,9,11,13,-1,-1,15,17,-1,19,21,-1,-1,23,25,-1,-1,-1,-1,-1,-1],"loss_changes":[1.4513451E0,0E0,7.029742E-1,4.4364762E-1,0E0,3.3803853E-1,0E0,3.0775675E-1,4.2666125E-1,5.2612394E-1,0E0,0E0,3.1519547E-1,3.2239896E-1,0E0,4.389693E-1,3.9318258E-1,0E0,0E0,3.0521655E-1,4.001855E-1,0E0,0E0,0E0,0E0,0E0,0E0],"parents":[2147483647,0,0,2,2,3,3,5,5,7,7,8,8,9,9,12,12,13,13,15,15,16,16,19,19,20,20],"right_children":[2,-1,4,6,-1,8,-1,10,12,14,-1,-1,16,18,-1,20,22,-1,-1,24,26,-1,-1,-1,-1,-1,-1],"split_conditions":[-2.7388817E-1,-4.1977763E-3,1.3974522E0,1.3665015E0,1.1259231E-2,-6.916385E-1,-2.5148885E-2,-8.032955E-1,-6.0598123E-1,-2.1921237E-1,-5.5952775E-3,2.0042362E-2,8.1207925E-1,-2.1198668E-1,2.507953E-2,1.9245051E0,1.5874591E0,2.1231148E-2,-1.128934E-2,1.056994E0,-5.7204324E-1,-6.54759E-3,1.0474682E-2,4.809581E-3,1.6594196E-2,-1.6939985E-2,1.4070581E-2],"split_indices":[1,0,1,1,0,7,0,3,7,6,0,0,3,1,0,0,3,0,0,1,4,0,0,0,0,0,0],"split_type":[0,0,0,0,0,0,0,0,0,0,0,0,0,0,0,0,0,0,0,0,0,0,0,0,0,0,0],"sum_hessian":[4.55E2,1.98E2,2.57E2,2.06E2,5.1E1,2.04E2,2E0,5E1,1.54E2,1.1E1,3.9E1,7E0,1.47E2,7E0,4E0,1.11E2,3.6E1,1E0,6E0,1.02E2,9E0,2.8E1,8E0,9E1,1.2E1,7E0,2E0],"tree_param":{"num_deleted":"0","num_feature":"8","num_nodes":"27","size_leaf_vector":"1"}},{"base_weights":[5.006048E-3,-1.9473536E-2,9.185607E-3,-3.7963804E-2,4.9415004E-2,-3.0149724E-3,1.6502492E-2,3.9100116E-3,1.3872344E-2,4.1177396E-2,-1.3779575E-2,-9.219773E-3,5.9635406E-3],"categories":[],"categories_nodes":[],"categories_segments":[],"categories_sizes":[],"default_left":[0,0,0,0,0,0,0,0,0,0,0,0,0],"id":24,"left_children":[1,3,-1,5,7,-1,-1,9,-1,11,-1,-1,-1],"loss_changes":[1.3689071E0,4.808126E-1,0E0,3.6974967E-1,5.3033125E-1,0E0,0E0,4.652705E-1,0E0,3.98579E-1,0E0,0E0,0E0],"parents":[2147483647,0,0,1,1,3,3,4,4,7,7,9,9],"right_children":[2,4,-1,6,8,-1,-1,10,-1,12,-1,-1,-1],"split_conditions":[1.056994E0,7.645349E-1,9.185607E-3,2.0905309E0,2.6209077E-1,-3.0149724E-3,1.6502492E-2,-5.7204324E-1,1.3872344E-2,-7.8099585E-1,-1.3779575E-2,-9.219773E-3,5.9635406E-3],"split_indices":[1,7,0,5,4,0,0,4,0,6,0,0,0],"split_type":[0,0,0,0,0,0,0,0,0,0,0,0,0],"sum_hessian":[4.48E2,3.75E2,7.3E1,2.96E2,7.9E1,2.92E2,4E0,6.1E1,1.8E1,5.2E1,9E0,1E1,4.2E1],"tree_param":{"num_deleted":"0","num_feature":"8","num_nodes":"13","size_leaf_vector":"1"}},{"base_weights":[8.050428E-3,-2.4153278E-3,6.634155E-2,1.8474277E-2,5.0278742E-2,-1.4274499E-2,9.22206E-2,5.454761E-2,-8.761579E-3,1.6236903E-2,4.359636E-3,-7.7184495E-3,1.3075E-2,-6.713523E-3,8.030485E-3],"categories":[],"categories_nodes":[],"categories_segments":[],"categories_sizes":[],"default_left":[0,0,0,0,0,0,0,0,0,0,0,0,0,0,0],"id":25,"left_children":[1,-1,3,-1,5,7,9,11,-1,-1,-1,13,-1,-1,-1],"loss_changes":[1.0882417E0,0E0,5.657915E-1,0E0,4.6971095E-1,5.247048E-1,4.2761272E-1,3.4823245E-1,0E0,0E0,0E0,3.251859E-1,0E0,0E0,0E0],"parents":[2147483647,0,0,2,2,4,4,5,5,6,6,7,7,11,11],"right_children":[2,-1,4,-1,6,8,10,12,-1,-1,-1,14,-1,-1,-1],"split_conditions":[9.752079E-2,-2.4153278E-3,-8.123509E-1,1.8474277E-2,-4.532888E-1,-6.6103166E-1,-2.8065744E-1,1.056994E0,-8.761579E-3,1.6236903E-2,4.359636E-3,6.974832E-1,1.3075E-2,-6.713523E-3,8.030485E-3],"split_indices":[1,0,2,0,6,6,6,1,0,0,0,0,0,0,0],"split_type":[0,0,0,0,0,0,0,0,0,0,0,0,0,0,0],"sum_hessian":[4.42E2,2.57E2,1.85E2,1.3E1,1.72E2,6.8E1,1.04E2,4.2E1,2.6E1,1.8E1,8.6E1,2.9E1,1.3E1,1.7E1,1.2E1],"tree_param":{"num_deleted":"0","num_feature":"8","num_nodes":"15","size_leaf_vector":"1"}},{"base_weights":[7.4374103E-3,-3.4654557E-3,3.886675E-2,-4.270768E-2,6.4507894E-2,-8.848301E-3,1.4034351E-3,1.4508426E-2,5.242728E-2,-4.800242E-2,7.752105E-2,-5.8556567E-3,1.5373265E-2,4.623135E-2,1.1391955E-2,5.5704728E-2,-1.7050924E-2,8.747939E-2,-1.9081528E-3,1.6197877E-2,5.6108568E-2,7.8470365E-4,1.3917715E-2],"categories":[],"categories_nodes":[],"categories_segments":[],"categories_sizes":[],"default_left":[0,0,0,0,0,0,0,0,0,0,0,0,0,0,0,0,0,0,0,0,0,0,0],"id":26,"left_children":[1,-1,3,5,7,-1,-1,-1,9,11,13,-1,-1,15,-1,17,-1,19,-1,-1,21,-1,-1],"loss_changes":[7.882822E-1,0E0,6.0097015E-1,3.553117E-1,3.5733706E-1,0E0,0E0,0E0,5.127934E-1,3.9121163E-1,4.1260993E-1,0E0,0E0,3.3611113E-1,0E0,3.0668783E-1,0E0,3.5761505E-1,0E0,0E0,4.3891054E-1,0E0,0E0],"parents":[2147483647,0,0,2,2,3,3,4,4,8,8,9,9,10,10,13,13,15,15,17,17,20,20],"right_children":[2,-1,4,6,8,-1,-1,-1,10,12,14,-1,-1,16,-1,18,-1,20,-1,-1,22,-1,-1],"split_conditions":[-2.9873806E-1,-3.4654557E-3,-6.916385E-1,1.7386457E-1,-6.0598123E-1,-8.848301E-3,1.4034351E-3,1.4508426E-2,-3.4900945E-1,2.1430423E0,5.4013544E-1,-5.8556567E-3,1.5373265E-2,2.7038171E0,1.1391955E-2,-5.7204324E-1,-1.7050924E-2,-9.3225665E-2,-1.9081528E-3,1.6197877E-2,3.8353446E-1,7.8470365E-4,1.3917715E-2],"split_indices":[5,0,7,5,7,0,0,0,7,5,4,0,0,6,0,4,0,2,0,0,6,0,0],"split_type":[0,0,0,0,0,0,0,0,0,0,0,0,0,0,0,0,0,0,0,0,0,0,0],"sum_hessian":[4.44E2,1.59E2,2.85E2,6.8E1,2.17E2,2.9E1,3.9E1,1.6E1,2.01E2,4E1,1.61E2,3.6E1,4E0,1.18E2,4.3E1,1.15E2,3E0,8.3E1,3.2E1,1.4E1,6.9E1,5.3E1,1.6E1],"tree_param":{"num_deleted":"0","num_feature":"8","num_nodes":"23","size_leaf_vector":"1"}},{"base_weights":[-4.7579524E-3,-4.3072708E-2,6.414172E-2,-3.3929006E-3,1.6226836E-2,-1.4211695E-3,6.8753744E-3],"categories":[],"categories_nodes":[],"categories_segments":[],"categories_sizes":[],"default_left":[0,0,0,0,0,0,0],"id":27,"left_children":[1,3,5,-1,-1,-1,-1],"loss_changes":[1.1669472E0,3.7294543E-1,4.3609953E-1,0E0,0E0,0E0,0E0],"parents":[2147483647,0,0,1,1,2,2],"right_children":[2,4,6,-1,-1,-1,-1],"split_conditions":[2.2132377E-1,1.9461244E0,-2.593545E-1,-3.3929006E-3,1.6226836E-2,-1.4211695E-3,6.8753744E-3],"split_indices":[1,5,5,0,0,0,0],"split_type":[0,0,0,0,0,0,0],"sum_hessian":[4.4E2,2.83E2,1.57E2,2.79E2,4E0,4.4E1,1.13E2],"tree_param":{"num_deleted":"0","num_feature":"8","num_nodes":"7","size_leaf_vector":"1"}},{"base_weights":[2.5169407E-3,-1.2792958E-2,1.1211959E-2,-2.5727479E-3,3.1495117E-2,4.1052837E-2,-1.681163E-2,-4.2998753E-3,4.9792766E-3],"categories":[],"categories_nodes":[],"categories_segments":[],"categories_sizes":[],"default_left":[0,0,0,0,0,0,0,0,0],"id":28,"left_children":[1,3,-1,-1,5,7,-1,-1,-1],"loss_changes":[1.0602852E0,4.2239717E-1,0E0,0E0,3.711271E-1,4.0853694E-1,0E0,0E0,0E0],"parents":[2147483647,0,0,1,1,4,4,5,5],"right_children":[2,4,-1,-1,6,8,-1,-1,-1],"split_conditions":[1.4284029E0,9.752079E-2,1.1211959E-2,-2.5727479E-3,1.3665015E0,-6.916385E-1,-1.681163E-2,-4.2998753E-3,4.9792766E-3],"split_indices":[1,1,0,0,1,7,0,0,0],"split_type":[0,0,0,0,0,0,0,0,0],"sum_hessian":[4.44E2,4.05E2,3.9E1,2.65E2,1.4E2,1.36E2,4E0,3E1,1.06E2],"tree_param":{"num_deleted":"0","num_feature":"8","num_nodes":"9","size_leaf_vector":"1"}},{"base_weights":[7.617649E-3,-1.818648E-3,4.848058E-2,-3.2215118E-3,5.885121E-3],"categories":[],"categories_nodes":[],"categories_segments":[],"categories_sizes":[],"default_left":[0,0,0,0,0],"id":29,"left_children":[1,-1,3,-1,-1],"loss_changes":[6.0263157E-1,0E0,6.4563245E-1,0E0,0E0],"parents":[2147483647,0,0,2,2],"right_children":[2,-1,4,-1,-1],"split_conditions":[-1.7769495E-1,-1.818648E-3,-5.3503937E-1,-3.2215118E-3,5.885121E-3],"split_indices":[7,0,5,0,0],"split_type":[0,0,0,0,0],"sum_hessian":[4.42E2,2.44E2,1.98E2,5.3E1,1.45E2],"tree_param":{"num_deleted":"0","num_feature":"8","num_nodes":"5","size_leaf_vector":"1"}}]},"name":"gbtree"},"learner_model_param":{"base_score":"3.500931E-1","boost_from_average":"1","num_class":"0","num_feature":"8","num_target":"1"},"objective":{"name":"reg:squarederror","reg_loss_param":{"scale_pos_weight":"1"}}},"version":[2,0,3]}